LAYER: 0
NEURON_COUNT: 14
NUMBER_OF_CONNECTIONS: 35
-0.368958|-2.30096|-5.15454|1.15306|-0.513457|1.13259|-0.558336|5.65583|-2.55754|2.51924|-2.65959|0.544701|1.40149|-5.22201|0.736762|1.55922|0.680071|0.972795|-3.28431|-0.204017|1.88064
-0.538788|0.844547|0.220544|-0.0802727|1.3593|1.2257|3.00311|1.85861|-0.633415|-8.47164|-1.14863|-1.19062|2.87746|-1.4106|-2.11836|0.915315|-0.654503|0.841188|-3.26373|0.979401|-2.94927
1.98006|0.140802|-3.85349|-1.62977|-3.98154|-3.57641|-0.467909|0.410014|-0.0903282|-3.41297|1.77353|0.93342|0.116088|0.880218|1.21431|1.9931|-1.25351|-2.87134|3.02281|2.23078|0.00186222
-4.06054|-0.656816|0.507583|-0.19012|-2.11842|2.93281|3.1571|-0.631176|0.299398|-2.53007|0.101582|0.650717|-1.95467|-0.471878|0.456612|2.10102|0.00284387|0.0327366|0.336675|1.46944|-3.89812
-0.390798|-0.0943562|-1.25507|-0.745845|-1.15122|-0.0599262|-1.16049|1.63847|1.59744|-2.00984|1.2399|4.05886|-1.36229|-1.95076|2.8705|-3.88819|-1.71838|-0.950481|-4.49068|-0.0502696|2.74794
-0.178708|-3.02888|-3.99022|2.61979|-2.29665|-0.853129|0.842374|5.24517|1.29696|-1.12457|0.256725|-0.388346|-1.25902|-1.595|1.72779|0.0303933|-0.643764|-1.28174|-1.36613|-0.628463|-1.80505
-0.0291402|-1.27063|0.0611517|-1.45692|-3.22672|3.11933|-0.498889|1.76683|0.785032|-0.517861|2.04546|-0.808611|-2.13257|-0.0761765|1.64479|-3.48231|0.82119|-1.90455|1.30086|0.125124|-1.87888
-2.7975|-1.14718|3.35978|1.44421|0.288985|-4.83037|2.06565|-4.25522|0.695099|0.868474|1.99889|-3.48735|-3.75251|-1.07329|4.04814|-1.11212|-2.87321|0.690707|1.81895|2.61344|-2.35479
3.25891|-1.13462|-0.675366|1.60126|-0.784911|-0.18645|-1.68186|-2.35877|1.59212|-0.61608|1.66285|0.775392|-2.0623|-1.92944|0.374962|-1.84302|-0.556987|-1.32347|-2.57424|5.20808|-2.14781
4.83027|0.187541|1.42965|2.41928|0.352344|-0.263201|0.525866|0.183864|-0.997229|-1.31264|0.820922|-4.19874|-0.300367|-1.77501|-1.44696|-0.440146|-2.04695|-1.17922|-0.695868|-1.85999|0.360644
2.8473|1.49319|1.79672|1.21636|-1.72065|-1.23042|1.54967|0.431371|0.972732|4.34687|3.09771|-5.9774|-0.275627|-1.18818|-2.8916|-1.98567|-0.378628|-1.28689|-2.2692|-4.34924|0.0238177
1.76905|-0.869943|-2.32226|-1.39077|-4.46568|1.05349|-0.0181642|-1.05975|-1.13546|1.30605|1.89824|-0.0515185|2.6158|-2.84274|-2.53371|-1.69969|1.08224|-4.38711|1.24157|4.38422|0.315592
-4.25116|0.230878|4.29695|2.6927|0.989995|-3.26806|0.93905|0.305135|-0.104113|2.5353|0.79653|0.753747|0.485114|-4.1222|-1.49773|-0.28288|0.324636|-0.708495|-3.22751|-3.94782|-1.38585
-3.01136|0.197993|-5.784|0.533413|-3.67682|1.75456|1.677|2.12576|0.00909899|5.53106|-1.9278|0.0103828|-0.31628|-0.590813|1.79132|1.39017|-4.07493|0.667885|-1.41281|-2.82638|-0.80335
-4.89062|0.560264|-1.46655|0.130745|0.786312|2.46201|-5.29445|2.48457|-4.59537|0.472757|-0.710619|-0.917375|5.67271|-5.65543|0.319018|-0.14978|-0.128253|1.13181|-0.502282|3.05441|0.273149
0.0181199|-2.82897|0.262091|0.657078|-2.15033|-2.34505|1.98327|-4.65039|-2.07499|-0.113354|2.96804|0.483638|1.17559|0.268796|-2.23185|-0.129184|4.35325|0.436173|-5.21527|1.48572|-0.396548
-2.5823|1.86854|1.91638|-1.97389|-1.8466|1.20099|0.991038|1.80924|-0.197568|0.12078|1.37639|-0.165613|-2.78631|-0.130266|2.27372|-6.3698|-2.02338|0.161428|-0.154722|1.37409|-1.0136
0.425694|0.0772422|0.526693|-9.31837|-0.0192503|5.32078|-0.00614865|-0.241872|-2.02315|-0.20683|-1.46358|-0.248762|0.934315|0.736752|0.320865|-0.196645|0.0177559|-4.2772|1.6638|2.09381|-0.0593432
0.187001|0.575006|3.56251|-3.12398|-4.6317|-1.46845|-0.200837|0.320164|3.06519|-4.85475|-3.04861|0.692629|2.5841|-2.99622|1.1346|-1.21879|-2.72681|1.37684|1.99549|2.68794|0.145106
5.96187|0.700409|-2.14255|-0.666788|1.06697|1.97408|-6.33554|-1.31841|3.61858|-1.1861|-1.34667|-1.79431|0.00609799|-4.4221|-0.782319|2.81781|3.12182|-1.69182|-4.8131|-0.937389|-0.0322952
1.21432|1.77372|-2.33249|-1.06406|0.405163|2.07178|1.10513|-1.51998|-3.58762|-2.27169|3.16417|1.28355|-1.00723|-1.90095|-0.434754|-3.46793|0.163508|-0.445901|3.53639|2.59012|-1.12279
-2.29869|-0.471851|0.335084|0.547103|0.174613|2.82283|1.00953|0.577981|-0.0641822|0.721169|-2.12339|0.0205394|-3.74711|1.09339|0.947671|-0.563004|-0.274639|-0.387505|-0.449939|-0.315215|-3.65103
-5.04914|-1.34106|-4.78332|2.11605|-1.22417|-2.17746|-0.349088|-2.03866|1.84602|-0.553005|3.58892|2.87928|1.45957|-2.05073|0.566367|-0.919489|2.50159|2.27984|-2.02682|1.21349|-3.03608
2.98775|-2.13661|1.72336|2.77123|-2.68631|0.0535404|1.74999|-2.60821|2.02739|-0.311953|-1.10335|-4.10491|0.101253|1.64783|-3.98672|-0.530206|-0.645657|0.552959|-4.30009|1.9273|-0.202538
-1.05592|-0.684801|-2.53324|-0.439276|-0.336689|-0.697777|4.13949|-3.74062|1.75861|-1.13326|-1.94042|1.68702|1.34351|0.253775|-0.172886|-2.37842|-0.0236591|1.43301|-0.817314|-0.212566|-0.655598
-3.55068|-1.07414|2.60125|-2.39758|0.452038|-3.95619|-4.50818|-1.09582|1.63456|-0.192415|2.22971|-0.588541|-2.01855|-0.375165|1.76662|-0.160534|3.9934|-2.92312|3.83432|0.592903|-0.575328
-2.40393|1.91874|0.341056|2.30096|0.682147|1.76832|3.13469|1.33727|-2.16092|2.17849|-3.29007|-2.42914|-7.53482|-1.3539|0.713885|0.134608|-4.5623|-0.391286|-0.15504|-0.144959|3.99184
3.65246|0.140273|-0.873181|-0.987986|-2.85321|-1.59318|-1.38139|-1.49834|-4.5598|3.20736|3.94668|3.58048|-1.95255|-1.64309|2.36737|0.357892|-0.437019|1.42976|-4.64013|-3.4175|-0.246658
-4.3116|1.38013|-0.51623|-1.47137|-1.36595|3.22842|-1.06142|-0.259391|-3.41687|-0.702764|-2.18362|1.36967|-1.00883|1.50142|0.493251|-0.580056|1.18014|1.26135|-1.05405|-0.276215|-1.25502
0.669253|0.387928|-2.13411|-0.78818|1.08443|0.797611|0.685896|0.437619|-4.15247|0.336707|-2.00143|1.34436|-0.422321|0.0689841|-2.32624|0.214039|0.978424|-1.26266|2.14608|-1.18775|-0.050294
-1.65847|0.924221|-0.12132|-3.4249|0.250329|-0.338398|0.35051|-2.45944|-3.40949|2.84903|1.01653|-0.54336|-0.298154|0.281773|-3.91021|0.839507|3.63045|-2.54043|3.76398|0.0880876|-1.25507
1.13512|-1.16375|3.74002|2.26533|0.867783|-0.864555|2.97641|1.94816|-0.933556|1.94508|-0.780236|-1.53535|-2.62757|-0.791865|-0.556336|-0.690861|-0.468615|-1.69654|-2.38481|0.896009|-5.39927
-4.81943|-1.68477|-0.228579|-0.714793|-0.562146|0.143297|1.18642|-0.263284|0.988692|0.874907|1.43669|2.15533|-7.41825|0.466112|0.603695|-0.450391|-0.755808|-0.174864|3.51985|-0.278317|-0.881451
-0.387054|-3.16751|-1.24101|0.664773|-2.55364|2.72161|-1.62683|-1.85036|1.05239|-3.87408|2.53125|-2.15335|1.10892|-0.79971|1.79881|0.763168|1.28722|0.0356377|2.87421|0.561892|-3.64036
-3.42037|0.126983|2.99642|0.464733|-2.63136|0.0582472|0.97206|-0.516054|1.70289|0.123169|2.34639|-3.04898|-0.388345|-1.81525|-0.859115|-0.150945|1.52646|-2.60731|0.561628|-3.25243|1.11336
NUMBER_OF_CONNECTIONS: 35
-2.20144|-3.08955|-0.737199|0.477024|-1.227|-0.949274|-0.615336|0.617954|-1.4192|-3.1757|-2.17488|-1.02189|0.631764|0.330575|3.6274|1.06211|2.52806|2.75264|-1.41566|1.77551|-0.322489
-2.74824|-0.445183|0.231073|0.764379|-0.0909118|-2.44141|3.0642|-2.03306|-0.519094|-1.62186|0.109039|-0.826929|-3.02847|-2.72831|-1.2198|-0.188353|0.174013|1.43379|5.65153|-0.681571|-0.864331
6.5562|-2.1261|-1.14206|0.0628258|-0.427904|-0.80524|-4.15159|-0.576791|1.34218|-0.421924|0.425202|-2.36687|-0.508648|0.0836338|-0.866631|0.275028|-1.15054|-2.0696|1.68904|0.699225|-1.26313
-0.95917|0.20806|0.607171|-4.86404|2.92543|1.62993|-2.51662|-0.529339|-0.332423|-0.595924|-1.13105|2.0789|1.84081|-5.9126|1.72483|1.70829|-0.569563|1.81004|1.49288|-2.30963|-0.727622
1.19134|2.65243|0.42914|1.07802|0.108484|-5.02199|-2.59714|-3.27002|2.13689|-2.67164|1.22476|2.2071|1.42014|1.27153|-0.488831|-4.18223|-0.960985|0.738376|1.99889|-3.26517|-0.902706
-1.89957|2.94629|-0.0646064|-0.853572|2.07263|-0.124671|1.31396|-2.57938|1.51804|-3.09352|-0.731771|-1.6077|2.38133|-0.990551|-4.32278|1.99536|-1.11659|-0.867473|-1.58428|0.844525|-1.56693
-1.87529|-1.81323|-3.30546|-5.08035|0.514549|1.381|-2.8848|1.22079|3.01924|0.309899|1.62112|0.403808|-0.447884|0.824526|-0.137945|-0.0432741|1.71406|-0.982787|-0.299612|0.207518|-0.1874
-1.71598|-0.370242|1.44477|1.72883|1.43684|-3.91019|-0.762103|0.397804|-4.8544|0.550134|0.379303|-1.29683|-1.40086|-1.50867|-0.343882|3.16826|-0.784499|-0.0471368|-0.0717561|0.529742|-0.23607
1.49283|-2.811|-0.0347685|-1.00017|-0.0295331|0.171111|0.433539|1.42621|2.07414|-3.28|-1.85323|-0.993224|0.981876|-0.985834|-1.63924|1.94369|1.20323|-2.05553|0.445172|-0.773351|-0.020403
1.17537|-0.346946|-1.83522|-1.00902|-0.215769|0.233692|0.162234|-1.57608|-0.842144|0.651124|0.45672|0.30891|-0.371927|-1.16356|-1.53942|-0.666078|-1.63351|-0.998021|1.40459|-0.228861|2.57092
-2.58733|0.610375|-0.575938|-0.0240469|-3.1552|2.14802|0.98065|-5.92232|-1.90889|1.29984|1.57868|2.16271|2.04112|0.453703|1.50634|0.439201|-0.101328|-2.21723|-1.25661|-1.17656|0.0455715
4.04396|-1.02942|-2.05134|-0.481034|-0.273128|-0.411823|-3.07055|1.97407|-1.44204|-2.14912|0.0665144|1.44734|-2.36659|-0.954251|2.00905|-1.58892|0.765428|-3.5252|0.618431|0.481173|0.723353
-0.20431|1.5777|3.20405|-1.48999|-1.82548|0.458308|-0.937135|-2.34145|-0.818698|0.156987|-0.635281|0.58339|-1.20961|0.628552|2.50909|-2.38692|-1.71094|0.33512|0.433974|-2.99089|-2.07041
3.82395|-1.55463|0.872858|0.560936|2.60477|-0.342611|-3.17524|-3.11487|3.40469|1.42324|-6.61926|-0.775401|-3.56963|1.56057|2.28129|0.131414|3.30374|-3.38252|-3.0149|-3.11714|0.195106
0.886865|-0.170039|-4.66898|2.97666|1.34543|2.43109|2.59362|-3.06835|-4.43665|0.175748|-3.77432|-2.55271|-0.860406|1.55494|1.64721|-4.81335|-0.298708|0.664685|5.81482|-3.24157|0.998474
-1.37023|0.44588|-0.528744|0.944752|-2.53022|-4.47714|-0.341933|-2.17995|0.860004|3.08696|2.40872|-3.7851|3.10081|-0.199366|-1.29205|-0.561072|-1.64258|0.363314|0.832271|-2.65109|1.46078
1.60837|-0.94893|0.756094|0.693245|-1.88213|3.69307|0.430658|-0.538099|0.195669|1.60353|0.526894|-4.93606|-1.37913|1.52304|1.96465|-5.14949|-1.07291|-0.963362|-2.80251|0.135139|0.367475
1.90961|2.10531|-2.77714|-1.36119|-2.93355|1.29669|0.902073|-5.61319|-1.6392|2.34641|1.14215|1.83693|-0.325434|-2.65199|-0.175773|0.572999|0.737233|-0.273717|-2.80104|1.14765|0.61105
0.916807|1.13854|1.8921|0.760879|-1.61104|1.62915|3.96608|-1.38271|1.75709|-1.60843|0.789471|0.345309|1.36377|-2.69065|-2.59027|-5.42891|-4.25985|-1.35437|-0.154479|-0.555313|1.20812
4.18076|1.42648|-0.461291|-2.22089|-3.91119|2.07137|0.049853|3.02354|-0.449849|-3.75431|-0.279343|0.857727|0.698912|0.386385|-1.5734|2.17538|0.127815|-1.60755|-4.80926|-1.95901|-1.92887
-2.06502|-4.16528|-4.08427|-0.474253|2.15078|2.68498|0.155358|-0.787388|1.70066|-2.58715|1.94754|0.00663649|-2.20738|2.21512|-0.238576|4.06169|-0.984403|-0.325032|-0.00951328|2.57284|-1.49077
-4.08188|-2.89896|4.2101|1.08677|-2.91536|-1.25106|2.01897|2.12686|-0.37718|1.49032|-3.04145|-2.7293|-1.44492|-1.30067|-3.0785|3.32418|1.75217|-0.0716437|-2.30716|2.53303|0.649859
-3.22661|-3.38461|0.556174|-1.68979|-0.81387|-1.08618|3.09506|-2.30006|0.920566|0.486625|-0.000305935|-0.0608377|2.73305|-6.22311|0.929368|-0.62523|0.0501073|1.5502|0.378476|1.28359|0.603569
-0.266465|-1.31116|-3.00157|-3.29268|-0.180719|-4.3471|1.07973|2.43273|2.8131|1.29932|-0.316919|-1.65062|-2.33971|-2.16936|0.760882|2.50789|1.47573|0.450321|2.801|-4.70844|0.976159
0.474944|0.299569|4.48202|1.01634|1.82559|1.28596|-1.82685|-4.79116|1.26279|-3.0979|0.291474|-5.17364|-1.02199|1.77291|5.67558|2.22122|-2.93281|-0.608556|-3.31455|0.560784|-5.14231
-2.45909|1.6957|-2.83529|3.92983|0.843533|1.35583|-2.54812|-0.585049|-1.51742|-1.83585|-2.13199|-0.851894|0.348466|-2.5879|2.81585|-1.37602|-1.70305|1.50688|0.556706|0.588656|0.772572
-0.606629|2.00528|-0.730965|1.4455|0.474998|0.128404|1.09362|1.91609|-1.30399|1.7451|-0.89483|-5.70715|-0.327598|0.990086|-0.6287|0.924064|-1.55302|-3.57871|-2.45306|1.46756|-0.419951
-2.89085|1.07294|0.681994|-3.45414|-3.21952|-3.28448|0.261806|2.73648|-0.335144|2.83421|0.817702|4.3497|-4.41048|1.46525|-0.619833|-2.74104|3.01465|1.71407|-2.79056|-2.44727|-0.190405
-2.19124|0.00754641|0.953473|1.64736|1.35997|2.08506|0.707082|1.75748|0.461602|-5.003|0.13122|-2.39097|-3.53034|1.86803|-1.91149|-0.992443|1.64682|1.32872|5.13621|-5.05796|-6.84565
1.17486|0.268207|0.479328|1.9775|0.849723|-3.41734|-2.02304|0.535581|-0.53175|-2.15099|-5.85206|0.803537|0.783906|0.591808|-0.165051|1.49385|-0.231176|0.251265|-0.383333|0.198118|0.0720244
-2.08426|-1.66232|-1.78223|0.257351|-8.21181|-1.58593|2.42236|-2.0982|-1.69185|1.75007|4.49621|4.68073|-9.35621|-0.306923|2.08721|-1.04132|3.45259|1.58064|0.955778|-1.3396|3.56602
0.867892|-0.764923|3.38635|-0.372282|-2.03737|-2.4646|-1.41888|1.80948|0.518308|1.40015|-1.08335|0.351435|2.26973|-4.91016|-3.23862|-3.59554|2.88425|0.210415|1.62223|-2.79163|3.0835
-0.213627|0.654883|1.60671|-0.208931|-3.4856|-2.16072|-0.180247|0.766753|-0.251339|-1.70324|-0.619548|1.6036|1.30177|2.4264|0.781402|0.212279|0.384033|-0.617135|-2.59708|-2.47821|-2.45268
-0.588658|-0.978479|0.444831|4.36752|-2.90652|-0.356563|-0.0830047|-3.7454|-2.06962|-0.305064|1.65341|-0.627716|1.03211|1.62464|-2.02215|1.4034|-1.3082|-0.828935|-2.37733|0.293179|1.49553
-2.98047|-2.67728|-2.00772|1.1057|-1.51845|-2.09071|-2.26278|-0.206626|-2.69531|1.44361|1.26981|1.73673|-2.18533|2.70917|1.62944|-2.74032|-2.22642|0.218905|1.77502|0.657275|4.58196
NUMBER_OF_CONNECTIONS: 35
-2.22821|-2.18098|-2.24246|1.3058|-0.458653|0.0660296|-0.517203|1.38581|-1.73192|-0.543468|-0.389068|1.91524|-0.200303|-2.51699|1.75308|-0.894564|0.464512|1.63831|-1.04314|3.15848|-1.29378
-2.19899|0.860197|0.752855|-0.275138|0.972029|-1.14732|-0.61096|1.28248|-2.29375|-3.26839|1.30218|1.2939|-2.66954|3.53596|0.603917|-2.04416|-1.08723|-0.425583|-3.35579|1.40818|-1.02848
7.75074|-2.25503|1.02995|-0.0164561|1.25117|3.92922|2.38409|-1.15333|0.505822|-3.56119|-0.132454|-0.658995|2.31135|-4.40492|-1.82831|2.07819|-2.56804|-3.5438|-3.7825|-1.41421|-2.55061
-2.15227|1.94846|-3.28235|2.4465|5.13452|4.5627|-0.24391|-4.41885|-1.78555|1.65842|-0.605339|-4.15245|0.523649|0.183676|-1.54921|0.920083|-4.01535|3.55971|1.12096|-5.98278|1.58308
1.72362|0.121663|-1.08849|2.2654|0.677123|-1.72246|0.174295|1.73189|0.886073|-2.33051|4.91702|-0.915495|-1.32487|-4.15954|-0.987148|0.128055|-3.53738|-2.65356|-2.24|2.90679|-1.85736
-1.48474|-1.34306|-1.37033|-3.55749|1.01519|-2.46212|-1.51127|-1.7202|-1.79963|1.52186|0.882541|1.05208|-1.943|0.085901|2.93663|-4.11702|0.78926|0.580787|3.79805|0.862328|-0.605687
-2.99228|-1.23936|-4.12902|1.15484|2.5474|-0.756894|-1.31737|-3.41391|0.263279|-0.917612|2.01403|1.63343|0.424131|-1.10111|0.244636|0.42543|-1.42078|-3.16027|4.09873|0.542577|1.46835
-1.72256|-1.43787|-0.321199|1.57467|0.675525|1.38678|-5.23305|-1.95931|3.43569|1.09618|-1.01508|-2.06114|0.747117|1.4831|-0.489188|-0.312428|0.983286|1.54052|-4.64315|-1.40573|-0.214168
9.49919|-4.58163|-2.96067|-0.208726|-3.69051|-0.471934|-2.50114|5.34403|2.39372|-3.07631|-4.71797|-1.88687|-0.403214|0.232263|1.56914|-0.179722|0.423538|2.63671|-1.67762|0.897023|-1.77967
9.02916|-0.964753|0.521515|-2.62503|1.27369|-0.526828|1.14272|-5.56328|-1.08686|1.06612|-0.0115467|1.36625|-2.65402|-2.83983|-2.58696|-2.46603|0.643988|-1.13662|-0.370648|2.7597|-0.348677
-5.40325|3.80553|-4.59226|-0.930314|-0.540861|-1.43214|0.301177|0.637541|-5.1587|3.25686|2.5616|-3.36955|0.445751|5.002|0.264826|-3.50603|1.00218|-0.65463|3.2297|-1.64016|0.694942
-1.62691|0.576327|1.38133|0.923775|-0.840653|1.23542|-0.260969|-0.719657|1.56434|-0.187002|-1.46898|-1.06858|-2.22825|-0.375607|-1.37137|-2.6007|-0.0261025|-0.789363|-1.46282|1.78958|0.447248
0.307965|2.74446|-1.20269|0.752513|-3.11993|-3.50163|0.308741|-1.54565|-1.33024|-1.41773|0.944454|1.93319|-3.25149|1.43832|3.51494|-2.21748|1.982|3.5337|-5.84055|-3.83481|1.22285
-3.26661|1.16505|-3.53492|-0.923905|-1.68056|0.215407|1.04247|-1.01094|-0.386071|-0.808828|1.70214|2.03902|2.04517|1.06767|-4.30804|1.75947|0.788997|-4.86065|2.53762|-0.505533|-1.97196
-3.65629|-1.22917|-4.79673|0.0832762|1.48436|1.25454|-1.73052|-6.53361|2.51806|-2.23686|0.0583774|0.032131|2.50267|3.86215|2.64088|1.18817|0.408127|-1.91648|-4.48462|3.51154|0.0104019
-2.1512|1.51481|3.72176|0.565395|2.18049|1.58093|-2.62997|-0.169572|-2.10015|0.383007|-0.759961|-2.35172|-0.282234|-3.23261|-1.57909|0.313756|-0.0916783|2.54307|2.56735|-7.35089|-0.835409
3.6702|0.952036|-2.10724|0.576539|0.6819|-1.53245|-0.372108|-2.68736|0.0121994|-4.5975|0.332566|-1.30397|0.705223|5.90083|-0.0969976|-1.81654|-1.74695|-2.25059|-3.22642|0.826576|2.03032
4.60589|0.018233|-0.749106|-0.426662|-3.70715|0.631558|-0.489037|-4.58236|-3.96242|-1.34855|0.0347526|1.17953|0.209102|-0.898463|3.08765|1.13492|-3.33822|2.41773|0.184371|-0.530749|0.530131
5.26914|-0.263286|1.73031|2.1784|-0.542154|-3.6138|-0.143016|-1.56266|1.37752|-1.63568|-1.62288|-0.0659323|-3.90362|-1.1711|1.31774|-0.388457|0.431858|0.00435512|-1.86066|-0.0293558|-1.51925
9.7684|-0.977796|1.2815|-1.7479|0.237659|-2.93845|-2.84818|0.341968|0.32786|-0.601023|-2.64577|-2.92176|-0.198814|-0.217262|-3.45436|0.854025|1.64445|0.283973|-4.45603|0.224888|0.120868
-0.872781|-1.77876|-2.46399|-3.26668|2.42929|-1.34744|0.520204|0.122629|-1.14776|1.11581|0.165975|-0.521136|-0.508106|0.198062|4.32384|0.122417|0.322021|1.59183|1.42196|-4.21121|1.79355
-1.27829|0.324432|0.120026|-2.231|-2.37137|1.98907|-2.08068|0.904631|-1.73831|-0.199021|-1.91018|1.27217|2.31976|0.526354|0.0848818|3.64491|-0.849342|-2.47935|-2.58674|-0.111158|0.632177
0.553138|-2.25256|-1.71374|-0.543641|-3.22218|0.632684|-1.47856|0.0931704|1.53081|1.11708|-2.76049|-2.58053|2.52583|0.197878|-0.648439|-1.68963|1.26967|-0.758136|-2.43984|5.37418|-0.0735612
-1.22163|1.28941|-0.816698|2.06808|-2.31925|-0.822003|-5.70057|-0.288806|-1.73285|1.84047|-3.28159|3.15678|-0.178447|-2.28569|0.0247175|-0.585425|-2.02296|-0.120079|2.05403|2.3082|1.57793
-0.705266|0.00443155|1.72377|1.42696|-4.01446|-3.05902|-6.51307|-6.59531|-0.436452|4.10389|1.0902|-4.43971|0.421489|2.84173|0.619151|1.74|3.33015|0.740655|-1.35207|3.01093|-0.199063
-2.09606|-3.63494|-1.74725|3.7158|-2.57583|-2.10088|1.99469|-2.85386|-1.62428|2.25558|-0.358678|-1.40446|-1.6463|2.5675|0.961458|-3.22023|0.971103|-2.63978|1.6877|2.48178|3.09427
-2.87876|1.72519|4.05561|-0.299064|-2.12642|0.277077|-0.401382|1.85635|4.82161|-2.61454|-5.05131|-0.777231|-2.64527|1.15496|0.23699|0.98572|0.388093|-1.76884|-1.10737|-3.31201|1.56541
-3.66857|2.04577|0.520919|-2.69666|1.87616|-3.98386|-7.80297|0.400262|-0.311078|5.38513|0.374413|4.49555|-5.7471|1.64059|2.89697|-4.32432|-0.0919258|2.04444|0.676496|-2.21985|1.22119
-1.79802|2.70055|1.00569|0.938747|0.629022|0.428337|1.94484|1.30299|-8.84415|2.66988|-1.27305|0.359157|-1.27403|3.41172|-2.77444|-3.20045|-3.11824|-2.47032|0.979368|-1.425|1.00981
15.2451|-2.84189|-3.04914|0.108557|0.892025|-0.585099|-2.95353|1.68147|-0.627545|1.89422|-1.34899|-1.04926|-4.63321|-2.99731|-1.72402|0.204762|-1.2802|-1.0386|0.38438|-2.46114|1.10429
-1.41013|0.911332|2.80964|0.00232543|-2.23604|-0.201149|0.604017|2.8084|-3.6976|-2.49617|-3.71293|5.1541|-2.14599|-3.45965|2.68886|-1.4779|1.78185|3.25957|-0.448428|-1.35606|-3.18629
0.181425|-0.408208|2.82533|-0.0724816|-0.133865|0.53189|0.104729|2.41612|2.85082|-3.13676|-3.11716|-2.5259|0.343213|-0.364544|-0.716456|-0.689049|-1.1983|2.84228|-0.710722|-3.60269|0.44003
-3.54419|1.62292|3.08158|-1.03757|3.69027|0.107859|0.906912|2.8342|-0.519772|-4.31325|-1.43676|-6.07606|1.30554|0.537156|-0.00386511|-0.492133|-0.577488|0.111237|4.04736|-3.52928|-3.75182
-4.48624|1.30841|0.453735|2.82986|-1.25326|-0.417456|0.245415|-2.42019|-2.78038|-0.74989|-0.906861|1.27082|2.015|2.68857|-1.6708|1.27646|-2.13735|-0.858078|0.107627|-0.010613|-0.30657
-2.03951|-0.30591|1.08307|3.08023|0.180122|-0.844059|-1.08637|-5.10205|-2.11048|2.19524|-0.329607|2.34389|-0.0937806|-1.89751|-2.41807|0.278881|-0.0949013|-1.97133|1.93307|-0.0769147|0.570418
NUMBER_OF_CONNECTIONS: 35
-1.83163|0.968492|3.20284|-3.58047|-0.659945|0.52537|-4.0887|2.93358|0.443281|-1.64489|-2.36596|-2.40388|0.182748|-0.138287|3.40177|-2.85794|4.46221|1.15441|-1.92741|3.67457|-3.96075
2.64172|-0.27554|5.27453|-3.47846|2.32251|-4.96041|3.6258|-1.03797|-0.701354|-0.826886|-1.01077|-4.60032|2.45319|-0.737469|-3.95999|-0.770856|1.2164|0.435537|3.24295|-1.96137|-5.01488
6.86654|1.2156|1.48272|2.23532|0.211429|-3.11287|-3.36616|-1.83381|-3.65096|3.432|-2.89289|-3.59752|1.45363|-2.30391|-2.45497|4.97665|-0.923825|0.987318|-4.83979|0.186229|-0.539404
-0.308401|0.520988|-0.71967|3.34166|1.48034|-1.61876|-0.727605|-0.801505|-2.79548|2.3651|0.306153|-3.00552|1.39966|0.380186|0.28763|-0.312197|0.795046|-4.14405|-1.94228|-1.39232|2.40239
-0.186579|-0.254213|-2.04279|3.07824|-0.955471|0.226297|1.05705|-3.33994|-0.47232|-1.16518|1.4717|-2.88976|1.19168|-0.79545|1.64504|0.423658|-1.26468|1.40441|0.457596|-4.47316|-0.110538
-0.630487|-4.66052|-1.22086|-0.837428|-1.6303|-2.63178|-2.57482|1.54267|0.387856|-3.97551|-0.503015|2.3258|-2.94163|4.30528|1.82332|1.38921|2.08284|-2.10164|-1.49822|1.92091|0.87951
2.6116|-0.818785|1.00523|1.31374|0.81204|2.1246|-7.85289|-1.29202|2.80909|-2.67993|-1.78594|2.69457|-0.944193|2.1477|-0.617835|-0.75477|0.238114|0.161102|-4.15931|-0.0587479|-0.214712
-1.51407|2.32698|1.16236|0.464366|4.87837|-0.128759|-0.463754|-0.412892|-1.88472|-4.57074|2.73538|1.74351|-0.982335|-3.77631|-0.466774|-0.24746|0.68904|-1.62196|2.04224|-6.6662|-0.970725
3.70074|1.34508|-2.43893|-3.66386|-2.11985|2.57657|0.112359|-0.159185|0.601385|-0.308702|2.55704|0.927463|-3.46822|-3.81511|0.934985|-0.977731|-0.0126858|-0.522562|-1.54388|0.0270481|0.742496
4.45154|1.17285|-0.931043|-2.46947|-0.938254|0.301114|-0.201707|-0.577352|-0.725585|-2.26591|-2.87002|3.28035|-0.129321|-0.958106|-0.502413|-1.80688|1.96155|-0.939949|3.18551|-0.285512|-4.07411
-1.05292|-1.61566|3.11139|-3.93011|0.262937|-2.24335|-0.212876|0.885159|-1.00418|2.90681|6.01657|2.76109|-3.27267|1.6688|-2.11494|1.30384|-3.18965|-3.00398|1.79299|-2.95786|-1.74881
-1.55188|3.73872|-2.02572|-1.05074|-0.967387|4.03505|-4.31945|-2.20676|-0.0452086|-1.07598|1.79247|-2.17727|-2.76696|0.0447787|-2.51095|0.874173|0.669548|-0.064082|2.80557|0.988104|-1.45156
0.663281|4.76221|1.89475|-1.80258|1.60244|-0.336389|2.26161|0.909605|-6.28982|-4.36662|0.241179|0.27092|-4.43767|1.80258|-1.97152|-3.97403|-4.335|0.575872|2.12466|1.18648|0.797297
-1.89165|-1.71128|2.22754|0.700592|0.0255796|-1.231|0.408249|-3.63209|-0.362343|1.74375|-0.602688|-3.48772|2.73459|-0.356642|-1.5322|0.747785|0.884604|2.07832|-3.45053|0.512618|-2.68742
-1.10288|0.331365|-2.06996|2.27782|3.6478|-3.00538|-2.62883|-0.394131|4.66119|0.0308515|-1.5668|-1.19527|-4.2085|-2.54921|4.77449|4.24848|0.722416|-0.880181|-5.51441|1.09261|-3.43475
-1.02771|-1.55333|-0.656703|-0.952655|-3.58931|0.264275|-0.0428883|-0.634283|5.12774|3.22604|-3.98153|-3.12866|-2.13005|-2.33297|-0.202897|-1.09543|1.29605|0.695919|0.926238|1.02582|0.659811
1.43604|-1.06971|-0.894915|-0.863432|0.89397|-5.6705|-5.10013|-0.126131|1.91124|-1.14085|1.49487|0.527892|2.53142|0.711996|-0.0996987|3.80612|-1.2985|0.0831805|-5.21412|0.277644|1.42258
3.49021|-4.82431|-3.47965|-2.8422|-5.39991|0.652832|-1.15254|1.58525|2.75242|0.920503|-2.89226|0.522856|-1.17167|-0.476726|2.40792|-1.75026|0.222205|-2.33336|3.7801|2.42877|1.60191
3.03324|0.461149|-1.90325|-0.600494|2.00503|-0.150794|0.521263|-0.778976|-1.46752|-1.46113|-1.646|-0.299168|3.95417|1.54179|-0.983549|1.4127|-2.61038|-0.380352|-1.2583|-3.65054|-1.60786
1.42072|0.574567|-2.59057|-2.79714|-3.9885|4.95487|-2.69993|-1.40125|-3.26734|-3.19793|-0.792987|0.644858|1.6018|-1.17859|-1.22878|1.9072|1.84261|-0.725471|3.08714|-1.4718|1.32786
-2.15185|1.37238|-2.88004|-2.29782|-0.727031|2.63387|2.53721|1.05281|0.808854|0.56168|4.28417|1.96497|-0.902359|-3.06148|-0.229455|0.502471|-5.95067|-0.778807|-0.336645|0.476185|0.838098
1.54381|-3.14969|-3.07385|-4.14655|-1.31719|0.489164|1.24108|-0.580396|4.82759|0.916233|-2.32886|-0.0524059|1.17433|1.18429|0.993401|1.4418|-2.16098|-1.50772|1.74086|-0.708548|-2.67963
-0.0453014|-5.38401|1.61021|2.23581|-2.35942|-0.637629|-0.215358|-1.14759|0.168965|0.929056|-0.55154|1.39983|1.514|-2.61711|1.34279|-4.76034|1.78254|-3.80601|0.607426|2.08506|0.915366
1.69046|-0.10126|-0.798239|1.65672|-0.12106|3.14819|-0.849572|-1.57643|-0.342368|-3.58941|-1.30704|-0.575607|-4.68651|1.14803|-0.73428|-2.10413|-2.61909|2.54387|-1.24547|-1.20924|4.58766
-1.98668|-0.165033|-4.52107|1.56896|-0.702315|-5.77192|-0.762304|1.12758|-3.07627|-3.05503|-0.84981|-0.00776233|1.36921|-0.868316|0.885388|-1.62418|6.38344|0.298441|2.36655|1.00396|1.93965
-0.112621|0.90303|-0.0705547|1.58563|-2.94814|-1.62091|-1.42457|2.25222|0.832462|-1.28542|-1.8795|0.28433|1.19588|0.613624|-1.69871|0.402339|-0.435654|-1.71149|-1.29684|-1.74993|1.87876
-0.08149|1.59485|-3.01397|-0.128215|3.88696|3.38153|-0.834348|0.719884|0.857737|-3.44838|1.0509|-4.58102|-0.954949|-2.84931|0.37162|1.70383|0.960819|-2.09704|2.08518|-3.59225|-1.12413
-1.81959|-0.920314|5.35452|-0.458739|1.4769|1.60569|-2.7082|-0.708169|-0.0575909|0.852896|-4.11707|-1.18115|-0.953076|0.295423|-3.71629|-0.813886|-0.597889|0.751371|-2.91832|3.21718|0.186045
-0.766814|0.915195|-2.53802|1.52557|-2.3145|-0.779789|-2.89982|-0.447831|-3.76833|0.12061|4.84345|4.52488|-0.618956|1.14374|0.920897|-1.8739|-2.98103|-2.26383|-2.75893|-1.61954|2.77301
3.01867|1.15183|-1.64179|1.15409|1.57151|-4.7951|-0.298705|-1.77023|0.497862|-0.0163139|-1.3235|-1.4538|-1.17235|3.30486|-4.07867|2.21771|1.4977|-0.197851|-0.571416|-2.55364|0.49689
0.723177|3.76279|-0.495915|1.97827|-3.70521|2.53761|4.21515|1.09734|-1.78151|-3.70762|-3.29707|-5.34404|2.68254|-0.788337|0.922516|-2.72935|-0.548933|1.86215|0.492834|-0.861876|-2.65789
-2.54026|0.223857|-0.0669013|-0.352721|-1.44439|-0.134756|-0.595513|0.383259|0.0243722|1.60849|0.758459|1.63931|-1.63838|-0.202011|-1.02163|1.87899|0.35103|-2.47275|-0.72953|-0.358989|0.383413
-1.97139|1.94929|0.767788|-3.80709|1.15964|-0.554427|0.91631|0.756442|-3.34852|3.15819|-1.4418|-1.55982|0.025188|2.79044|-0.705437|-3.37849|-3.09849|-0.0541692|3.44124|-2.08812|-0.284526
-1.62548|-1.11251|1.64587|-2.33723|-0.998306|4.7469|-1.91055|-3.01137|1.31686|-1.00337|-3.23528|-0.699536|0.664408|1.01884|-4.95304|1.20287|-2.07086|3.06547|-2.41621|1.82059|3.97757
0.277007|2.6825|-0.699657|3.53122|-1.3601|3.5033|0.126905|-0.884385|-1.50567|-2.7534|1.05136|-2.97442|2.453|0.50338|-1.55574|-0.9733|-1.4459|-0.381827|-3.75136|-2.26841|-0.17056
NUMBER_OF_CONNECTIONS: 35
0.174198|0.769151|2.72022|-4.41203|1.63519|-0.777807|-5.49196|-1.8146|-0.494507|1.90248|-1.55295|2.17874|2.77299|1.76814|-1.97739|2.3804|-2.30529|-0.0966899|1.81009|-2.70055|-0.999589
-0.426092|2.16557|2.25084|-0.729293|2.96564|-6.34831|2.69146|4.32247|-3.61781|3.46019|-1.84848|-1.91203|-1.05913|0.682721|-3.34496|-1.12026|-2.08935|-0.178228|2.32402|-2.25516|-3.93562
1.33678|-2.37062|-3.03606|0.972964|-1.90238|-0.620455|0.04884|-0.00680964|2.29495|3.29296|-0.869305|2.69042|1.65911|-1.76222|-5.91289|4.57834|-1.24362|1.16458|0.0664497|-2.54558|-4.40311
-0.238239|-1.25664|1.87177|-0.944988|-1.63266|-2.23284|-2.29964|3.27972|-0.907085|-1.11537|-2.62319|0.545245|-1.63693|-2.30442|2.57495|-1.30525|4.16463|3.84418|-0.703311|-0.154716|-1.45922
0.691035|3.37165|0.618665|-1.14128|3.30033|-3.53015|-3.9658|-1.73792|-2.14257|3.3961|2.08403|-1.08193|-4.73685|0.963575|-1.72116|1.44173|-2.12972|-0.902541|1.18989|-2.60517|1.49835
0.325092|0.0752691|1.83391|2.5306|1.2804|2.98518|3.29466|0.82486|0.411999|-1.90566|-3.9113|-4.48392|1.00355|-3.09631|-3.06799|-3.66542|0.0897203|-0.800034|1.36072|-3.76576|0.187904
-0.543718|2.20226|0.263439|-1.21572|1.57421|1.21166|-0.365972|-2.76406|0.0476784|-0.0638739|-0.641724|-1.74905|-3.74463|1.50728|0.490389|-3.5394|-1.26166|0.652667|-0.616411|1.63593|1.3096
-0.602532|-0.0165956|-2.05469|-0.230968|-0.767456|0.558322|-1.40163|1.25726|1.73152|0.443089|-1.91094|-4.8298|-3.18384|-1.6608|2.48221|1.82642|1.52251|1.22622|0.629428|0.854545|-3.77456
1.28206|1.34765|0.421581|-0.947837|0.913571|-0.902233|-3.35655|-2.7817|2.05981|-2.91375|0.0487204|-0.294021|-1.27929|1.02527|2.56052|-1.16932|2.16454|-3.14546|-0.530874|-2.99964|3.11363
1.12256|0.241077|0.0434295|0.21227|-1.45609|-1.89693|1.16491|-0.546157|0.864861|-0.976697|-0.439802|-0.264916|2.842|0.337679|-1.5845|-2.37083|1.61238|0.227471|1.83225|-5.98658|-0.0577569
-0.690383|0.456877|0.250903|-4.14527|2.31382|0.802403|2.15895|0.493065|3.70009|-3.64194|-3.12693|-1.73931|1.75619|-7.37488|-0.463196|3.94247|0.960977|0.664229|-2.0075|0.442479|-0.705161
-0.981641|-1.9022|4.61075|-0.285395|-0.359448|-2.4747|2.92882|0.968971|-3.96727|-2.20489|-2.57965|2.12174|-0.288806|-1.40169|-3.66805|0.0058294|2.74466|-1.70951|1.67167|-0.377335|-0.00251919
0.536295|0.909838|3.73091|-1.34848|3.14876|0.233412|-0.561235|0.765058|-4.00539|-1.04117|0.392355|-1.23935|0.855867|-2.33916|-1.05069|-1.78963|-2.32382|-2.75225|-0.63133|1.35689|-1.30506
0.163848|-0.97261|-2.69216|-4.03744|-0.696322|-0.80747|-2.21709|-4.76773|-0.11726|0.0858281|1.30193|0.991228|-6.77185|2.41472|1.87428|1.76551|-1.08867|-3.49731|4.98575|0.44796|4.99457
-0.979603|-3.30085|1.8347|2.64068|3.3483|1.8808|1.35998|-0.739068|1.33792|-1.11957|-2.02918|0.513731|1.23485|-1.46626|-3.22129|1.59255|0.427184|-4.45176|-3.07066|-0.603471|-2.1281
-0.939133|-3.72131|-0.601116|-1.79795|-0.0594|-1.52842|2.4292|-1.58961|0.418967|-3.81564|-0.0927614|0.144275|1.33796|-1.28994|-0.754915|-2.59925|-0.758945|3.24457|1.03325|2.47984|0.519375
-0.582834|-3.40852|1.6944|-0.372606|2.0483|0.749419|-2.64793|-2.69618|3.67972|-1.01414|1.55579|0.579136|1.81107|1.47543|-0.13982|3.37692|-0.880796|-4.02465|-3.12295|-1.63365|-2.30572
1.51352|2.81901|-0.283361|-0.064885|-2.97517|-3.17609|-2.2054|-3.36745|-1.96954|2.87863|1.75559|-1.6572|-0.0283964|2.80423|4.14648|-2.31791|0.0639822|-4.79377|-0.300064|0.650198|0.572196
0.408704|0.260742|0.371144|0.224644|2.33324|-1.36633|1.15093|0.993003|2.05375|-1.16094|-3.22265|-0.748404|-2.62178|0.689802|-0.443427|-1.81006|0.658049|-2.75086|1.89912|-0.727207|-2.16462
2.10632|-2.13096|4.22892|-0.235812|-2.75876|0.255224|-2.30635|2.32867|-4.14619|-1.09537|-1.50288|-0.0498576|0.566877|-0.0170718|-1.88897|0.22866|-2.67937|2.59103|-2.33575|-1.06716|2.08031
-0.368692|1.27027|0.0571829|3.39839|-1.46345|4.11568|1.34056|-0.709454|0.254686|-1.46823|-0.909978|-2.13529|0.092131|0.372412|-1.29148|-2.61456|0.252809|-1.37506|-0.472241|-4.1557|3.64192
-0.239575|0.19051|-0.46223|0.748711|-0.449931|-0.374066|1.45036|-4.86928|0.33908|2.90299|1.11131|-2.15189|0.280284|-1.66087|-2.31168|1.98155|0.848317|-2.62903|0.110417|0.162982|-1.20654
-0.031035|-1.72817|-1.3338|0.545039|1.39143|-1.18323|-1.49055|-0.884868|-4.78894|3.32274|-0.125594|-3.0394|3.10607|1.9074|-2.74752|-0.990822|3.25212|0.658371|0.320542|-0.697529|-2.42493
-0.625796|0.173972|-5.69414|-5.12623|-1.57757|2.09087|-1.77363|-2.89903|0.711542|0.250756|2.84996|1.54571|-6.88446|-1.08025|3.70149|-2.96725|-0.896654|-0.873531|4.19737|2.68011|5.03581
0.220535|-0.388494|4.30543|-2.07508|1.54186|-3.87147|-2.01706|-0.377953|0.0904401|-4.21364|-1.4045|-0.7218|-1.54917|7.50759|1.27022|1.58271|-1.56266|-3.41017|0.772445|0.62479|-2.70884
-0.0568489|-1.2217|-0.912158|1.06182|1.59827|0.96026|-0.381392|2.36827|-0.502842|-0.213024|-1.33843|-0.600069|-1.76054|-5.94485|2.62185|-1.8668|-0.777704|1.22466|1.55851|-0.897018|-1.26863
0.00365955|-1.3104|-0.433818|-2.97195|4.75453|-1.53254|-0.453085|1.02326|-0.514157|1.95064|-0.26203|-3.44357|0.749657|-6.31516|1.22089|3.82221|1.67299|-1.26765|-2.5701|0.0748858|-0.355051
-0.832812|-1.17183|0.396657|2.90188|1.32871|0.72591|-1.61585|-0.325688|-4.13272|4.24477|1.22747|-4.47211|-1.43725|-6.43551|-0.705437|3.35258|-1.03926|-1.51132|2.49176|2.3761|-2.72025
-0.821053|1.30215|0.945762|-1.48961|-1.7869|-3.3515|-0.543397|-1.77503|-3.40673|0.305381|0.572044|-0.0598389|0.97467|0.442839|0.339691|0.588102|-2.32602|-1.20079|4.19991|-0.213701|-1.49577
1.68418|-1.68405|1.47942|-2.25858|-0.10739|-0.245084|-1.64942|0.302198|-0.198322|-1.4554|0.0898115|1.51755|-2.03163|0.0968349|1.37892|0.619353|-2.26301|0.928643|-2.58721|1.0905|0.201481
-0.314015|2.39377|1.28885|2.91928|0.626926|-0.856068|0.742398|-2.33309|-0.398387|0.877951|0.581087|-0.74531|1.26419|-2.66577|-0.863045|-3.12954|-4.985|-0.00422903|-2.61365|0.117249|2.14726
-1.38287|-0.367277|2.93343|0.25219|-0.848913|-0.573762|-5.32681|-0.918818|1.9848|-3.49964|3.47821|1.54005|-0.846886|-1.26825|3.47364|-3.01457|0.327675|-2.64853|-0.667557|4.83158|-1.66021
0.108149|2.09228|-6.40197|-3.11291|-1.72522|-2.27035|-3.16344|-1.2603|-2.74674|1.72908|4.72655|3.84548|-5.4826|2.187|2.39123|0.00123089|-1.45305|0.409139|1.13978|0.55763|1.36155
-1.88062|-1.12374|-5.60485|2.74935|-1.69526|1.56764|2.53718|-2.0568|0.313705|0.186266|-2.74686|-3.76536|0.302464|1.95034|0.123218|2.15061|0.746987|-1.48011|2.48723|-2.49151|1.90079
0.0907341|0.560534|-0.755731|0.575204|0.82807|1.27727|-0.561126|-5.54099|0.709292|-2.77937|0.287045|-0.162074|-3.97553|-2.26524|5.18721|-5.19291|-2.09708|1.64675|4.49498|0.833755|0.572399
NUMBER_OF_CONNECTIONS: 35
0.38393|-1.20861|0.543231|0.383888|-1.10048|2.24198|-0.248208|1.06064|2.51999|0.312685|-7.59458|1.60709|0.573238|0.218922|1.0832|-2.37862|-0.203301|-3.20596|0.423311|1.43132|-1.46774
-0.449045|3.96972|-2.416|-1.11377|-2.05041|-0.356677|-2.41515|-1.73634|-5.40759|-3.31014|2.32248|3.76202|-0.613151|0.0884776|0.26123|-1.10201|-1.48953|1.25211|2.08567|1.30373|-0.721449
0.736396|-1.76916|-0.443102|-1.80148|0.905816|5.26899|-3.22711|-2.87725|4.26928|1.40605|-4.242|2.02669|2.28686|-3.89603|-1.98818|-0.258477|-1.23431|0.0513265|0.750463|-3.03966|0.639867
-0.0854977|-3.45013|1.49169|-2.23178|1.25609|-3.80101|-0.502866|4.03077|-2.212|1.83623|-1.89208|-3.42549|-0.163986|-0.0719469|-1.03319|1.29683|4.36122|-0.39125|2.16857|0.463263|-2.25928
1.6684|-0.703944|-4.00559|3.22012|-0.845395|1.87891|1.21435|-3.27446|1.79187|0.446801|-1.60156|-1.52266|-1.1122|-1.79468|-3.79229|2.64558|-0.0789982|-1.79084|0.811459|-0.107056|-0.251083
-1.15062|0.994612|0.982901|1.91637|5.11936|-3.80011|5.28281|2.16679|-0.0137071|-0.175342|-5.10056|-7.11333|-1.66414|-4.49216|-2.91456|-1.83243|2.77034|-1.78142|2.06022|1.61735|-1.35686
-0.242445|-0.118931|-0.571294|-0.488027|-4.65126|0.760387|-2.99683|-3.1338|3.26264|-1.18372|3.12878|1.2546|-3.37842|-1.03012|3.98688|1.0927|0.731826|-0.144014|-2.82894|-2.86511|3.6871
-0.559024|0.510899|-4.58761|-3.38064|1.77276|2.70209|-2.21349|-7.29926|-3.71385|0.0873631|-0.0227955|1.30067|-0.215456|-0.438193|0.468366|2.52182|-2.23565|-0.690495|0.715625|2.3241|5.28132
0.708973|2.39963|-3.19599|-2.22925|1.15071|1.59654|-2.52646|1.14864|0.661268|-0.17637|-2.25547|-0.939643|1.09405|2.23374|-4.72194|-1.81129|4.77492|-0.00514498|-2.30769|-1.51054|0.609293
0.725776|0.41452|-1.64911|-1.73219|1.06376|1.10186|1.2861|-0.38726|-0.139285|-0.862112|-2.25779|0.237397|1.07264|-0.587132|0.101763|-2.00175|-0.772986|0.571862|-2.00894|0.940534|-0.544261
-0.978228|-3.20055|0.652666|3.91391|-0.893308|-0.608262|-1.11641|5.47313|-2.18487|0.332441|0.878427|-1.30163|-2.19074|-7.05029|-2.99969|3.83126|3.37031|1.28812|-0.641902|-4.12662|1.88266
-0.0315623|1.64222|0.104184|-0.707085|4.84474|-0.52896|0.870129|4.13776|-4.48254|2.72162|-2.65232|-5.05066|2.64659|-2.08433|-1.08572|0.377442|0.311963|-3.01197|0.478313|-3.30799|-2.32993
-0.32769|1.78351|1.31989|-0.722701|-4.27253|-0.353212|1.06267|1.27754|-5.75486|2.72254|3.27765|3.75227|-0.745163|3.83969|1.70638|-6.43218|-5.98846|-4.42416|-1.8251|0.611528|0.786739
0.242033|-0.753526|1.23865|-5.44865|-5.02975|-0.873471|0.654452|0.392456|-2.61755|1.6404|1.48427|-1.34817|0.958946|-2.54893|-4.48295|-3.24989|1.40189|2.73138|0.422334|3.47315|3.04636
0.0625449|-2.3231|1.85306|-2.14377|2.32427|-1.92123|0.683213|-1.96978|2.2334|-0.799742|0.0186246|-3.32092|0.0657478|-5.08915|0.812291|2.97717|1.22719|-2.54395|1.18707|4.00353|-4.4471
-0.791758|-0.295693|-0.759017|-6.45802|-2.67523|2.39561|-3.15454|2.6512|-0.506044|0.323421|0.247834|3.55812|-0.800231|1.65905|-0.260631|-3.14636|2.22018|0.392551|1.38748|-2.74074|-1.41851
-1.07112|-1.4663|1.22137|0.0227109|-1.77464|-0.761929|0.14975|-1.99409|2.32218|-3.90839|-1.81186|-0.605609|-1.51903|-1.14496|1.14455|0.670697|1.55448|-0.163207|3.052|1.96267|-2.01195
0.485113|-2.05574|-1.72521|-1.26065|-2.58267|-1.23718|-0.483454|-0.67171|1.06343|-0.822152|3.53408|4.01525|2.88877|5.8555|-2.33246|-8.05685|3.30686|-3.71278|-2.18386|-1.27537|1.35298
0.158255|-0.770924|2.21987|-0.00418002|0.531978|-1.6803|1.90762|-0.291766|2.38627|-2.07861|-2.471|0.159368|1.8618|-0.665136|-2.47758|-3.22796|1.83592|-3.24535|-0.749611|0.592745|0.231963
0.199953|-1.43846|-3.12278|-2.05524|-3.80108|-0.861399|-5.63211|-1.89526|-2.00551|-2.03393|2.91927|3.09149|-3.11456|4.97435|4.09787|-1.45743|-1.18983|3.74835|-5.27553|0.875758|6.11507
-0.421878|0.942345|1.55696|-1.12385|2.40947|-1.33448|-0.524316|0.782979|-3.5611|-3.06476|0.529983|-2.28865|0.000322969|-5.31906|4.11299|4.26925|-2.04587|2.95544|-2.11151|-0.0635834|2.02018
-1.01669|0.0383854|1.89093|-1.68097|-0.226699|-2.1621|-2.2308|-0.101092|1.08817|-0.1699|-1.05954|0.968143|1.39707|2.52313|1.64659|-4.22976|2.95196|2.24787|-3.82127|-0.478067|-3.56621
0.311465|-0.630024|-2.66505|-3.26204|-1.88088|1.11038|-1.12396|0.520485|-3.56093|2.53068|-1.24269|-2.78759|-3.25211|0.851856|0.518431|-3.64889|-0.296781|0.254423|4.92251|3.78721|2.39012
-0.570286|-1.87662|1.6492|-0.966308|-4.81598|4.75856|0.111022|1.45411|-1.72618|-2.5507|3.23081|0.166146|-0.392561|3.72849|0.876482|-6.24529|-1.27624|-3.01467|0.551644|-1.13546|1.33743
0.0281508|0.67181|2.07136|2.44349|0.0196238|-4.64946|1.82345|0.50111|2.91118|-7.97128|-0.258597|-1.73354|-1.42727|7.63218|-1.3781|-3.32333|-4.43277|-1.15998|-2.63342|2.91624|1.65022
0.310162|-0.36752|-4.97775|-2.93996|-2.1054|-0.842311|3.34781|-4.41746|-1.40676|0.806065|-0.36438|-0.167299|-1.79987|2.2183|0.5677|0.348737|-1.74542|0.0901395|4.60662|1.70434|1.07269
0.0354447|-1.0874|-0.183417|4.82297|3.77873|2.12905|-2.49921|-1.33758|-1.2077|-3.62162|-0.585047|0.842012|-0.280129|-2.87301|-1.57358|1.00102|-2.1942|-1.54449|2.96794|-0.923165|-1.63528
-0.40794|0.821326|1.23165|-2.71446|2.79796|-2.91564|0.436272|4.15208|3.33134|1.0391|-4.62678|-5.8835|0.0208063|-5.50918|0.158553|5.53551|1.99089|-2.68918|-5.679|3.51453|-2.03541
-0.756563|0.649655|3.24371|-0.00759585|-1.34811|-2.51669|-0.111419|2.4577|-3.03272|0.582906|-5.75762|-0.374992|4.29799|-2.09566|-2.95403|0.257197|-0.145451|2.45291|-1.4843|2.58347|-4.7157
0.191315|-2.70586|1.6408|-3.03009|-2.68718|-0.725385|0.787849|-0.238531|1.85545|-0.809262|-0.641251|-0.152357|0.167003|-0.587465|-0.103378|-0.282341|-4.07053|0.886404|0.980888|1.81322|2.4978
-0.0401647|1.8985|-0.303942|-0.0729693|-2.27238|0.12946|1.84536|-0.816114|-2.04178|-1.60883|-0.427958|5.04643|-1.73222|-0.598331|0.901434|1.07556|-0.979177|-5.92565|0.375591|1.73956|-2.08094
0.291435|2.51889|-1.66243|0.0204587|-0.957525|-0.623287|0.454906|-3.49219|0.900013|1.11949|1.94192|-0.75845|-1.65358|1.80532|0.179413|-3.7567|3.10881|-1.7565|0.717731|-1.84162|-0.73398
2.31906|-1.00045|0.327012|0.516549|-0.965319|-2.18337|1.96222|2.41408|-2.99671|-1.45467|-1.13277|-0.156349|-0.688825|1.68577|-0.738393|-1.83579|-0.144075|-0.366935|2.91506|-3.41339|-2.24982
-0.0883692|-1.54705|-1.39042|1.89955|0.998038|-0.059525|-0.50359|-0.441333|-0.576052|4.98031|-2.02837|-4.78081|1.19649|0.480608|-2.29833|3.381|0.174173|0.248105|-3.66339|-5.29645|3.51527
-0.445104|-0.813213|-0.847678|-3.97891|-2.56932|-0.583215|2.84768|-0.957625|-2.08833|0.193338|2.73807|2.35614|-7.87191|2.59572|6.06127|-2.30168|2.01096|-9.09309|-2.01716|4.04087|4.24483
NUMBER_OF_CONNECTIONS: 35
-0.109283|-2.96663|0.566464|-2.3016|-1.94202|1.19534|-1.97384|0.763216|-0.302477|-0.462412|1.04728|2.39861|-2.58314|3.33657|-1.4579|-1.55127|1.09113|-0.984957|-0.54731|1.84241|0.66145
0.0617213|0.806517|-0.28054|-5.44195|-2.19809|-1.64469|2.8258|0.950884|-2.51591|-1.46444|0.687538|2.55093|-1.26924|2.84232|0.569858|-0.952135|-4.54284|-1.2896|2.47518|1.08974|-1.4155
-0.00280843|0.520706|-0.373005|-0.482243|4.14365|2.31956|-2.13357|-1.57065|0.491204|-3.83463|-0.226164|-2.68842|-0.0973895|-1.14365|-0.85657|3.5567|2.9187|0.235707|-5.36856|-2.08737|0.0584288
-0.00252281|-1.59536|0.0513239|-1.0725|0.706064|-3.71431|-0.152812|1.94723|-1.41166|3.19928|0.149598|-0.417633|-0.842755|-0.534899|5.25945|0.764662|0.122823|-0.876055|-1.5832|-1.35028|-3.19341
-0.0946378|0.206955|1.04423|-3.2589|-0.179286|-3.26342|0.429958|4.21538|0.56944|-6.8725|0.559273|2.54905|0.634606|-2.56756|-3.2859|-1.4253|1.2062|-1.74289|1.4003|1.76919|0.953313
0.106912|1.87021|-1.04727|-2.54363|-3.50782|-1.15539|-2.76149|1.64905|-3.16126|-0.865276|3.5809|2.78494|-6.49246|4.68857|1.57799|-4.34367|-4.31235|-1.47562|3.2459|2.07856|1.61664
0.106532|1.1927|-0.098721|-2.66903|-0.00195842|4.92667|0.9025|0.167784|-2.06602|-3.4761|-2.17294|-1.61434|-0.082537|-1.19553|1.3237|-2.7301|1.69776|-3.42933|0.977104|1.50019|1.13408
0.0728896|0.161968|2.28813|1.15647|-4.31299|0.130561|1.2465|-1.49491|-3.78091|2.53024|-4.27124|2.3028|-0.00194604|-2.18528|1.83534|-3.07294|-1.04569|2.64271|-6.17231|-0.524972|4.70536
0.0503828|-1.82231|-2.80356|0.66247|0.697335|1.1857|-1.9232|-1.93353|1.42468|0.663876|0.0231754|-0.253286|-0.0864771|2.21323|-2.23466|0.974427|0.526802|3.41914|-4.88596|-1.1016|-0.153267
0.0137385|-1.13413|3.58183|2.46134|1.39751|-1.40777|-2.35052|1.13715|-2.14233|1.03134|1.69248|3.67483|1.5473|-5.61039|-1.78991|0.338664|-4.44165|-1.30826|-4.6971|-0.913377|3.55931
0.0759265|-2.10637|-4.27413|2.93923|5.76479|-2.95832|0.0954925|2.06795|2.483|0.186394|-5.32875|-7.95374|0.677141|-5.23686|-2.08824|6.29057|4.64487|2.69004|4.77356|-3.04626|-5.2705
0.0302281|1.11065|1.97578|-0.18358|1.87044|0.224363|-0.0583742|2.13082|-3.06616|0.367245|1.44944|0.0676153|2.54132|-5.86697|1.02613|0.710182|-6.53104|-2.62501|0.118687|-1.39607|-1.09946
0.00426211|0.67343|0.383301|-4.56491|-4.92924|1.68604|-0.471211|-1.65127|-5.90855|3.48512|2.46054|4.42016|0.160248|5.48393|-3.27945|-4.04458|1.52217|-2.5847|0.0526062|-2.66146|1.14806
0.0729412|-4.33761|-4.08467|-1.61731|-4.41916|3.85945|-4.39045|-1.95857|-1.96121|-3.8886|5.31553|3.64953|-0.916129|4.24654|4.55306|-1.65878|-2.50578|-1.10383|-2.18388|1.28181|3.33704
0.0687991|-1.35295|-1.20368|3.73113|-0.485356|-2.96349|3.14027|-3.49684|0.366796|2.93465|-4.39148|-2.3596|2.41993|-0.438765|-2.8644|4.60901|0.749564|-1.61762|-1.63773|-1.08455|-0.874805
0.0811473|2.80713|0.800319|-3.31961|-0.358564|3.03408|-2.86029|-4.40862|-5.37951|-1.42701|-1.86689|2.3839|-2.0464|3.21976|-1.04439|-4.12052|-1.13895|-3.25563|2.40576|1.98039|6.62677
0.857506|-1.16543|0.389561|-5.25338|-0.599018|2.22302|-0.893396|1.20918|1.27619|-2.80164|-2.75519|-0.560421|-0.241502|-3.88623|-1.62867|2.97164|3.38296|-1.26437|0.787999|0.406187|1.68379
0.0473934|0.604131|1.27817|-0.572885|-3.18124|-1.40001|-1.47619|-1.09596|-1.59062|-4.80207|1.50831|-0.448801|1.01841|-2.69882|3.16978|-4.04102|2.23245|3.59388|0.946782|-0.788673|1.77022
-0.0675645|0.976728|1.50258|1.13512|-2.67117|3.46848|1.63914|0.318032|-0.0144606|1.65052|-2.06889|-2.19276|2.72151|-2.8427|-1.16514|-2.67981|0.683829|0.62397|-0.740665|-2.57117|-3.54715
0.0750991|-0.810515|0.206363|-4.46587|-4.71329|-6.65626|-2.09616|-0.571875|0.25159|-0.55659|5.04264|-0.0945188|1.93291|3.61448|4.04206|-5.18276|-0.513|3.09629|-2.57969|1.95946|0.234999
-0.00650295|-3.93779|-0.276796|-1.53209|1.47715|1.6735|3.66113|-1.5976|-1.6188|2.04903|-0.401076|1.95198|1.48778|-1.06094|-0.216893|-0.00704632|-4.69416|-1.69423|0.409296|0.721171|1.51312
-0.211961|-1.18484|4.39151|0.234915|2.38159|4.15262|-2.13819|-0.697421|-0.453265|-1.20813|0.325756|-4.54311|-0.749444|-2.01994|-0.967869|0.299581|1.27123|-0.791376|-0.30829|-0.899872|-2.94574
0.060789|-0.280002|-3.97162|0.421498|1.559|2.17763|-2.18963|0.763367|-2.50591|0.385918|-0.108601|-6.77431|0.209622|0.842262|-1.64726|-2.74329|1.37578|-0.523403|4.64473|4.91027|-3.6097
0.0368601|-0.00706574|-3.68082|2.50716|1.38576|1.47891|1.76672|-1.72881|-2.38385|-2.76871|0.0675601|1.01322|-4.06317|-1.45997|-0.271885|3.01905|-2.80552|-0.508605|0.264563|-0.0319561|1.14673
0.0372723|0.673715|2.22356|5.55823|-2.39013|-5.80762|-3.23461|-3.37205|-0.286109|-1.76332|0.835176|3.25416|-1.69798|2.35234|-2.5608|-1.5169|2.10901|-1.38728|-0.699225|-0.0457245|1.24119
0.00928937|-0.703901|1.07136|-4.26939|3.13393|1.15822|-1.36089|-1.00297|1.71347|3.50789|-2.45457|-5.02809|-2.39727|-1.92209|-4.65344|0.542038|2.74914|1.12821|1.75573|0.657506|0.316325
0.0387651|1.48821|-2.22444|2.08297|1.43313|-3.39655|-1.07623|0.114938|2.71015|-0.908085|-3.7024|1.03202|0.818407|0.0597846|-2.75284|5.88443|-4.45513|-0.525902|-0.192859|-1.29584|-1.19607
0.0529027|1.77042|2.81493|4.53154|0.90549|4.00621|2.59423|1.50382|0.800634|-5.57581|-2.00937|-7.67229|1.29445|-3.84075|-1.78134|4.33152|0.0333278|-2.03797|-2.68438|-2.387|-4.08983
0.164561|0.177481|0.159862|-0.28484|-0.658224|-1.19765|2.09697|-0.219994|-3.64247|-1.43024|1.48005|2.09297|-0.814069|-0.936049|1.74917|-7.4538|-1.03527|-2.13082|1.13017|2.26228|-0.287019
0.0939893|1.0732|2.81448|1.03985|1.01281|-0.222804|-0.498024|-2.29594|1.40507|-2.18985|-1.5421|-0.201955|-1.22208|-1.50531|1.81958|-3.32407|-0.178873|-1.29929|-0.354669|-0.235524|0.608795
0.115718|1.6914|-2.26017|-1.30974|1.44005|-1.24306|2.27119|0.233528|3.35628|-3.21189|-5.35564|-0.215182|0.654652|1.03635|1.79937|2.43436|-1.27841|-3.87703|1.502|-0.678188|-2.97529
-0.295653|1.99786|-0.851958|-0.362952|-1.53199|-3.11929|-2.51821|-5.54025|1.07568|-2.56551|-0.773802|-1.8212|-3.57411|3.82989|2.16381|1.70745|2.09732|2.66948|4.13959|-2.47352|1.58215
0.0377772|3.1886|4.17953|1.58893|3.23291|-7.93533|4.00086|-0.445223|-2.22178|2.03161|-6.81567|-4.33746|4.46526|-2.525|-6.40143|-0.26019|1.25726|1.21777|2.46093|-0.283104|-3.89552
0.041237|-0.740899|0.000619722|0.199536|1.97689|0.0122546|-0.42447|-1.97856|2.47185|-2.20613|-1.00771|2.55504|-1.97526|0.575838|-3.73037|-0.929314|-2.65865|2.96861|-0.978798|1.70956|-1.65275
1.37751|1.46501|1.68961|0.980891|2.80411|-3.1162|2.1719|-0.689419|-3.45735|-2.98105|-1.25832|-0.138739|0.348024|2.76959|0.772714|-3.75271|-1.75323|-3.05732|3.7787|-3.59488|-0.963071
NUMBER_OF_CONNECTIONS: 35
-1.28591|0.579582|0.29419|-1.95164|0.513557|3.83428|-4.10397|-0.676165|-0.394883|-3.39282|0.0444722|1.50224|0.0511917|0.739024|1.27635|-0.12562|0.0604982|-0.769427|0.763929|0.892434|-2.36833
-0.170927|2.1785|6.34426|3.08832|4.43146|-0.36576|3.8565|3.62853|-2.05151|-2.68145|-3.4896|-3.15485|3.48173|-7.20645|-2.15239|-1.14803|-1.61949|-0.0943743|-3.46946|-1.72518|-5.7734
2.32852|1.81376|0.985163|-0.132313|0.58627|-0.666567|1.14077|-2.78527|-1.22072|-2.63987|-0.655187|-0.0325323|-1.67477|-0.839383|-2.5299|6.02512|-2.18721|1.38023|-5.39057|-1.97078|1.7859
0.681933|-2.58335|-2.84894|-2.29531|-2.05315|-2.8992|-1.12013|2.27172|-2.46346|1.12079|-0.370627|1.45241|1.71473|0.334751|3.62549|-1.63681|0.21153|-1.7051|2.11697|4.46256|-2.59278
-0.0352764|-3.82897|-1.23076|2.20746|1.24538|3.43907|3.2852|-0.914702|1.08578|2.15258|-2.92761|-2.99438|-3.62072|-1.94064|1.67714|-0.796871|1.89968|1.89556|-0.200154|-4.19804|-3.25936
-1.32365|3.05911|-1.30537|-3.05226|-3.75587|1.35362|-1.42401|0.711244|-0.777076|-1.55795|0.144437|3.07378|0.264764|3.3087|1.60068|-3.33625|-3.41961|-0.0580176|1.38926|-2.95144|-0.435037
0.172649|0.939371|-1.88389|1.15869|0.639801|2.15276|-1.30368|-1.41741|0.768293|2.54203|-0.668861|0.289868|0.894411|-3.34633|-2.04732|-0.667361|0.155958|-0.961948|0.588639|-0.794448|-3.08982
-1.04722|-2.57495|-1.659|-9.04488|-2.04539|0.17733|-2.26967|-0.308341|2.73769|0.194972|4.84431|2.63965|-0.55953|2.97289|-0.0410797|-3.74384|-5.26227|-1.63552|3.4873|-0.371393|5.71263
0.173456|-2.16951|-0.437864|-2.59711|2.07912|0.836545|1.67025|-2.45172|-0.547551|1.07761|1.57611|-3.81491|1.66594|1.31567|-1.1708|0.482181|-0.762657|-1.62654|-1.01556|-2.86891|3.3452
-0.0762404|2.29789|-2.59373|-5.79679|-0.0142242|-1.64456|0.295265|-0.427421|-0.0173022|-3.49672|-0.41759|3.13118|3.53907|1.86945|1.96235|-0.624626|-0.530974|-0.943184|-2.85793|0.343473|0.415751
1.95127|-0.270666|6.22668|-0.495123|4.74136|-0.912947|0.432999|1.89668|0.850401|-4.53401|0.510611|-5.18062|-0.382417|-3.1649|-3.26649|1.94645|-1.73647|-0.80766|-2.35748|-0.810065|-0.31669
-0.298063|-1.91418|0.0112634|-6.37006|-2.83958|0.0285779|-1.99345|1.57243|-0.872757|4.88126|0.994348|2.53981|-0.785024|2.83136|-0.869582|-4.11601|1.12715|-0.504968|-0.56516|1.09099|-1.13735
-3.04619|1.33058|-0.876089|-5.45312|-7.3649|0.338448|2.94158|0.724753|-0.196878|0.676858|0.756301|0.587728|4.32591|1.58931|-3.51083|-3.89534|2.82571|2.07695|1.75911|0.550082|-4.64768
-0.380105|-0.79595|-0.0450432|-3.48779|-0.630041|0.764868|-2.14036|-5.8528|-0.763135|2.6006|0.169299|0.561301|-1.70582|1.49438|3.62433|-3.54722|1.69414|0.726117|-1.35279|-0.0985194|0.743504
1.91289|-0.944194|-2.64925|4.80087|5.02391|2.87461|0.715298|-4.21929|6.4704|-4.94552|-3.87666|-1.5604|1.74713|-1.39579|-2.04772|2.39799|-0.382411|-0.309875|-8.26866|-0.946974|-1.26386
-0.931603|-1.46052|-1.99551|-0.893271|-2.71469|0.733107|1.99861|0.19195|-3.57057|0.645235|-2.06288|1.89473|-2.41851|2.06693|2.91705|-0.425013|-1.55838|1.98278|-5.65702|1.65547|1.45584
-0.50973|-1.95128|-2.68907|-4.03692|-0.074624|-1.26877|3.22817|-0.0913605|0.324166|-0.228388|0.67497|-3.03624|-2.34503|-1.83018|3.09875|-0.323952|0.822626|0.766142|1.21372|0.0867981|2.1374
-0.547142|-1.8616|-1.41772|-0.706038|3.21365|1.92394|-2.24425|0.286657|0.390786|0.946726|1.68816|-3.84203|0.705176|-3.39309|-1.65734|3.25194|0.478794|-4.3026|-0.264775|3.78286|-2.22811
0.183175|2.60931|0.823449|-1.88111|-2.92067|2.84744|0.622731|-2.47559|-0.988295|-3.47729|-0.398192|1.51951|-1.29991|-0.693484|1.55607|-4.81775|-0.391608|-1.50121|2.54875|-0.523743|2.81724
-0.136796|0.840863|-6.40322|-2.64798|-5.4915|-2.33812|-2.14581|-3.23756|1.21164|-0.0191632|6.13674|-0.716645|-0.88536|-0.556345|3.61718|-0.918245|-1.31585|1.82413|-2.0315|2.4063|4.64085
-0.180838|-0.617112|-1.19374|-3.65899|-2.60256|-2.09463|-0.521917|3.58878|-0.951502|0.954082|-2.67934|1.07998|0.97082|-0.922038|-2.39723|-0.0195374|2.9036|3.19491|-1.30453|1.53743|2.95525
0.608962|-4.50635|2.22584|-0.0887456|1.84914|-0.211892|-3.50866|-1.63788|-0.740322|1.58233|-1.40394|-1.123|2.09777|1.13076|1.26429|5.45436|-2.20665|2.98407|-1.56131|-4.773|-3.64703
-0.41103|-2.91685|-1.42505|-2.36067|-1.26816|3.67692|-1.33798|-3.52547|-2.60648|-3.454|2.20326|-0.603659|0.223539|2.49966|-2.35702|0.0908668|-0.213853|1.28437|3.09768|2.86133|-0.488395
0.226296|-4.86702|-2.72061|2.38931|1.25753|-0.669394|-2.94773|-1.47257|-0.897713|0.210007|1.16005|0.00329021|0.680731|-0.785648|-0.982952|3.75729|-1.86468|-0.408109|3.18362|-1.57611|-0.795116
1.40296|0.499419|0.167193|-0.677291|0.0884725|-6.75065|-0.455758|-1.41668|1.21552|1.20109|-4.38775|-1.96091|0.651554|0.570347|-1.8072|0.0526607|4.40541|0.189355|1.93379|1.78661|-3.10163
0.956903|-1.38564|-0.789749|-2.0852|1.063|5.38568|0.880251|-0.55076|-0.329788|0.553077|0.0576773|1.70582|3.23923|-0.805847|1.28295|-3.48604|0.821856|-3.85004|-4.87533|-0.840991|-2.82284
2.64842|-0.686568|-1.54501|-1.62967|-0.570089|-6.78013|-1.80993|2.70243|-0.00928283|0.190269|1.64032|-3.6411|0.566777|-2.64315|-4.3813|1.41377|1.27925|3.44189|3.7084|0.255205|-0.401915
0.842965|0.918495|-0.842782|-0.529507|-1.81302|-1.46863|-2.2376|2.784|1.08183|-3.21033|-2.89362|-1.5397|-1.78409|-5.44147|-2.70032|8.31742|4.36459|-0.415298|3.43433|-0.262667|-3.918
-0.306584|-0.230775|0.90141|-4.8247|-5.0001|-0.56699|-2.71468|-3.44634|-1.8939|-5.70125|3.72201|6.29072|-1.74521|2.2622|5.41019|-6.18501|-2.49888|-1.65687|2.55188|2.9858|3.92589
1.40913|-0.403369|-0.607811|2.42023|-3.01631|1.65433|-3.35483|-0.386496|-0.106472|-1.76261|-2.9528|2.34171|0.300477|-1.6959|-0.91076|-0.178977|2.47459|-1.30663|-0.834568|2.72298|-1.02547
2.66862|-0.521387|-3.32559|1.48943|0.914499|-3.78562|2.19588|3.12302|2.15674|0.635665|-2.65997|-3.74515|0.666961|-3.2113|-0.929437|-1.85646|-0.357097|0.157169|1.5776|2.78042|-3.7688
-0.358378|-0.196959|1.06445|2.1503|2.64945|-1.08053|0.280918|-1.02524|0.87318|0.833218|3.13152|-1.79558|0.386784|-1.54603|0.501612|-5.78901|-0.882451|-0.964784|-0.75387|-0.321879|-1.29571
-0.272393|2.16792|-0.0444947|-1.73775|-4.79944|2.17727|1.55518|2.97679|-3.73879|-0.231333|3.17651|1.67946|-2.89801|0.0646193|1.343|-8.81866|-1.32508|-0.834916|0.773284|2.7547|-1.14196
4.72158|-6.57323|-4.69486|-2.28724|0.498821|-3.18978|-2.65514|-0.381717|1.46071|0.960967|0.633027|0.838855|-0.523968|1.64862|-5.17158|5.92056|1.96163|3.50522|0.394441|-1.54633|-1.30537
-2.91117|1.53091|-0.537155|-1.32775|2.64211|-0.616949|-2.50259|2.78269|-1.80387|-0.635329|-2.31154|0.64238|2.13267|1.28723|1.5261|-5.76166|2.69171|3.3227|2.39856|-3.58047|-5.64508
NUMBER_OF_CONNECTIONS: 35
1.6182|1.3906|-0.425422|-2.73642|-2.84972|1.52211|-1.22363|1.37252|-0.981769|0.0402837|-0.0888266|-0.790516|-1.6686|2.71044|1.45529|-2.55835|-0.354095|-0.522042|2.23747|-0.70631|-1.93492
-1.20629|1.71501|0.115994|2.37626|1.02944|-0.542245|3.31761|2.81541|-6.62666|-0.623901|1.41566|-1.13255|0.336922|0.0360828|2.78912|-7.22654|0.255112|-1.28614|-3.27846|-0.111418|-2.32868
-0.995829|-1.1319|2.24012|-0.573221|3.46954|4.08466|0.385478|-3.75793|1.66379|-2.48927|-1.42565|-0.700871|0.185153|0.318253|-4.31214|5.34855|-7.48049|1.50916|1.53968|-3.0582|-1.42793
5.47278|-4.14337|-0.831149|1.355|-2.98792|-0.109387|-1.35413|0.0393271|-2.18378|2.80259|-2.06098|0.42785|0.221415|-0.455964|-0.983604|-0.603589|-1.30176|2.84289|0.727923|1.47877|-2.70176
-0.0466233|3.52586|-2.40707|-1.6936|-3.15511|-0.454907|1.53524|0.0020196|-4.63053|-1.61083|2.6265|-5.15238|1.26173|-1.27501|0.990906|-0.0921253|3.14368|-0.660257|2.04412|1.09591|-2.41922
-0.711131|0.82685|3.98424|2.23789|2.57887|-2.78641|3.33155|3.87322|-1.87764|-2.34055|-5.25154|-5.27825|4.69715|-1.43494|-2.64259|-1.99211|2.05876|1.3307|2.13706|-4.15782|-6.86466
1.49558|-0.194157|-1.31639|-2.32939|-0.953025|0.993007|-2.78525|-1.10437|2.03294|2.61559|1.11455|-1.14407|0.348199|-1.00193|-0.141121|-1.21155|-2.65168|-0.105321|0.46535|2.61707|-2.37309
-3.90555|-3.86105|-2.27136|1.70967|-0.131287|3.95407|1.28876|-2.03414|-0.293279|2.68581|-2.94215|-2.19182|-1.44036|-0.802356|-0.453324|1.38215|1.1569|-1.66328|3.19979|1.85636|-2.97916
-2.136|2.00522|-1.10664|-0.694253|1.38817|0.268822|-2.36304|1.99685|0.311034|-1.59671|0.0771094|-1.01126|-1.0697|-0.554883|-1.45361|2.67832|1.54842|-3.1847|0.788397|-3.10871|2.02624
-4.27727|-0.36901|-0.230624|0.268768|0.10609|1.71791|-0.791346|2.28791|0.0722442|0.75752|-3.02679|1.92437|-0.672064|-0.130763|-1.67651|-1.97041|-1.05174|0.0391513|1.10863|0.59884|-0.123486
-2.41357|-5.06151|-2.01215|1.07064|-3.98848|-0.79151|-0.623566|2.70689|-4.01948|-1.87946|2.34001|-1.3878|3.09904|-4.47627|3.16292|4.23957|5.22663|2.00732|3.08941|-5.05972|-0.969659
-0.507047|-3.97223|2.56026|3.24313|-2.20131|-2.89839|5.40488|-3.63488|-3.21706|2.54212|0.741698|-0.200902|-0.976538|2.32415|-0.116389|-1.72986|-2.19207|0.848873|-1.86996|0.104943|-1.33947
-0.28001|0.159821|2.83351|-0.152459|-4.9108|-5.21906|1.06419|2.96581|1.2356|0.750144|-1.90964|-2.74125|0.91468|0.82106|-2.73184|-1.22429|-1.21578|0.72559|3.12529|1.52151|-4.28771
0.938955|-0.177659|-1.91677|-3.28896|-3.987|1.32974|0.164971|-3.77923|-0.513015|0.100312|1.11756|-1.18476|-1.36933|1.66048|1.78438|-0.506018|-2.30406|-1.43987|0.0416036|-1.37538|5.8987
0.32986|3.49988|-2.62621|1.87594|3.23296|-4.9368|0.506085|0.172478|0.24122|-0.664165|-0.89113|1.60973|0.231813|2.86928|-0.972516|2.29875|-4.00031|-7.80503|-1.67392|-2.51127|2.38666
0.887414|-2.85617|2.30471|-2.62876|0.283838|1.87264|-1.37972|-4.28189|-1.23389|-3.45545|3.55755|3.81644|-2.55323|0.674014|4.30263|-0.0720523|-1.03607|-5.79769|-3.00646|0.95256|1.56505
-0.557562|1.65194|1.26911|-0.237409|-0.0567604|-1.56186|-3.15411|-2.7765|0.192664|-1.89436|0.710538|0.813168|-3.33709|0.825431|2.31263|-0.507502|-1.44316|1.45616|2.66435|-1.59275|-0.647057
-3.39843|-2.81159|-1.56863|-2.37333|0.910858|0.108237|-0.731885|-7.00209|-2.64842|-3.56808|1.23947|2.39329|-0.165704|0.821001|-2.39925|3.89121|3.62864|1.85598|1.92545|4.11189|-0.107015
-3.31458|-2.20257|-0.681846|0.0134526|-3.46468|-1.02093|1.46973|-2.07699|-3.30298|3.05179|-0.0593846|2.5863|-0.901518|-1.49486|1.53738|1.26503|-2.15227|-0.0173|-1.02138|0.68118|5.04683
3.1532|-1.38061|-2.53617|1.34497|-0.508502|-5.91621|-0.881642|-4.77654|0.726359|-5.37249|4.19789|0.628571|-2.95927|1.85931|-1.15897|3.22301|-3.21414|1.72023|-0.0475119|1.2021|2.89934
1.06293|-2.46794|-0.647452|1.2028|4.89353|-1.55941|0.409115|-0.475466|0.119287|2.06115|2.585|-0.235867|-0.198198|-1.39205|-3.99127|-0.233112|-1.31817|-0.967866|-2.81041|0.349333|1.60664
-1.8426|-0.364252|-4.23569|1.15656|0.351499|3.75989|-3.02643|-1.68638|-0.141315|1.70841|1.72114|-2.51329|4.15739|-0.315358|-1.58347|0.90754|-0.871203|-0.606859|-1.20903|0.626345|-2.00158
-1.682|-0.40938|-2.81666|-0.785255|1.89539|1.10114|1.78249|-1.94407|-1.12546|2.6615|1.03834|-0.0659711|-0.274928|-1.81773|-4.03116|2.4921|1.12429|-0.268549|-1.44536|-1.78873|-0.68375
-1.32221|-1.16036|2.20579|2.96756|-0.17286|2.3557|1.24451|-4.38211|3.00307|-1.57669|-3.57303|-4.21231|1.30075|-2.52676|-2.99865|-0.798418|3.17949|2.37693|0.45961|-0.66285|-2.53975
3.2206|-4.54166|-2.37875|3.54743|-0.364501|-2.59327|-0.453346|-8.01273|1.45692|0.0142277|-4.00434|0.063582|-1.16723|0.739955|0.79727|0.738726|-0.131563|4.20246|-1.54819|2.25604|1.9184
-5.13276|-2.46148|-3.57035|-0.319589|1.73469|-2.92225|1.49599|-0.815192|4.30059|-2.35369|-3.35217|1.77696|1.79554|-3.04636|-3.50241|5.78231|1.68601|3.36071|1.16577|0.896424|-2.86421
-1.26133|-2.22512|3.88467|0.730032|2.94572|-2.57471|2.18274|-0.71536|1.68066|3.90025|-3.16217|-5.51449|-5.19184|-3.62528|-0.325416|4.6145|0.245574|-0.251458|2.02811|-2.05723|-1.52462
1.36598|1.7408|0.791145|3.28427|1.53363|0.516257|1.96913|-0.900358|-2.58732|-3.99019|-0.482064|-1.61462|-0.133941|-4.49784|-0.26417|-1.63987|3.05849|-1.52034|0.809708|-1.59725|-3.27752
-2.66581|3.46139|0.284542|1.76204|1.30945|-3.27351|1.13104|-0.811824|1.80042|-0.919115|0.257823|-0.579967|-0.373914|-2.51195|-2.46941|-1.11816|-0.250178|-1.56807|-1.00137|-0.171687|-0.887949
-1.16336|-1.44017|0.519922|1.71862|-0.139188|-1.45858|-1.89984|-1.38558|-1.28336|-0.0683386|-0.348578|1.48069|0.0848528|-3.29269|1.31555|-0.342665|-0.518682|0.835488|1.81817|-1.24935|1.41504
-1.06816|-0.300741|4.48237|1.05214|0.739244|-1.55162|3.85135|-1.25395|2.36651|0.0722872|1.84778|1.99538|-2.66446|0.254803|-2.2872|-4.84764|-1.89007|-1.15107|-5.88825|1.88834|-1.67448
1.5528|3.23303|2.00645|-0.657421|-1.39866|0.0740487|-0.633644|2.33839|2.12259|-0.62086|-1.29586|0.936172|-1.60489|-3.01394|-1.51637|-1.10896|0.752592|-0.195939|0.718133|-0.285855|-5.52285
-2.09434|1.62782|-2.40923|-5.47633|-5.77571|-0.432052|0.325423|1.23581|-1.72238|-0.549523|3.11622|6.13461|-1.44355|3.75559|3.87428|-5.53661|-5.45177|-1.90051|2.64969|0.645802|2.16013
5.18917|-2.38262|-2.50662|-0.491977|0.405702|-2.94476|4.12084|0.728104|-0.841895|0.806762|-1.38251|-0.309484|-2.01856|-2.01428|-1.32227|3.21347|4.3184|-3.06017|-4.96518|0.557537|-1.10426
6.19772|2.37067|-2.19727|-3.02782|-4.81013|-0.663829|-1.50462|-1.39636|0.761129|1.45694|5.11018|4.60943|-1.53659|-0.698054|-4.38428|-8.77917|0.670228|-1.60029|-1.05248|3.53363|0.571112
NUMBER_OF_CONNECTIONS: 35
0.711673|-3.08619|0.291061|-2.17568|-1.13557|0.222483|-1.60095|-4.05453|0.127346|-1.44366|-4.45762|-0.981249|1.80052|2.90595|5.53137|2.57681|-4.50891|0.126367|1.23898|2.43626|0.989447
0.601343|3.231|-1.31693|-1.91836|-5.74823|0.422624|-0.329071|-3.39645|-4.24955|1.57058|2.68909|5.49378|-2.65833|0.33113|6.53728|-5.08309|-3.33209|-1.83879|2.92297|-2.39489|0.115238
2.10858|0.293367|-8.53238|2.1515|2.17396|-1.52288|2.17069|5.25291|2.85051|1.2334|-1.94991|-1.19475|0.494733|-0.602324|-3.56833|0.532556|-0.165397|-0.009046|-3.24331|-6.00032|0.930604
3.70144|-1.40929|-0.635603|4.18917|-0.0713886|-3.5494|-6.51022|-6.54319|-0.147459|4.01425|-1.84795|-3.82786|-1.28392|2.35293|1.12182|3.2008|-1.6122|2.45195|1.74984|2.43788|-2.06839
-0.502886|-1.34535|2.08096|1.11623|2.46484|3.39993|0.718228|-2.50372|-2.3766|-5.21644|-1.95003|0.365978|3.79806|-2.61803|-1.78809|-0.649495|0.31823|2.26178|1.17415|-2.53571|-3.34884
3.79221|1.54807|1.17313|0.851887|-1.52331|1.43209|0.558495|0.447807|-5.36452|2.76822|-2.56101|-1.92941|2.1526|-0.744434|-0.976612|-6.76833|0.643112|0.125033|-1.76938|0.390873|-2.90444
-2.02039|1.22581|-0.359175|-2.28352|-1.63779|-1.61889|-0.0799322|-3.76531|-2.48291|-3.63034|4.45066|4.03403|0.00279006|1.09102|3.20337|0.321228|-2.11273|0.218766|0.0309953|-1.77549|1.70929
2.09607|-0.58411|-5.6611|-0.578484|1.5658|1.55587|-1.01971|1.68602|-1.49466|-7.62088|4.167|-0.152439|-2.82909|-1.70804|1.81754|-1.8815|-3.70497|0.59025|5.34786|-0.314432|1.13897
0.180476|1.57136|1.39925|0.100985|-2.18926|5.74968|-3.05284|-0.796699|-2.7559|0.137411|-1.35797|-0.292392|0.43191|-0.106387|-2.09142|-1.23453|1.00682|-3.03136|2.78513|-2.16801|0.490765
-4.7082|0.0162536|1.98451|-2.7555|-0.11863|-1.61559|-2.72793|1.71076|1.63585|1.65362|-1.30848|0.897151|-1.79166|-0.408548|1.11614|-0.191444|-1.97538|0.564949|0.554741|1.77846|0.230541
1.17192|0.74913|-1.15427|-1.63793|0.870683|-0.304003|-0.00417331|2.40582|-1.94013|4.13138|-2.16478|-3.72453|-2.03446|5.57515|-1.99963|-0.449357|1.62581|-1.32202|-1.28202|-2.58639|-1.61187
-1.64161|-0.993689|0.282637|3.0935|-0.245175|-3.40855|-1.61453|2.48331|0.723942|-0.481529|-4.06788|-0.842913|2.11643|2.70973|0.537698|-0.77919|0.775172|0.327965|0.909797|-2.45227|-4.56375
0.328603|0.141121|0.764265|-0.363105|-4.81532|-4.56214|-1.67426|2.00318|3.57148|-0.895426|-5.15569|3.3247|-3.15145|0.882726|2.23353|0.846537|0.342429|0.490175|-1.44703|3.97066|-5.55804
-1.85011|0.271306|1.37143|0.92757|0.816705|-2.40635|-1.38146|-7.84938|-0.606727|-1.24718|3.83387|-2.19764|-0.392904|1.04955|-1.74068|-0.655421|-0.50132|0.592147|1.6154|0.0443054|1.67385
3.68207|-0.0497621|-3.43115|-0.89735|0.222275|-0.4064|1.04584|-4.07447|-0.0180154|-2.19819|-0.333635|-1.18329|-1.05359|-3.03771|-1.50781|2.65997|-0.151218|1.89733|-3.98479|5.86256|-0.074215
-1.49077|0.635031|-1.56006|-6.01076|-0.119636|-2.8533|1.63407|-3.50161|-2.23758|6.03155|-0.13927|0.812532|-2.47332|1.41531|-1.19299|-0.481581|-0.522709|2.4627|1.88385|0.563319|-0.842269
-2.57931|0.739212|0.988541|-1.07508|-2.1743|4.503|-4.04391|2.15431|2.21969|-1.54409|-1.30581|1.46541|-0.712091|1.5826|0.708953|-3.03311|0.239961|1.18421|-5.4818|0.755655|-0.627119
-1.31881|-0.248204|-0.228543|0.293986|4.67036|-0.502418|0.560857|-1.76677|1.60246|-1.41039|-4.82081|-0.258245|-3.34524|1.58656|-1.35322|3.29609|-0.59004|-1.79807|1.20761|-0.566677|-0.864003
-0.125927|-2.12887|-1.11151|-4.03117|-4.09943|4.32996|-1.91926|0.17156|-0.885859|-2.96265|2.64823|5.2351|-1.1012|2.65327|1.86886|-1.09674|-1.52896|-2.74939|-2.36241|0.628262|2.4893
-0.852589|-2.79845|1.21739|3.7208|-3.08499|-0.810238|-0.770054|-3.12305|1.62535|4.64365|-0.539248|-0.223342|0.183466|0.453726|-2.35778|-0.143444|-2.76084|2.80136|-1.53641|-4.45512|0.999625
2.3404|3.42366|-1.87205|2.70389|0.46935|-1.40681|-2.87665|-0.7125|-1.2987|-2.06854|0.0632098|0.328878|2.22303|-6.29624|-0.153947|2.61239|4.57574|0.760932|-2.61321|-1.79401|-0.420258
-0.751681|-4.11622|1.61127|1.49416|0.0795789|0.0408004|-2.28914|-0.00349141|1.55457|1.87488|-1.08435|1.26833|-3.64258|-0.128535|2.51131|1.1959|2.68432|0.947684|-0.367409|-5.54582|-3.42649
0.845838|-1.60748|3.69221|-1.87988|-3.83064|0.507903|-1.6997|-1.07756|-2.11106|1.54815|-4.93353|-2.51136|1.6452|0.742931|-3.35764|3.10838|4.58588|-3.6588|-0.724008|1.67989|1.80319
-1.17942|-0.546298|-3.39273|3.13116|1.24397|-3.30201|-0.24799|2.7504|3.27683|-6.25085|-1.17818|-0.595728|1.65958|-5.51871|0.454854|-0.127943|3.74919|0.964945|0.588533|-0.069237|-2.42229
-2.45137|-2.17925|0.104387|-0.836072|-1.30901|-3.07053|3.96267|0.0496726|0.391147|3.37576|-1.73995|0.582044|3.32321|2.31677|-1.3243|-3.78043|-0.0817681|-0.867215|-0.162056|-1.76947|-0.919305
1.23222|-2.04526|-1.3316|-0.6623|0.454011|3.68693|0.544602|4.71787|1.39335|-4.13146|-2.33668|1.33742|-0.249972|-6.20354|0.40253|-4.54215|1.07661|-0.559193|2.1295|0.576602|-1.59758
0.76291|1.33618|-1.23497|1.6563|-2.37461|0.0846179|-5.05296|0.966415|1.62971|-3.65315|-0.00325701|-3.2877|-1.15463|-3.17119|-3.36249|1.48459|3.32662|1.00696|3.10041|3.18451|-1.1535
-0.669498|-0.312977|-0.469084|2.54651|2.33859|1.63312|3.65792|-4.14652|0.215183|-2.69097|-1.63524|-4.61675|-0.0688087|-2.46532|3.94162|-0.568969|1.88599|-3.85899|-0.503766|0.935681|-2.42935
-4.15721|1.09567|-3.04515|1.25426|0.894717|-4.17944|1.14642|3.37034|-0.377529|-0.381067|-0.0733929|0.959722|2.16539|1.03634|1.48232|-2.58732|0.633905|-1.60846|-0.657961|-3.58793|-2.06449
1.29535|-2.08127|-0.748444|0.760851|-1.30566|0.699417|-0.484581|-0.797594|0.0485929|3.4913|-0.61359|-3.35971|0.917555|-1.30744|1.21374|0.999777|1.34258|-0.393319|0.0345026|-0.0134072|-4.93353
-0.756281|0.0800467|1.90196|-2.66744|-0.657482|0.819607|-0.839121|-3.05043|2.90415|-1.72165|0.325542|1.29428|1.05131|-2.91208|-1.85744|1.31654|-3.21138|1.15449|-2.16015|2.40377|0.53024
-3.7893|2.77476|0.390871|-1.58983|-2.8152|3.59929|2.28917|1.454|1.35774|0.685521|-0.486122|-1.25248|-3.47706|-0.888259|-3.50505|0.328683|-0.924674|-0.459158|-0.131853|0.462426|1.73209
-4.12894|3.07958|1.93489|1.29333|0.219259|-0.718042|3.36105|2.97128|-1.29136|-3.28749|-2.12149|-0.788885|3.04728|-0.732166|-0.619894|-2.85524|0.94246|0.0569534|-0.628717|-2.50582|-4.51305
0.123004|-0.538277|1.94661|-1.64219|3.12105|-0.901103|-0.0187224|1.6617|-5.40443|-3.75417|-1.65267|-0.787063|1.79642|-3.18028|1.85671|5.41751|-0.127217|-3.62623|0.52526|-2.68168|1.96581
1.05827|-0.560359|1.89404|-4.95825|-4.0534|0.116721|-1.2647|0.479864|-1.95725|-0.260058|2.82008|2.39656|1.01409|0.193862|-0.0675542|-6.27204|-2.42533|-1.97044|1.93135|1.66026|3.84261
NUMBER_OF_CONNECTIONS: 35
0.37222|-1.28559|1.64413|-4.19588|-0.283348|3.90806|-1.32035|-2.07691|-0.176302|-3.67898|0.833996|0.6174|-0.667524|-2.71455|-0.808948|2.93114|-1.75676|0.162443|2.87704|1.70219|-0.504997
-4.05833|1.41458|1.16151|0.72977|1.46411|-2.36933|1.06857|1.87073|-0.863826|-2.21346|1.22133|-0.0813112|2.59099|3.52234|-0.15397|-3.97748|-3.10866|-3.65647|2.06595|-2.39593|-2.32139
1.5724|-2.25159|1.67314|2.47942|3.61501|4.30598|-2.70689|-1.13373|-0.367741|4.66488|-4.72483|0.536028|-2.92597|2.30842|3.15594|-5.31627|-1.21352|-2.25579|-3.72949|-4.17867|0.00348891
0.2623|-3.19403|-3.19111|-0.240613|1.37347|-1.10909|-1.74305|-0.505281|6.13662|-2.00722|-2.57553|0.214784|-0.121555|4.70265|-4.35822|5.94977|-0.266455|0.695337|-2.07192|-1.53747|-0.779426
1.49428|0.304934|0.189473|0.00470419|-0.730663|-1.99853|-0.653704|-2.70519|1.07412|0.848679|-2.13664|1.02942|-1.1031|0.187456|-1.89114|0.0367966|1.31202|-1.59249|1.39119|-2.33285|0.306891
1.07299|2.9576|-1.77855|-2.24969|-8.95403|2.02527|-3.34362|-3.2612|-3.86699|2.02247|4.68298|4.20308|1.15876|3.96394|1.59849|-3.39925|-2.91125|-7.28988|1.33639|0.050845|3.40236
0.620362|1.89498|-0.114573|-0.168506|-2.60581|3.10078|-0.888763|0.3335|0.53994|0.0433766|-3.62|0.84864|0.855226|-3.38236|-2.6291|-1.24985|3.02895|0.814738|1.31353|-0.76386|-3.50301
0.311422|-0.989473|-0.569323|1.91206|-1.75731|-0.289114|0.630706|0.883989|2.46354|-1.93518|-1.41825|-3.64916|-2.89957|0.545716|-3.08542|2.75683|2.28331|-1.16332|0.668782|-1.73695|-0.625262
-2.673|1.8258|1.44414|-0.977194|-2.26145|3.47154|-1.97129|0.206664|-0.164361|-0.0799979|1.57874|1.19665|-4.88323|-0.154322|-0.0590387|0.334109|-0.0425226|-0.341781|-5.25584|3.66622|-0.251086
-1.54112|-0.547999|2.60687|1.01814|-2.92077|1.4519|1.00023|0.889801|1.15423|-1.629|1.98432|0.378853|-1.04013|-0.327944|-2.96034|-0.466986|0.0726358|0.377873|-3.79545|-3.36682|2.40154
2.72518|-3.52945|-4.36244|0.14744|-3.34785|0.403313|3.28081|-1.58117|-5.24749|-0.74014|2.99|-5.39804|0.919644|1.10941|2.582|3.97022|-2.64651|-0.272182|1.73665|-1.47743|2.99807
-1.6181|-3.53966|2.4332|1.84294|-3.85419|1.81985|-1.21226|-0.545201|0.676704|1.94336|-2.44325|2.77417|-5.07358|1.41762|-0.203827|-0.599461|0.448172|0.536348|1.64078|0.614644|-4.41472
-2.10206|0.353946|-1.74578|-2.59306|1.01457|-2.98502|-0.951973|1.55112|3.01894|-0.557877|1.31579|3.92119|-8.31184|0.424897|1.93224|3.25068|-2.00556|1.11409|-3.63188|-1.31268|-0.227076
-1.88536|-1.20171|-2.77442|0.995419|-0.656466|-0.187149|-0.773985|-1.31394|-1.25503|2.53171|-0.139271|0.0731415|-3.65202|3.8216|-0.745039|2.65586|1.08734|-2.67395|-1.86272|-0.993568|0.178048
0.927141|-0.206494|-1.38428|-3.39282|-0.70871|-5.85953|-0.0958223|1.3939|-0.96162|3.09446|-1.37619|0.695121|-2.2844|2.08551|-1.34927|3.82134|-1.32431|0.581634|1.37197|-3.40623|1.30235
0.359226|-2.54808|-2.57406|0.895186|0.208389|0.236167|-0.563752|-3.62989|0.382981|0.865395|2.48537|-4.57206|-1.84259|4.01745|-0.596697|0.873783|-1.19589|-1.72727|1.41024|-3.47694|3.01513
2.70285|2.61072|0.983934|-3.83326|1.5746|-0.298322|-1.72633|0.955744|-3.92418|-2.65625|-1.46038|3.94014|0.601586|-1.99417|3.11376|-5.87479|-0.990993|2.93188|-3.38721|-0.448017|0.978857
2.10299|-3.02405|-0.533751|-0.325573|-2.38971|0.184731|-1.18411|-1.94871|-0.49192|3.30791|-0.0896768|-5.93142|-1.28133|4.55181|-0.48346|-0.202086|0.648072|-0.934117|2.21666|-1.63337|1.65222
0.324097|0.649189|-3.38502|-2.09961|-0.590368|2.73874|-0.311625|-0.311102|-5.17918|-0.716773|2.84696|0.668573|-0.66631|-0.296498|1.02618|1.80215|-2.02665|1.77456|-0.898816|1.08363|-2.37024
-1.80029|-4.5829|2.15301|1.30674|2.24655|0.825493|-3.81424|-2.03949|2.28694|0.553873|-5.13322|1.16942|2.29637|-3.46897|-0.897559|-0.366506|2.03553|1.26915|-2.88956|0.629937|0.248267
-0.0983942|1.28554|-1.77356|1.99594|-0.597415|1.01532|2.09692|-3.26509|0.0507329|2.18729|-0.132055|3.48155|-3.15833|-1.33123|0.33736|-1.15532|-0.0938486|0.644723|-0.883181|-3.77652|1.3482
1.16054|-1.34723|-0.733891|-0.643627|-2.94302|-1.50602|-5.00412|0.964494|-1.05932|2.52868|-1.14613|1.2915|2.63593|0.37088|0.0317363|-1.51972|1.55031|-1.17219|0.115252|1.75165|-1.4273
-0.359442|-0.190092|-1.72535|-0.236731|1.96975|-1.09499|-4.95508|-1.11259|1.44031|0.684687|0.938994|-0.201259|-3.24503|-0.801495|-2.66681|4.80924|2.10323|1.59669|-5.16164|0.620369|0.497345
3.17143|-0.107796|-0.86455|2.576|-1.46017|-0.542919|3.25557|2.26346|0.530149|-3.75559|-0.873482|-2.79733|-1.39297|-3.54838|-3.53336|1.22841|-1.06467|1.76733|2.24809|-2.05727|-2.09144
-0.737759|2.32915|0.463481|-3.61239|1.21003|-5.25621|0.564696|-1.13597|-2.75011|-3.459|0.495498|1.79172|0.640639|0.137886|-0.0342991|3.88026|-2.28873|0.697614|-0.559238|1.16144|-0.0108929
3.5492|0.587704|2.2093|-4.72336|-0.769575|4.10831|0.518109|3.0833|-4.78453|-0.186854|0.456352|-0.878909|1.95328|-3.60657|2.23587|-2.66398|4.0441|-1.86718|-0.597069|-2.67354|-5.81658
-1.02987|-2.93935|0.291168|0.804576|-2.82468|2.33777|0.161349|-0.202066|-0.724544|3.17884|0.911054|3.01543|-2.26243|-0.97288|-4.4529|0.186886|1.84778|1.79915|-0.653335|-4.09511|-0.529279
-1.24258|3.0547|-0.317707|-2.66603|2.01624|-6.61047|3.76429|-2.36802|0.842285|-3.2993|-0.443443|-4.21154|-0.346763|-0.0732242|-0.75564|3.25817|0.478326|-2.09946|3.79891|-0.184879|-0.153576
0.606979|-1.58999|-3.21594|-3.12285|-4.79362|-0.343397|-0.103372|0.821305|-0.50929|0.12762|1.50367|0.184217|-1.62796|-1.30633|2.85968|-0.169773|-0.617618|0.587284|2.71353|0.264418|-0.867603
0.249044|-0.909321|-1.93866|-2.97646|-0.0433365|-0.521733|0.483794|0.223582|-0.657635|1.22908|-0.101627|0.332312|0.130542|-1.52527|-0.821903|1.29749|-0.245946|1.1187|-2.75602|0.913252|1.50816
0.931381|-1.79213|-2.31768|4.70995|2.18666|-2.41381|1.79186|-2.81664|-0.399584|-2.69152|1.37134|-2.6397|-2.70604|-1.52793|-0.477153|-0.500399|-0.430876|-1.01236|1.01436|1.47858|2.11961
-2.47303|1.23012|0.48692|1.36241|-0.320614|0.868138|-3.74666|2.08391|1.73083|0.299223|-2.72212|-2.77307|-2.30159|-0.263612|0.220732|1.03713|1.10357|0.723996|-1.96126|1.90778|-0.777642
2.30106|1.83732|-0.748817|3.1374|0.16073|-3.43097|1.41792|2.33252|-1.91716|1.29351|-3.77987|-1.91489|4.30765|-6.56531|0.0302961|-4.19937|0.891141|-0.699464|1.72067|-0.233746|-3.20107
-1.97457|-2.72147|-3.43395|-2.72045|0.446804|-2.07611|1.24588|0.725167|-1.29726|-2.57289|2.13216|-0.484382|0.0527221|-0.328483|0.157921|2.64377|-2.42719|5.1289|-0.112505|2.40713|-0.747215
-2.61331|1.03155|1.38321|-0.808033|-1.3698|2.35664|1.95714|4.67951|-1.72605|3.55031|-0.504904|-6.29547|1.46139|-1.30137|-3.61207|0.701436|1.00491|-0.868768|0.178508|-4.65361|-1.04981
NUMBER_OF_CONNECTIONS: 35
0.72229|-1.01045|-0.087084|-3.68181|-0.776847|-3.02105|2.09867|0.277821|0.390204|-2.55922|0.299015|1.47263|0.0827376|1.48125|-1.89304|0.0260054|-1.89122|2.18012|-0.570339|0.65892|1.20874
-2.12478|2.05645|2.19709|1.07858|-0.734752|-0.485675|3.01428|1.51715|-1.2554|0.21378|-1.24231|-1.53465|3.69453|1.52182|-0.488847|-7.37414|0.292219|-0.931292|-1.20289|-0.886886|-5.75746
0.844238|0.411893|2.88218|-1.17577|0.273405|-0.108438|-1.22578|2.06609|-2.13494|0.25991|2.3325|-3.44845|-3.26106|-2.11536|2.94417|1.69344|-1.61841|-1.75596|-1.17697|-0.0625731|-2.11269
-0.746493|-2.44493|1.80762|-2.34898|-1.65475|1.23884|0.562921|-8.2943|-2.16446|-0.362341|0.800771|0.220424|-0.631405|2.81237|-1.72059|2.6764|-1.35182|2.18684|-1.20136|5.39911|0.737937
-2.53069|0.0353656|0.905074|-3.52093|2.74151|-2.06809|2.94698|-2.05968|-4.32422|2.00864|-1.24062|-0.466168|2.05551|0.229693|-2.02511|2.79226|-3.42547|2.94378|-0.850958|-3.08074|1.52683
-3.26674|2.07689|1.97445|0.595686|-1.9928|-0.400451|2.06957|0.300473|1.15254|-0.258138|1.59217|-0.357332|-2.22112|3.40211|1.17054|-4.18901|-4.04691|-4.44137|-1.48406|-0.325202|0.410755
-0.107648|0.133479|-4.4916|1.05619|-0.286035|3.2334|-6.35412|1.62752|1.18197|0.786147|-2.21482|-0.101591|1.30143|4.03697|-0.149903|-0.0870155|-0.51069|0.9463|-0.389381|-5.2951|0.157097
-0.527618|-3.35545|-2.60386|-1.33918|0.385125|-0.55381|0.367118|-3.43906|-1.26739|1.20406|-0.562506|-1.51179|0.691819|0.778814|-0.231293|3.5396|-0.172239|0.918099|-0.0872291|-0.224583|-0.0767073
3.17947|2.53058|-0.623415|-4.82739|-5.07272|0.459425|-0.537686|1.68789|-2.24698|0.630821|-0.565242|2.34971|1.96414|0.592462|0.999394|-3.2825|-0.635172|0.461464|-2.002|0.810573|-1.18323
2.53125|-0.29226|-0.116646|1.18025|1.37443|-0.509436|-0.0938986|-2.25833|-1.19386|-4.6837|2.74327|2.19241|-0.36221|0.011486|-0.586153|-0.388758|1.68088|0.135404|-1.52904|-4.07326|-1.23541
-1.22675|3.2117|-1.98654|1.72374|-1.64674|-0.277481|3.42597|0.661667|2.97486|-3.1336|-1.99304|-1.02545|-0.519547|-0.219468|-0.901188|-1.05054|1.56872|-0.307985|-2.77174|-1.95598|-0.188799
1.09574|0.564339|2.52823|-0.955101|-1.1049|-1.50976|-0.74291|-0.72934|0.700765|-2.23386|3.80549|2.18787|0.426794|0.857987|1.98173|-3.05678|-5.42426|0.434363|-2.27235|1.46758|-4.95165
-1.20365|-1.99099|-0.94506|-1.72397|-0.176508|1.71643|0.801455|1.33028|-1.7616|-0.233619|-1.83181|0.866596|-0.961957|-2.85164|-1.37151|3.6606|-1.48026|1.90171|2.75989|-5.63222|0.545159
-0.13818|-1.84365|3.3288|-2.68812|2.10744|1.25008|-3.18097|-0.284398|3.23083|-0.209052|-2.07653|-0.00191359|1.83386|-0.385836|-7.49343|-3.18515|0.422473|0.310792|-1.41772|-0.109692|1.76119
-1.28794|2.46717|-0.702366|-1.19491|-3.0769|2.56381|3.93689|0.816186|-1.65518|-0.385504|0.93648|-0.724526|-0.0385321|-0.840659|-1.45369|-2.95102|-3.13067|2.76693|-0.873307|0.686682|-2.75567
0.153875|-0.882269|-0.625328|2.63849|-0.0346797|1.80273|-0.236739|-1.53165|-3.0164|-4.41363|1.09224|-1.53505|-1.37287|1.75134|-0.803622|2.62475|1.2292|-2.1062|2.40691|0.0824241|-5.23407
1.02115|3.01|2.41845|-2.63477|-1.58956|-0.147781|0.32601|0.147287|-3.14398|-1.00236|0.831996|-2.04542|-0.339361|3.00184|0.575008|-3.99733|-1.07428|-2.32241|0.70904|-0.495738|0.562756
1.01764|1.14118|-2.93192|0.0187969|1.08547|1.54577|4.07934|-2.96727|-0.0596804|-1.2779|-3.24007|-1.16337|-0.96079|-3.86607|-2.14127|2.61193|-0.647158|0.778912|-1.05423|2.60395|-0.555654
-0.12268|0.983409|-0.589066|1.94626|1.93701|-0.232171|-2.46489|-0.553817|-2.76677|-1.58651|3.17989|-2.2645|-2.04128|-1.37662|2.06824|-2.08697|-2.51642|0.0967672|1.28265|0.762058|0.537918
-0.577513|-3.20555|-1.26597|2.42415|2.68246|-1.93132|-0.222648|-4.17675|1.72606|0.724369|0.594386|-1.52966|0.324154|-3.04582|-3.88146|3.04632|1.13292|2.20746|-3.17207|2.75548|-2.44948
1.31879|0.297831|-1.68328|-4.18411|-0.945279|4.11814|-0.547275|-0.462597|-1.31985|1.62951|-0.141564|4.73879|-1.06499|-0.333027|2.18049|-1.16934|1.22072|-0.160139|-2.95866|-2.03911|-0.663476
2.16408|-3.58869|0.143735|0.571449|-1.00347|0.61721|-0.929685|-0.971573|0.817588|-2.41551|-2.74415|-3.42112|-0.284035|2.60606|3.53212|1.20906|-0.726394|-2.8958|1.12025|0.820242|-0.903808
-0.148134|-0.484546|2.60761|-3.47842|-2.42504|-1.04669|2.561|1.96775|2.58687|1.04184|-2.70713|-0.534633|1.85732|-1.60328|-3.365|1.77705|0.0545503|1.63548|-4.8739|0.220831|-2.77853
0.170773|-2.50306|3.05205|2.85059|-1.83967|1.32984|-2.6738|3.75519|2.41662|-4.77743|0.773181|-0.86645|0.293462|-1.10224|-3.18441|-5.25055|2.55082|-0.405963|-1.56548|1.5745|-1.60237
1.98697|0.727014|0.0366581|-0.750093|-1.25004|-0.0411728|1.80714|-2.43791|0.712003|-2.59431|-4.4313|-4.26777|1.88507|-2.13659|-0.150411|0.628125|1.35446|-1.97177|2.2635|3.33127|-0.984466
-1.47308|-1.91593|1.63491|0.297539|-1.96397|0.15784|0.594505|-0.478333|-0.63277|-0.303828|-3.17226|1.55725|2.25728|-2.45442|-0.509433|-4.74904|2.59544|1.70081|0.846926|2.0415|-2.11449
-2.50141|-3.28429|4.32073|2.42197|-4.64859|2.69632|-4.30849|1.08533|-1.09709|-0.395183|1.02561|0.461915|1.13949|-1.23843|-1.64052|2.95407|-0.378065|-5.2407|1.38539|-3.39425|4.55054
-1.5616|-1.33303|-4.42778|4.48186|-1.11635|-0.366328|3.00357|0.285169|-0.261143|-0.294508|-2.21521|-1.3668|-4.40153|-0.0330172|-1.91827|2.75157|1.58412|1.02955|2.17816|-1.61933|-1.90425
-2.20682|-1.10432|-3.30363|-2.0457|1.27822|-2.15585|-6.87205|0.886321|0.435472|-1.32178|0.385|3.2092|0.818546|2.89272|-3.07067|-1.23993|-3.11716|-1.28702|3.95|4.77127|0.411929
-0.00821771|-2.02413|0.59489|2.36529|-0.357394|-0.447931|-0.119614|-0.109991|-0.7858|-1.43669|0.546161|-0.00583106|-2.83134|-3.28159|1.14966|-0.148197|0.563101|0.603917|-1.39394|0.956665|1.08135
-0.539235|-1.68834|-0.837836|-0.595744|4.66355|-2.49531|1.25805|0.934827|1.19193|2.47496|-0.909752|-1.00842|1.03759|-0.0363509|-5.01801|-3.22071|-5.43684|0.0996643|2.05668|2.22625|0.0742773
2.61209|1.79658|-4.25534|-2.01513|-0.798848|-2.04754|-1.33089|0.647822|-0.404219|0.3964|0.828252|-1.03841|-0.626128|4.81432|4.1498|-1.49538|-3.40477|-1.6403|3.59456|-3.53056|-0.688845
-0.355482|-1.54963|-1.67013|-0.525184|-3.56569|-1.21623|0.241696|-0.541097|-1.85453|0.817608|3.06318|3.0869|-2.78575|-0.143313|2.90622|-3.76435|-1.07371|-1.37806|2.45002|1.07403|-0.570585
1.92417|0.478198|3.69555|-6.34589|2.55954|0.390858|-1.12981|1.05835|-1.20425|-0.50276|-2.73033|2.73622|-4.78423|-1.79845|-0.617972|0.575734|-0.302009|3.53574|-1.86138|-1.02781|-0.831704
-3.48757|0.632693|-0.750944|0.470753|-0.741571|-6.88879|-0.487853|3.12103|0.238935|4.21985|-2.74932|1.41388|1.18793|0.901313|0.810609|-5.0619|1.08244|1.83489|-1.18581|1.61058|-2.80979
NUMBER_OF_CONNECTIONS: 35
-1.39181|-2.71404|1.03056|0.241487|0.117823|3.42414|0.0749081|-1.76214|-0.462532|1.02364|-0.77057|-1.95569|-0.415024|2.20314|1.34013|-0.392145|-1.51523|2.78193|-4.61432|-0.543002|-0.143541
-2.05429|-0.102764|-0.695046|0.791327|-3.62076|-3.30472|1.01958|-0.0926818|-0.186848|1.83003|0.685958|4.8467|-1.95385|-0.0720486|0.684093|-4.81296|0.512704|-0.374785|-2.244|2.64164|-1.56855
-1.32799|0.25741|-3.04611|1.9336|-4.59027|-2.46946|-1.08241|2.39722|1.93306|-0.769785|-2.55125|0.509803|-2.34508|-0.129806|-1.47158|0.595247|4.02962|0.90742|-2.20551|1.24934|1.9537
-1.88531|-4.76033|-2.03138|-1.87527|-4.75248|-1.63989|-1.03669|-1.01433|-0.519364|0.491893|-0.495467|2.031|3.52766|4.02138|2.40979|-0.0871384|-0.632753|0.989977|-0.602827|4.4021|-0.958231
2.7348|1.79433|0.775198|-4.36813|1.4196|-0.610769|-0.452381|1.13006|-2.425|-1.34651|2.85685|1.32443|-2.13124|1.23489|1.51612|-4.2655|-4.22093|0.204645|0.0816999|0.621686|-3.13852
2.13957|2.14482|1.93193|0.599238|1.26097|-0.881951|1.41737|4.44607|1.68582|3.47462|-3.77127|-8.2906|2.14329|-1.87573|1.35784|-4.94002|0.0781134|0.254808|0.0652062|-4.36765|-7.29835
0.637431|-1.04824|2.28552|-3.60612|-1.16621|2.07866|-0.83077|1.33054|-0.64716|-0.449078|3.25657|-0.197186|-3.38008|-1.12098|2.44568|-1.48223|-2.04111|2.04078|-2.33179|0.477102|-2.0866
1.28397|0.121971|-3.41292|1.69877|-1.28113|-2.71695|0.0571451|1.50551|-0.824458|-0.383768|-1.2317|-3.32484|-1.62492|1.53435|-2.83552|-1.26636|4.21089|-0.508536|1.99588|-0.625599|-0.266522
0.884125|1.28693|-1.29495|-4.09272|-3.62891|0.299764|0.728458|1.0267|1.64626|3.14633|-3.27891|-0.899581|1.54224|0.33712|1.97315|-3.65236|-0.41904|-4.96523|1.80784|0.15681|2.05945
-0.243491|0.37443|1.20026|-0.581217|-0.301284|2.90377|-1.10736|0.387733|-3.57616|-0.104171|0.0615212|-0.113842|-1.29987|2.32752|-3.06833|-0.365618|-0.256332|-0.300438|-0.838955|1.81819|-2.08637
-0.920642|-1.79458|-1.35115|6.57424|3.1553|-0.510256|3.38799|0.215737|-4.01196|-3.63213|-1.90845|-5.59848|2.79388|-0.807234|1.75281|-0.460881|-1.19467|3.18571|0.601331|-6.92316|1.78585
-2.82174|-0.179632|1.75592|3.50711|-3.00384|3.10103|1.81672|-0.376016|-6.45525|0.192444|0.593326|1.46609|-3.49389|2.16662|1.0854|0.0711515|-1.85289|-0.174827|-0.471728|-3.44141|-0.823031
2.70736|-0.855113|-1.81921|2.19674|1.89946|0.663504|-2.84775|-1.23901|-3.12408|-0.25917|-1.46705|-2.34951|1.69932|-4.82846|-0.100978|-1.06384|-1.78361|0.912854|3.28917|-0.0114115|-0.0526763
0.764427|-3.83151|-1.28529|1.61533|1.79405|1.68363|1.43374|-2.26614|1.88897|-3.03545|-0.61631|-1.0813|0.00395131|-2.25518|-9.06345|-1.17678|1.67103|0.345556|2.35611|2.72329|-0.546544
-3.52584|3.24846|3.9511|-0.393755|-1.90082|-3.53799|0.513187|-2.50302|-1.3738|0.634745|1.64177|-0.544351|2.90818|-2.44378|-4.26087|-3.71949|1.79404|-1.01757|3.7379|1.50827|-1.56803
0.399572|-1.79013|0.765124|0.0369368|1.43326|0.959037|-1.20153|1.72421|-0.341059|1.55935|-0.646921|-2.24725|1.16173|-1.48004|-1.73241|-1.89659|-3.6515|0.784746|-1.70087|-2.58734|2.42197
-1.00769|2.23542|-2.29406|-1.83263|-2.31316|0.710144|-2.44933|3.90351|-0.567618|-1.59486|-2.18103|-0.240261|2.46209|3.26067|0.166721|-1.15947|-1.82518|-1.43988|0.979685|-2.84361|1.8485
1.8058|-1.74749|3.22036|2.17938|-1.99712|0.50618|-3.5065|1.94592|-3.23415|1.82701|1.51339|1.41484|-2.55011|-5.5611|-2.9787|2.24|-1.07931|0.871537|-2.18797|1.84325|-0.494692
3.31324|-1.05148|0.234972|-1.11762|-4.35947|-1.6603|2.77078|0.68776|2.33845|1.96108|-1.51483|-0.440491|0.759634|-5.10115|-2.54417|2.33218|-1.22276|0.207637|1.76612|-1.90744|-1.29806
1.05926|-0.678916|-0.901044|0.884975|3.35365|-2.55721|-1.14974|-0.434229|1.13075|-5.93402|-1.25433|-0.887353|-1.54882|-3.4051|0.852632|3.74915|2.08942|2.10511|-2.93281|0.193308|-1.66019
-1.13676|1.13291|0.579045|0.739359|-0.248471|2.19967|-1.78019|1.20173|0.171873|0.805793|-0.84585|1.59817|-4.37007|-2.14189|1.52436|2.13163|-0.313693|-0.280174|0.939939|-1.23369|-2.62961
-2.09173|2.29408|-0.125735|0.831085|-1.48062|-0.523535|1.24977|-2.61598|-4.6491|-1.33126|0.191819|-11.8156|1.86971|0.391928|0.0475629|2.60817|-0.725215|1.8933|5.2118|0.569415|2.21734
-1.60183|-1.30157|-0.306001|-2.90754|0.400717|-2.02598|-1.33291|-3.59|2.91686|0.313801|0.2329|2.23274|2.66471|1.27419|-0.477333|0.0209299|0.754058|-5.06127|2.47718|2.16063|-3.803
0.154622|-1.92185|-0.0905292|-1.57221|0.430796|-5.43788|2.85177|1.22639|-0.798959|0.511505|-4.6442|-1.27222|1.46473|0.718041|2.19403|-2.12866|1.24568|2.68729|-0.748172|-0.585044|-1.47842
-0.591499|-1.63193|-1.17031|-3.15518|1.95565|0.609511|0.440518|1.10986|3.00655|0.104506|-3.52403|-1.38888|3.65117|3.3932|-2.39843|-3.24224|-4.4634|-1.55347|0.470681|3.61891|-1.46603
-1.09589|-4.38893|2.91166|-1.16151|-2.48577|0.361542|-1.23526|-1.91007|-1.5701|1.86463|-2.76558|2.68457|0.0573211|-3.61617|1.76388|-3.06961|-1.38868|2.14628|4.02684|1.60861|1.37584
5.00376|-3.6581|-1.12032|1.73196|0.0959759|-1.96196|0.134687|-2.14306|1.78273|-2.44397|-2.12773|-2.55959|-0.990453|2.11984|2.10684|1.40765|0.977526|-1.72351|-0.71452|-2.94599|0.992049
0.059755|1.98218|-0.455651|2.95775|-0.362307|1.02863|-0.653814|3.36953|1.32623|1.36489|-2.91371|0.70939|-1.76927|-0.267825|-3.4737|1.33008|-0.485033|-0.549125|-1.36203|-6.29457|-2.82642
-0.319312|-1.94571|-1.20818|0.550765|1.84094|3.74207|1.31495|-0.414465|-2.92335|-2.07063|-1.10465|-0.00338171|1.89339|-1.40302|-4.57413|-0.509517|0.114331|0.862642|-3.11636|-0.251032|0.750809
-1.03407|-1.44715|-1.16927|-1.35963|1.22881|-2.42846|1.93468|-0.974545|0.14991|-1.93667|0.301143|-2.17179|-0.278133|2.31867|2.39082|-2.16537|-0.841232|1.70111|0.771917|2.24693|-2.2806
2.44665|-0.599109|-2.80007|3.08346|3.19839|-4.48944|0.174896|0.295996|-2.83462|0.308158|-1.21363|1.22904|-1.7356|0.360966|-0.451758|0.254905|2.26509|-0.357287|-4.25577|-1.06895|0.124538
1.80353|-1.07531|0.0632902|-1.57838|-1.82966|2.95598|-0.872316|-0.527281|-2.51455|-2.12517|1.92964|-2.3943|-0.738932|-0.140085|-0.17065|-4.45259|-0.536854|-1.49796|4.92563|2.92218|1.86156
-2.56035|0.0457811|-0.0157572|0.985329|-1.63395|-0.397782|-4.29319|-1.69919|0.562156|0.550428|2.46656|1.2722|-0.776137|2.61237|-0.807631|-1.58104|-4.36305|-2.36768|5.26362|-0.0487673|-0.372896
2.1425|-2.28174|0.829422|-0.887876|2.78248|4.81233|-1.83083|2.22422|-1.74234|2.49055|1.80204|-1.11352|-0.487387|0.779027|-1.55727|1.98753|-4.815|-1.9999|-3.1206|-2.48798|-3.5068
2.66209|1.24745|0.858113|-3.43904|-2.56471|-3.26332|-1.95953|-2.12523|-1.7373|3.07921|0.717283|-0.0541773|-2.47814|2.7073|2.23428|1.66248|-1.67649|-0.295777|-0.928247|1.47355|-2.65705
NUMBER_OF_CONNECTIONS: 35
-5.50202
-9.25194
-7.55992
-5.50094
-8.1225
-9.40175
-6.66101
-8.79636
-6.3279
-6.35455
-6.73306
-8.1485
-9.60468
-9.70942
-7.92546
-9.12232
-7.15353
-6.94648
-6.87139
-8.93148
-3.00258
-7.08273
-8.04214
-7.91316
-7.42639
-7.17954
-7.16427
-8.39812
-9.77428
-6.1152
-6.90616
-5.15185
-8.21871
-6.911
-7.44504
LAYER: 1
NEURON_COUNT: 36
NUMBER_OF_CONNECTIONS: 3
-0.202038
-15.0281
14.3737
NUMBER_OF_CONNECTIONS: 3
-19.282
21.1076
-18.1636
NUMBER_OF_CONNECTIONS: 3
19.9458
-15.9992
-20.5246
NUMBER_OF_CONNECTIONS: 3
17.7579
-10.2064
-15.4574
NUMBER_OF_CONNECTIONS: 3
14.6037
-21.0175
-3.30569
NUMBER_OF_CONNECTIONS: 3
-20.2683
24.6605
-13.1719
NUMBER_OF_CONNECTIONS: 3
6.62469
6.03599
-21.3299
NUMBER_OF_CONNECTIONS: 3
-21.5952
-3.89587
22.2615
NUMBER_OF_CONNECTIONS: 3
4.78452
8.00352
-22.156
NUMBER_OF_CONNECTIONS: 3
11.9534
-9.85747
-20.8465
NUMBER_OF_CONNECTIONS: 3
15.6773
-13.8446
-11.9993
NUMBER_OF_CONNECTIONS: 3
-22.4504
22.5557
-4.76721
NUMBER_OF_CONNECTIONS: 3
-24.5616
24.3144
-0.2059
NUMBER_OF_CONNECTIONS: 3
-22.7854
-10.4813
24.4247
NUMBER_OF_CONNECTIONS: 3
17.2173
-8.31776
-18.66
NUMBER_OF_CONNECTIONS: 3
-13.4322
-12.7016
21.9662
NUMBER_OF_CONNECTIONS: 3
-21.0808
17.5279
11.8046
NUMBER_OF_CONNECTIONS: 3
-19.948
11.6962
13.4717
NUMBER_OF_CONNECTIONS: 3
4.26998
-18.0704
10.2382
NUMBER_OF_CONNECTIONS: 3
-12.0816
-20.5598
17.6766
NUMBER_OF_CONNECTIONS: 3
2.35158
-10.8841
8.00924
NUMBER_OF_CONNECTIONS: 3
21.8603
-21.9788
-17.2237
NUMBER_OF_CONNECTIONS: 3
-23.6155
4.79966
21.4984
NUMBER_OF_CONNECTIONS: 3
-6.81261
-18.9792
17.6907
NUMBER_OF_CONNECTIONS: 3
16.9758
-8.63613
-17.038
NUMBER_OF_CONNECTIONS: 3
20.7589
-24.7751
-4.86341
NUMBER_OF_CONNECTIONS: 3
19.8654
-12.1027
-17.7705
NUMBER_OF_CONNECTIONS: 3
24.5507
-26.4734
-12.0661
NUMBER_OF_CONNECTIONS: 3
-16.4683
25.4153
-20.8219
NUMBER_OF_CONNECTIONS: 3
-27.0131
10.5527
10.4268
NUMBER_OF_CONNECTIONS: 3
14.4128
-5.56966
-20.102
NUMBER_OF_CONNECTIONS: 3
4.29823
-15.6913
8.36331
NUMBER_OF_CONNECTIONS: 3
-15.8758
21.2246
-17.6802
NUMBER_OF_CONNECTIONS: 3
17.5572
-13.7315
-20.3832
NUMBER_OF_CONNECTIONS: 3
-19.7864
19.1973
3.92262
NUMBER_OF_CONNECTIONS: 3
-6.35257
4.52211
-2.38999
LAYER: 2
NEURON_COUNT: 4
NUMBER_OF_CONNECTIONS: 0
NUMBER_OF_CONNECTIONS: 0
NUMBER_OF_CONNECTIONS: 0
NUMBER_OF_CONNECTIONS: 0
