LAYER: 0
NEURON_COUNT: 14
NUMBER_OF_CONNECTIONS: 35
-0.040774|-2.50378|-5.47695|1.29193|-0.572506|0.87181|-0.62178|5.94051|-2.97965|2.93754|-2.65619|0.604883|1.59297|-5.33419|0.501421|1.46694|0.829957|0.899255|-3.57036|-0.141611|1.9921
-0.299892|0.777549|0.064263|-0.0781235|1.3486|0.919454|3.1688|1.66701|-0.568698|-8.8602|-1.03114|-1.26089|2.96779|-1.18266|-1.81032|1.0879|-0.590153|0.885348|-3.43937|0.866961|-3.40598
2.02019|0.297119|-4.07322|-1.77956|-4.41128|-3.73095|-0.338569|0.468223|-0.105279|-3.58785|1.67741|0.96869|0.1925|0.821084|1.10751|2.27763|-1.16261|-2.7705|3.14832|2.29241|-0.039348
-4.03728|-0.572768|-0.0452579|-0.189598|-2.00372|2.94334|3.24937|-0.754864|0.308897|-2.38555|0.0775715|0.725454|-2.31498|-0.292372|0.348842|2.10688|0.234898|0.0617285|0.586693|1.5576|-4.19823
-0.502402|-0.169458|-1.06319|-0.882731|-1.06822|-0.124456|-1.29401|1.6768|1.5787|-1.97482|1.25431|4.35651|-1.79942|-1.96093|3.15709|-4.08013|-1.62561|-1.14017|-4.42282|-0.370058|3.07669
-0.10536|-3.42412|-3.82558|2.49556|-2.42973|-0.742485|0.937367|5.46005|1.39559|-0.794419|0.16764|-0.424077|-1.31886|-1.86324|1.55936|0.014024|-0.711594|-1.34675|-1.34687|-0.768865|-1.79028
0.653363|-1.21756|-0.000725922|-1.10926|-3.58804|3.24747|-0.936057|1.66858|1.05521|-0.412346|1.9825|-1.2068|-1.92874|0.365138|1.70866|-3.71342|0.508953|-2.4292|1.2818|0.217841|-1.91018
-3.59222|-1.29454|3.63001|1.50779|0.330043|-5.03028|2.03945|-4.5025|0.873643|0.862803|1.99653|-3.66481|-3.77503|-0.862187|4.08371|-1.1624|-2.87313|0.900273|1.99999|2.76678|-2.40889
3.41478|-1.25306|-0.699952|1.55114|-1.1292|-0.240176|-1.97745|-1.81217|1.46943|-1.10541|2.02504|0.704373|-1.90203|-2.04207|0.0710719|-1.86419|-0.526203|-1.25927|-2.4476|5.5871|-2.22043
5.2451|0.229982|1.54277|2.57283|0.115487|-0.0530755|0.581026|0.357058|-1.05638|-1.35221|1.00539|-4.88493|-0.34012|-2.19152|-1.48909|-0.667466|-1.97234|-1.23103|-0.585239|-1.95377|0.294386
3.27495|1.54757|1.69548|1.23001|-1.8445|-1.1726|1.56155|0.479686|1.06172|4.66467|3.27492|-6.29776|-0.394039|-1.34307|-3.0208|-2.00313|-0.440584|-1.50242|-2.31226|-4.5007|-0.0214378
1.84864|-1.01042|-2.09082|-1.389|-4.86761|1.14566|0.10873|-0.75067|-1.15346|1.03929|1.85618|-0.0831559|2.62358|-3.066|-2.57892|-1.90536|1.08023|-4.80304|1.37329|4.84963|0.37704
-4.56427|0.097629|4.45162|2.48989|0.940308|-3.14041|0.848797|0.377346|-0.21667|2.60019|1.12707|0.734516|0.441122|-4.54575|-1.77232|-0.3654|0.565879|-0.422593|-2.94311|-3.97393|-1.50456
-3.31385|0.145362|-6.31999|0.494484|-3.97125|1.81578|1.80013|2.32248|0.105074|5.75353|-2.02502|0.143428|-0.250903|-0.560984|1.9132|1.41018|-4.33124|0.621017|-1.33241|-3.0584|-0.600863
-5.00694|0.634853|-1.51937|-0.0598511|0.825718|2.77371|-5.71258|2.47221|-4.83405|0.57233|-0.885272|-0.686638|5.86801|-5.98176|0.291637|-0.278715|-0.0568362|1.23552|-0.582285|3.25347|0.457119
0.268792|-2.99122|0.154984|0.554127|-2.06327|-2.11189|2.00845|-4.52616|-1.86468|-0.365768|2.88779|0.318018|1.04462|0.297364|-2.80953|-0.218659|4.4434|0.501301|-5.54299|1.74037|-0.199907
-2.72457|1.91747|1.98287|-2.21572|-2.14018|1.0809|0.893531|1.92589|-0.341168|-0.0728571|1.37091|-0.243413|-2.69535|0.0493778|2.41185|-6.47847|-2.1871|0.194102|0.540951|1.50853|-1.21556
0.560174|0.143706|0.626915|-10.002|0.0244949|5.51171|0.152251|-0.423637|-2.11223|-0.341628|-1.37916|-0.0800938|1.02723|0.504883|0.398253|-0.239451|0.102159|-4.48049|1.5894|2.33844|-0.0955168
0.443748|0.46413|3.77862|-3.25362|-4.65111|-2.22608|-0.0420073|0.094495|3.21018|-5.25385|-3.55424|0.74349|2.75793|-3.26189|1.70269|-1.23739|-2.78097|1.34625|2.71628|2.54775|0.227127
6.08263|0.740968|-2.61381|-0.491333|1.14082|2.109|-6.57983|-1.38191|3.81933|-1.14575|-1.49298|-1.74512|0.0644517|-5.43664|-1.23784|3.03681|3.53239|-1.64298|-4.63334|-0.711612|-0.0285687
1.02122|1.82454|-2.49596|-1.45946|0.656792|2.32521|1.15859|-1.45811|-3.67242|-2.3655|3.75644|1.17539|-0.909358|-1.95014|-0.553304|-3.60019|-0.189804|-0.474113|3.72803|2.67713|-1.18875
-2.5397|-0.398281|0.314008|0.495493|0.118297|2.88386|1.04322|0.54836|0.212256|0.711633|-1.91613|0.214033|-4.02472|1.01483|0.963176|-0.525314|-0.467614|-0.346973|-0.435933|-0.432336|-3.77469
-5.25973|-1.58451|-5.3522|2.56469|-1.42456|-1.79714|-0.217218|-2.07545|1.90737|-0.791718|3.51626|3.06189|1.57389|-2.20379|0.512916|-1.20065|2.65194|2.3423|-1.91795|1.32075|-2.97026
3.17078|-2.12094|2.24844|2.94168|-2.87859|0.166047|1.96707|-2.68899|2.06123|-0.481194|-1.31358|-4.31742|0.0121426|1.46236|-4.69871|-0.360024|-0.83531|0.573366|-4.66316|2.25509|0.0136212
-0.972449|-0.958169|-2.43368|-0.806938|-0.569741|-0.291224|4.53131|-3.94659|1.88737|-1.23378|-2.07105|1.93597|1.25524|0.119867|-0.266399|-2.49707|-0.1477|1.54472|-0.535056|-0.268434|-0.793094
-3.89364|-1.07949|2.79953|-2.72058|0.464094|-4.23704|-4.72188|-1.08182|1.73991|-0.515576|2.24144|-0.474144|-1.95945|-0.701917|1.72284|0.000212138|4.3511|-2.76243|4.06208|0.712778|-0.547453
-2.54208|2.08643|0.45855|2.37471|0.704422|1.77187|3.18547|1.41002|-2.15136|2.03963|-3.70252|-2.62187|-7.73864|-1.17897|0.89404|0.128993|-4.76813|-0.219588|0.0738909|-0.358895|3.91716
4.13767|0.129227|-0.949236|-0.993536|-3.18884|-1.64556|-1.46585|-1.50343|-4.82368|3.40565|3.88053|3.73516|-2.13115|-1.44863|2.54478|0.394654|-0.4491|1.52663|-5.01356|-3.30603|-0.421551
-4.5499|1.3673|-0.675794|-1.43683|-1.59003|3.58429|-1.06216|-0.542359|-3.66315|-0.880881|-2.1945|1.39811|-1.22428|1.73897|0.351801|-0.293468|1.51922|1.49547|-1.24536|-0.0801398|-1.48955
1.1115|0.421256|-1.83602|-0.750663|0.796274|1.06509|0.508742|0.284908|-4.30004|0.416316|-2.86268|1.57203|-0.363676|0.178322|-2.42342|-0.214878|1.11024|-1.11601|1.93813|-0.925323|-0.013346
-1.53279|1.07596|-0.0262116|-3.39872|0.206891|-0.510138|0.261394|-2.40633|-3.64477|2.98455|1.18334|-0.502683|-0.171818|0.172521|-4.4868|0.743677|3.60074|-2.66563|4.10503|0.220694|-1.44201
0.931159|-1.24005|3.98966|2.54163|0.635399|-0.840969|3.21498|2.28763|-0.992922|2.11534|-0.706264|-1.7491|-2.58521|-0.384828|-0.884582|-0.76981|-0.689934|-1.64766|-2.64083|1.1465|-6.09755
-5.24339|-1.88387|-0.342472|-0.527228|-0.791555|-0.0511307|1.22671|0.0451284|0.990534|1.097|1.50432|2.25448|-7.63693|0.512301|0.41652|-0.357105|-0.754898|-0.0567619|4.1111|-0.596076|-1.04764
-0.690241|-3.36931|-1.13169|0.590259|-2.50543|2.59176|-1.81145|-2.0728|1.10949|-3.88761|2.6063|-2.17998|1.12146|-0.881942|1.96225|0.543219|1.54695|0.337723|2.90525|0.976886|-4.02192
-3.519|0.200622|3.04689|0.542602|-2.60125|0.257172|1.04712|-0.674679|1.86692|0.0826047|2.21792|-3.22391|-0.364161|-2.23248|-1.15256|-0.258601|1.63213|-2.60415|0.764758|-3.08436|1.07885
NUMBER_OF_CONNECTIONS: 35
-2.43596|-3.22107|-0.859975|0.492109|-1.33184|-1.29426|-0.556171|0.667967|-1.58472|-3.12826|-2.19736|-0.993996|0.759546|0.442402|3.71607|1.09355|2.38955|3.0701|-1.81589|1.78459|0.0755212
-3.07667|-0.442484|0.370744|0.622722|0.0273284|-2.47314|3.09861|-2.61631|-0.545339|-1.43438|0.0204755|-0.835519|-3.43823|-2.48609|-1.36669|-0.0185952|0.136973|1.29349|5.92107|-0.483619|-0.723187
7.10845|-2.33258|-1.13684|0.291366|-0.397188|-0.795108|-4.35844|-0.691989|1.43689|-0.545363|0.364428|-2.46284|-0.532319|-0.115342|-0.544279|-0.0719705|-1.08051|-2.20557|1.54219|0.715003|-1.21933
-1.26942|0.195893|1.08677|-4.98271|3.01637|1.53274|-2.58937|-0.523182|-0.472819|-0.807334|-0.962815|2.19347|1.93066|-6.22132|1.78645|1.95867|-0.732109|1.75986|1.47815|-2.35898|-0.570718
1.4089|2.65031|0.653882|1.08618|-0.0370037|-5.71434|-2.72045|-3.22921|2.1819|-2.58115|0.998079|2.22432|1.44149|1.23475|-0.22833|-4.4984|-0.892491|0.88811|2.26616|-3.34109|-0.947852
-1.92841|3.11395|0.0283701|-1.062|2.17428|0.122315|1.42408|-2.6215|1.51453|-3.53153|-0.627355|-1.59819|2.29265|-1.15711|-4.79539|2.12845|-1.21334|-0.649977|-1.5631|0.745155|-1.5692
-2.19846|-1.29467|-4.05131|-5.59659|0.706463|1.17486|-2.97159|1.396|3.13473|0.620767|1.71783|0.426348|-0.575751|1.31719|0.121387|-0.212122|1.84036|-1.03473|-0.349309|0.0291608|-0.192049
-1.87297|-0.239059|1.69617|1.90005|1.43848|-3.81837|-0.943596|0.23249|-4.90651|0.876385|0.386313|-1.38006|-1.70867|-1.91354|-0.453728|3.30512|-1.00781|-0.130096|0.337381|0.638916|-0.487775
1.52579|-3.13555|0.180519|-0.925845|-0.124253|0.205521|0.773225|1.42163|2.31929|-3.3563|-1.91539|-1.06765|1.19178|-1.41222|-1.99257|1.84662|1.25121|-2.23979|0.398249|-0.639255|0.135769
1.22053|-0.423233|-2.04073|-0.969101|-0.725819|0.552185|0.292837|-1.6214|-0.872705|0.610481|0.447062|0.527114|-0.31727|-1.56761|-1.34026|-0.944184|-2.03414|-1.03526|1.73019|-0.121363|2.74211
-1.98186|0.511219|-0.666723|-0.23501|-3.01919|1.82562|0.990572|-6.06119|-2.06686|1.9046|1.65701|2.23754|2.19151|0.839648|1.38197|0.401902|-0.550509|-2.40142|-1.40921|-1.27991|-0.214097
4.71898|-0.994967|-2.09935|-0.200896|-0.372579|-0.234893|-3.43317|1.8553|-1.68972|-2.25733|0.0586896|1.28319|-2.25583|-1.01111|2.17108|-1.54864|0.740542|-3.96056|0.530694|0.368141|0.832661
-0.0114905|1.57782|3.36032|-1.46946|-1.76931|0.468871|-1.09455|-2.49088|-0.72955|0.143805|-0.738671|0.772322|-1.21992|0.426976|2.46195|-2.57234|-1.56387|0.177621|0.522522|-3.15484|-2.16007
4.27678|-1.59056|0.64383|0.427915|2.5524|-0.625683|-3.3929|-2.73587|3.45289|1.72701|-6.78377|-0.665637|-3.81373|1.77519|2.20744|-0.327327|3.54243|-4.0213|-3.26408|-2.7491|0.355978
0.767754|-0.182753|-5.02616|3.0555|1.36778|2.47996|2.61718|-3.05187|-4.51312|0.0414705|-3.65896|-2.51812|-0.933428|1.43718|1.50882|-4.96627|0.019844|0.731559|6.37066|-3.28925|0.688953
-1.49152|0.828874|-0.544566|0.9269|-2.54864|-4.85346|-0.465229|-2.25951|1.03565|3.16757|2.69644|-3.80721|3.27755|-0.385451|-1.28228|-0.432581|-2.15969|0.382111|0.416674|-2.49232|1.50402
1.43485|-0.931383|0.702455|0.73493|-1.86303|3.56489|0.462112|-0.400316|0.2952|1.64333|0.5618|-4.88961|-1.27567|1.62765|2.19615|-5.55376|-1.06988|-1.27207|-2.81287|0.0198071|0.363919
2.08443|2.06394|-2.69856|-1.25753|-3.08182|1.46037|0.794998|-5.78389|-1.87136|2.26138|1.25604|1.72829|-0.402381|-2.48437|-0.0798246|0.460854|0.803124|-0.50065|-2.81756|1.29261|0.596498
0.786158|1.61679|1.94352|0.975428|-1.66938|1.40243|4.40913|-1.62392|1.97281|-1.90859|0.641127|0.248275|1.46404|-2.89123|-2.64751|-5.69234|-4.49802|-1.43638|0.0212116|-0.638774|1.37159
4.68815|1.36664|-0.18965|-2.45983|-4.62126|2.3639|-0.0106168|3.51|-0.305242|-4.03563|-0.36413|0.795105|0.673518|0.273304|-1.34535|2.2342|0.271508|-1.89499|-5.32462|-2.06644|-1.92913
-1.95099|-4.61258|-4.26604|-0.330239|2.56433|2.57669|0.0603074|-1.01135|1.83525|-2.63338|2.278|-0.238796|-2.58393|2.49987|-0.73247|4.67824|-0.932661|-0.175525|-0.198719|2.62525|-1.5212
-4.26798|-2.9037|4.36387|1.23179|-2.89643|-1.3636|2.13368|2.05443|-0.230343|1.41486|-3.12996|-2.94654|-1.48045|-1.71422|-3.62321|3.59456|1.94478|-0.0347229|-2.34374|2.81531|0.830917
-3.34131|-3.765|0.407422|-2.11608|-1.11013|-1.09164|3.0691|-2.28533|1.07801|0.552439|-0.239837|-0.0701667|2.63335|-6.70957|1.14131|-0.585269|0.343147|1.94607|1.06972|1.35467|0.650182
0.0457331|-1.32291|-2.89946|-2.80585|-0.417155|-4.63239|0.938252|2.3051|2.96944|1.29092|-0.392176|-2.14787|-2.46902|-2.26975|1.17701|2.55164|1.58538|0.495451|3.20836|-5.53752|0.927122
0.47671|0.150555|4.6459|1.02207|2.16818|1.43624|-2.12576|-4.27173|1.20375|-2.8588|0.255141|-5.76185|-1.13995|1.70941|6.13445|2.27737|-2.88523|-0.836129|-3.74008|0.662749|-5.57392
-2.5506|1.93966|-2.65703|3.99815|0.841285|1.5204|-2.75498|-0.51782|-1.50934|-1.89991|-2.15264|-0.785732|0.566946|-2.77227|2.9136|-1.85466|-1.70593|1.51782|0.381846|0.62951|0.544522
-0.596789|2.05074|-1.00755|1.37676|0.779555|0.223375|0.755455|1.95979|-1.35377|2.1072|-0.915036|-5.95343|-0.41986|0.903758|-0.371326|0.979331|-1.67824|-3.71391|-2.40556|1.4458|-0.49256
-3.18368|0.849144|0.906901|-3.42814|-3.41259|-3.39672|0.459831|2.84448|-0.334725|3.24908|1.11655|4.48846|-4.63572|1.56752|-0.779415|-3.12058|3.24065|1.56124|-2.47707|-2.7475|-0.387388
-2.2874|-0.200804|1.30225|1.70173|1.37821|2.41644|0.83007|1.91059|0.51323|-5.09485|-0.104777|-2.82597|-3.58637|1.73732|-2.03222|-1.05808|1.6762|1.35972|5.19689|-5.26704|-6.82199
1.22369|0.366366|0.609821|1.88592|1.26562|-3.78391|-1.8949|0.454206|-0.331446|-2.67849|-6.0409|0.903774|1.03312|0.421751|-0.364284|1.60881|-0.0619022|0.561761|-0.766454|0.215043|-0.132062
-2.20624|-1.76823|-1.47798|0.0204326|-8.69008|-1.9537|2.57594|-2.18811|-1.79876|1.79319|4.59789|5.02008|-9.45458|-0.49082|1.99699|-1.15239|3.71273|1.73912|1.0948|-1.43852|3.88857
1.11302|-0.846937|3.49326|-0.494606|-2.29572|-2.25045|-1.28284|1.76443|0.465893|1.53028|-1.33449|0.151913|2.15412|-5.16684|-3.01106|-3.62687|2.97785|0.076456|1.86764|-3.15621|3.34957
0.0244467|0.734443|1.61326|-0.294184|-3.57237|-2.07336|-0.244314|0.564201|-0.246912|-1.78649|-0.772992|1.59284|1.26088|2.41545|0.647609|0.124825|0.336614|-0.62616|-2.49281|-2.39982|-2.30932
-1.15528|-0.908962|0.836211|4.49695|-3.33373|-0.318297|-0.270027|-3.81444|-2.13595|-0.787224|1.72214|-0.77694|1.14494|1.78676|-1.84954|1.85665|-1.14435|-0.770968|-2.69013|0.13499|1.72746
-3.0465|-3.02956|-1.96209|1.17349|-1.75121|-2.18438|-2.24788|-0.26998|-2.947|1.52204|1.50002|1.87069|-2.24414|2.96765|1.67265|-2.48455|-2.27843|-0.00421235|1.72765|0.552437|4.71972
NUMBER_OF_CONNECTIONS: 35
-2.49723|-2.60118|-2.57685|1.42163|-0.506995|0.150418|-0.466714|1.23714|-1.71169|-0.848216|-0.230856|2.15877|-0.37709|-2.67056|1.71365|-0.655517|0.628968|1.99486|-0.773562|3.20781|-1.53174
-2.48169|0.883946|0.688205|-0.414263|1.01178|-1.25519|-0.626619|1.4614|-2.34026|-3.18484|1.30324|1.51224|-2.69006|3.78087|0.774851|-2.14428|-1.2302|-0.664994|-3.27029|1.27532|-1.22211
8.37707|-2.36342|1.01998|0.0352476|1.41727|3.96583|2.61945|-1.0582|0.69972|-3.5881|-0.176844|-0.871641|2.32884|-4.85101|-1.89081|1.93611|-2.77887|-3.54609|-4.28687|-1.26199|-2.64266
-2.23072|1.92489|-3.5905|2.73696|5.28354|4.69437|-0.200387|-4.59355|-1.76447|1.44593|-0.739124|-4.57297|0.520001|0.184447|-1.4084|0.940503|-4.08263|3.62278|1.45788|-6.10654|1.80178
1.41626|0.0705442|-0.769999|2.12708|0.718314|-1.73193|0.113334|1.57644|0.825736|-2.36476|5.01507|-0.965531|-1.38997|-4.33706|-0.56338|0.23907|-3.17072|-2.76088|-2.65668|3.00957|-1.93838
-1.44734|-1.54728|-1.36822|-3.59101|0.99877|-2.31339|-1.53738|-1.95804|-1.99679|1.43346|1.0025|1.0317|-2.02555|-0.242509|3.08613|-4.16831|0.943315|0.61155|4.0344|0.867859|-0.645805
-3.75885|-1.62025|-4.42208|1.31552|2.77441|-0.588397|-1.12067|-3.42717|0.0290318|-1.25573|2.21933|1.86944|0.295787|-1.28991|0.646457|0.603191|-1.65884|-3.35424|4.48124|0.937287|1.5429
-1.75475|-1.31412|-0.458791|1.77449|0.521342|1.18151|-5.48344|-2.26526|3.58403|1.24792|-0.811459|-2.2553|0.938202|1.5012|-0.413618|-0.360082|1.12025|1.36508|-4.61557|-1.61496|-0.162588
9.80532|-4.75089|-2.80914|-0.168753|-4.09805|-0.489674|-2.09974|5.70345|2.61201|-3.20249|-5.09648|-1.94307|-1.10441|0.042645|1.83447|-0.361539|0.40535|2.80977|-1.32674|0.956967|-2.114
9.67593|-1.13006|0.589856|-2.64085|1.58118|-0.483454|1.19987|-6.04239|-1.15462|1.1469|0.144093|1.43487|-2.98091|-3.18375|-2.46587|-3.08095|0.838813|-1.26801|-0.8572|3.20698|-0.335666
-5.46996|3.9646|-4.70333|-1.28524|-0.495398|-1.4798|0.266153|0.897029|-5.38797|3.25028|2.75123|-3.62261|0.444511|5.34123|0.43072|-4.04345|0.995962|-0.556776|2.96747|-1.44902|0.873653
-1.93503|0.411723|1.53505|1.07025|-0.694956|1.41669|-0.310104|-0.924384|1.47889|-0.540637|-1.33078|-1.44453|-2.39236|-0.482403|-1.23403|-2.51787|0.10627|-0.721865|-1.22886|1.82527|0.519095
0.31949|2.74726|-1.23235|0.65753|-3.18859|-3.63552|0.282174|-2.01473|-1.29029|-1.39465|0.761122|2.10704|-3.30078|1.63637|3.80208|-2.23065|1.9918|3.68767|-5.84003|-3.94212|1.16951
-3.37444|1.23573|-3.38183|-0.873472|-1.79769|-0.0121947|1.31972|-0.740121|-0.590713|-1.28628|1.662|2.21367|2.20015|1.13475|-4.56444|1.67498|0.652219|-4.74524|2.73079|-0.394409|-2.46255
-4.12281|-1.34633|-5.11475|-0.149732|1.39308|1.44823|-1.71646|-7.0023|2.41934|-2.10725|0.241583|0.0514809|2.66554|4.49563|2.84318|1.43069|0.343032|-1.89655|-4.79178|3.62184|0.00748451
-2.11213|1.52475|3.89611|0.699285|2.13687|1.60961|-3.00265|-0.461063|-2.12128|0.619523|-0.566842|-2.4885|-0.571481|-2.82258|-1.14213|0.128733|-0.385639|2.48694|2.73254|-7.99213|-0.762658
4.16219|1.0558|-2.2667|0.795266|0.733354|-2.04114|-0.189272|-2.89266|0.123362|-5.0561|0.352919|-1.17135|0.586638|6.36065|0.0392051|-2.09236|-1.73062|-2.36586|-3.28621|0.485248|2.06143
4.31373|0.0623214|-1.14506|-0.6421|-3.58984|0.665303|-0.540923|-4.52421|-3.77459|-1.29606|0.00216824|1.18147|0.0246084|-0.769159|3.30439|0.923617|-3.22296|2.55801|0.310377|-0.848089|0.77674
5.36866|-0.191489|1.45749|2.26269|-0.714992|-3.58359|0.0309865|-1.33515|1.60121|-1.61191|-1.81174|0.108941|-4.30366|-1.13212|1.36025|-0.257834|0.386769|-0.107361|-1.99688|-0.28733|-1.5404
10.0898|-1.01051|1.46344|-1.85968|0.260403|-3.59173|-2.82197|0.628973|0.389188|-0.748577|-2.86926|-3.16607|0.075651|-0.174152|-3.72539|0.726158|1.85761|0.493031|-4.91819|0.318401|0.247301
-0.88742|-2.11932|-2.89216|-3.19312|2.54908|-1.30581|0.594486|0.235191|-1.52258|1.29912|0.319413|-0.437599|-0.89414|-0.148768|4.77468|-0.0266579|0.775888|1.90239|1.24524|-4.32439|1.91996
-1.21528|0.407991|0.0343936|-2.23629|-2.66558|1.91191|-1.92651|0.897097|-1.87599|-0.161055|-1.94757|1.29653|2.40299|0.607121|0.255735|3.75479|-1.11575|-2.44709|-2.83823|-0.0551715|0.654249
0.575909|-2.20028|-1.72423|-0.586353|-3.13012|0.192846|-1.79583|0.0209388|1.50181|1.13245|-2.75725|-2.77351|2.52448|0.0621379|-0.471145|-1.63426|1.26102|-0.681326|-2.39808|5.81818|-0.0492273
-1.33249|1.27695|-1.11338|2.15789|-2.24526|-0.600276|-6.04976|-0.0938955|-1.92252|1.72305|-3.67394|3.30172|-0.272512|-2.2249|-0.465524|-0.0911786|-2.47201|-0.190808|2.09458|2.92191|1.80383
-0.858895|0.000426955|1.66817|1.63178|-4.35429|-3.12211|-6.76129|-6.9718|-0.562521|4.36575|1.16669|-4.87577|0.531245|3.26786|0.407046|1.98086|3.57541|0.680188|-1.20363|3.06949|-0.205317
-2.1457|-3.82777|-1.36543|3.76824|-2.68175|-2.61172|1.95114|-2.90015|-1.52822|2.59904|-0.62801|-1.41787|-1.71678|2.41793|1.19445|-3.37734|0.925838|-2.36827|1.74553|2.49141|3.01308
-3.1456|1.76992|4.15653|0.054323|-2.18153|-0.0270872|-0.11652|1.90827|5.09038|-2.71614|-5.15889|-0.941856|-2.47646|1.20807|0.0224461|1.16302|0.650323|-1.96717|-1.40031|-3.84359|1.72428
-4.014|2.0843|0.493996|-2.91198|1.85586|-4.18712|-7.90222|0.277294|-0.165428|5.61624|0.207894|4.72701|-6.05835|1.77807|3.14526|-4.48059|0.0768541|2.31606|0.810371|-2.3557|1.23281
-1.80522|2.84813|1.11003|1.09725|0.599701|0.447155|2.17603|1.2856|-9.13868|2.58692|-1.06866|0.39199|-1.42576|3.38971|-2.87077|-3.49672|-3.06217|-2.7454|0.679159|-1.55403|1.3336
16.0165|-3.12467|-2.86346|-0.0402041|0.711727|-0.463681|-3.24633|1.62785|-0.572685|1.68425|-1.36505|-1.23168|-4.82694|-2.80835|-1.73858|0.190469|-1.50915|-1.01889|0.561177|-2.33068|1.04382
-1.48834|1.01149|2.9143|-0.061236|-2.4306|-0.241547|0.675704|2.92727|-3.93551|-2.86398|-3.78205|5.50976|-2.40612|-3.3039|2.54783|-1.40411|1.7663|3.22654|0.0451316|-1.39026|-3.39273
0.533296|-0.413632|2.97299|-0.240511|0.189834|0.691373|0.272326|2.17835|2.93459|-3.65744|-3.26131|-2.40369|0.530328|-0.391287|-0.517639|-0.949268|-1.13924|2.45088|-0.894174|-3.74873|0.474599
-3.9348|1.57378|3.14611|-1.3182|3.91755|0.0338453|1.045|2.9839|-0.297604|-4.55211|-1.55193|-6.26103|1.47655|0.573835|-0.05919|-0.351695|-0.518207|0.101367|4.16854|-3.42477|-4.06176
-4.73607|1.24154|0.498147|2.90264|-1.36659|-0.260124|0.253103|-2.45173|-2.79216|-0.668129|-0.810881|1.33744|2.00059|2.75141|-1.74066|1.29909|-2.30397|-0.988925|-0.0821997|0.0507276|-0.301352
-1.96047|-0.090732|1.0389|3.07667|-0.00764757|-0.854203|-1.27987|-5.20771|-2.26016|1.99183|-0.25365|2.41144|0.0353506|-2.23222|-2.05824|0.367683|-0.0564841|-1.93705|1.49703|0.245753|0.548502
NUMBER_OF_CONNECTIONS: 35
-2.07294|0.930112|3.2419|-3.71694|-0.465489|0.663927|-4.33907|3.13251|0.551127|-1.51072|-2.61945|-2.60287|0.0771212|-0.295455|3.4508|-2.80105|4.82286|1.20526|-2.25652|3.9359|-4.2229
2.66205|0.0280074|5.51784|-3.63886|2.58056|-5.33528|3.80353|-1.28968|-0.617119|-1.11777|-0.912697|-4.60898|2.54874|-0.704675|-4.11694|-0.728154|1.14928|0.460227|3.33475|-1.96148|-5.61659
7.53157|1.23479|1.53216|2.42748|0.340626|-2.70446|-3.54626|-1.82434|-3.80646|3.52855|-3.1126|-3.71209|1.36868|-2.32577|-2.58385|5.28061|-1.13074|1.01176|-5.55561|-0.0920277|-0.618032
-0.348759|0.613476|-0.644357|3.64503|1.59293|-1.8225|-0.66205|-0.789357|-2.90047|2.33119|0.390754|-2.98495|1.3255|0.314845|0.388108|-0.463406|0.825452|-4.54772|-1.89326|-1.46759|2.47863
-0.273104|-0.163244|-1.92637|3.44601|-0.98917|0.0455165|1.01239|-3.52451|-0.58012|-1.38627|1.29635|-2.83199|1.30803|-0.950004|2.04825|0.504626|-1.21808|1.47201|0.0927913|-4.54033|-0.0895486
-0.791394|-5.00957|-1.24367|-0.934839|-1.90704|-2.61707|-2.6918|1.7634|0.431803|-4.10027|-0.423096|2.49867|-3.13753|4.65164|2.21114|1.44306|2.16216|-2.23728|-1.79883|1.80256|0.937227
3.02024|-1.03254|1.00597|1.32595|0.807459|2.35752|-8.57795|-0.580587|3.07014|-2.56419|-2.08127|2.93886|-1.49476|2.35741|-0.928667|-0.507084|0.0757217|0.0326626|-4.39779|-0.23245|-0.0058524
-1.54835|2.46641|1.00911|0.557354|4.96006|-0.23072|-0.528665|-0.181893|-2.00842|-4.61332|2.73586|1.96159|-1.23752|-4.40605|-0.593881|-0.20616|0.779795|-1.59584|2.16448|-6.95889|-0.573391
4.19571|1.27504|-2.65572|-3.58446|-2.26767|2.99193|0.114226|-0.222878|0.634086|-1.0559|2.72523|1.05281|-3.25435|-4.50223|0.918664|-0.94406|0.210564|-0.427965|-1.83991|0.131195|0.745656
5.01476|1.13458|-1.09821|-2.75352|-1.11378|0.136949|-0.258537|-0.635055|-0.839634|-2.2779|-3.13401|3.46759|-0.0817148|-0.957487|-0.406634|-1.83937|2.09616|-0.914261|3.28339|-0.307838|-4.26555
-1.10261|-1.66352|3.43801|-4.03992|0.223875|-2.32509|-0.256494|0.824414|-0.981755|3.04149|6.42604|2.98728|-3.36281|1.58063|-2.03559|1.18093|-3.31773|-3.42146|1.83137|-3.11527|-1.83388
-1.6201|3.81437|-2.05543|-0.894569|-0.74575|3.97026|-4.75128|-2.45726|0.172927|-1.09048|1.89425|-2.08263|-2.90268|-0.104912|-2.58191|0.958441|0.700496|-0.131692|2.80893|0.918929|-1.37111
0.528258|5.13107|1.91525|-1.83806|1.5072|-0.490165|2.4108|1.23659|-6.59057|-4.60408|0.22095|0.315135|-4.47229|1.65409|-1.92455|-4.0712|-4.36509|0.762215|1.88854|1.33094|0.705256
-2.02737|-1.83738|2.44087|0.776774|-0.000738677|-1.1868|0.0179301|-3.46824|-0.407367|2.09255|-0.598936|-4.04501|3.07203|-0.249094|-1.61434|0.818227|1.03094|2.2094|-3.96794|0.384572|-2.82634
-1.14418|0.33124|-2.89026|2.62542|3.70921|-3.32181|-2.9377|-0.105529|4.69635|-0.0156696|-1.72348|-0.912695|-4.20574|-2.59814|5.041|4.53736|0.907301|-0.762734|-5.88936|1.06947|-3.43061
-1.09456|-1.49681|-0.509018|-1.10999|-3.6892|-0.220113|0.280195|-0.484613|5.44099|3.23805|-4.17718|-3.11843|-2.62615|-2.43179|-0.184211|-1.25246|1.43777|0.462815|1.18361|0.78277|1.03108
1.58573|-1.28926|-0.897297|-0.64324|0.891464|-6.09032|-5.28412|-0.147564|2.06636|-1.02764|1.4338|0.625163|2.84833|0.683372|0.031376|4.05706|-1.40015|0.079824|-5.83362|0.273957|1.36934
3.24811|-4.92463|-3.72837|-3.0402|-5.61981|0.664019|-1.05104|1.83071|2.8734|0.938702|-2.86223|0.491253|-0.982741|-0.466401|2.32069|-1.63553|0.239645|-2.62956|3.99142|2.57688|1.57651
3.07077|0.307602|-2.06791|-0.765182|2.15479|-0.212192|0.394688|-0.494359|-1.48898|-1.40851|-1.73655|-0.334308|4.17858|1.67332|-0.918639|1.6469|-2.52088|-0.524059|-1.35217|-3.90421|-1.85253
1.20386|0.478473|-2.88016|-2.73698|-3.77494|5.1178|-2.88789|-1.50812|-3.31391|-3.39401|-0.770319|0.631838|1.7678|-1.03832|-1.16126|2.00135|1.77505|-0.673089|2.88664|-1.4591|1.34276
-2.39333|1.61738|-2.67606|-2.37631|-0.970374|2.52313|2.86495|0.9568|0.853914|0.224168|4.6979|2.15166|-1.00336|-3.27511|-0.340451|0.870159|-6.51802|-0.705769|-0.250223|0.757308|0.561755
1.84781|-2.98764|-3.30045|-4.28397|-1.53125|0.403113|1.2883|-0.721185|5.01759|0.920519|-2.28814|0.0528266|1.36822|1.12005|1.02405|1.28922|-2.11204|-1.53441|1.6192|-0.764174|-2.8255
-0.0382971|-5.59102|1.71406|2.73289|-2.54779|-0.852797|-0.278355|-0.84627|0.217245|0.785815|-0.443105|1.49901|1.11918|-2.94546|1.45046|-4.66684|1.83688|-3.9912|0.323052|2.21767|1.12654
1.92357|0.080402|-0.998867|1.74283|-0.252745|3.7161|-0.965146|-2.00447|-0.333455|-3.89064|-1.04456|-0.641711|-4.77049|1.15499|-0.782757|-2.24208|-2.81753|2.609|-1.27121|-1.59653|4.88903
-1.89662|-0.0392411|-4.89755|1.5251|-0.789682|-5.09363|-1.31905|1.23195|-3.11628|-2.92444|-0.910467|0.0936376|1.05592|-1.14189|0.902712|-1.73311|6.69304|0.357846|2.29511|0.931137|2.01777
-0.0463207|1.09102|-0.245471|1.4001|-2.832|-2.47281|-1.16797|2.35841|1.03378|-1.17708|-1.62368|0.231086|1.43381|0.917681|-1.90194|0.291252|-0.288867|-2.11046|-1.17583|-2.17667|1.88656
-0.0781525|1.53076|-3.1407|-0.0963579|3.9212|3.58879|-0.932951|0.689683|0.929218|-3.39995|1.09367|-4.79166|-1.0446|-3.13821|0.474553|1.77782|0.853647|-2.07826|2.48498|-3.7354|-1.31219
-1.96577|-1.06435|5.66986|-0.512056|1.8285|1.77759|-2.99363|-0.639322|0.111901|0.828632|-4.10603|-1.24389|-0.818067|0.341797|-3.79913|-1.15687|-0.681038|0.440265|-3.03266|3.2372|0.361836
-0.765813|0.800406|-2.7024|1.53041|-2.30805|-1.22578|-3.16054|-0.625935|-3.56371|0.468416|4.97026|4.69872|-1.09646|1.24365|1.07634|-2.17524|-2.92009|-2.46671|-2.72418|-1.28234|2.9408
3.05089|0.98257|-1.21093|1.38221|1.65936|-5.99179|-0.453628|-1.62598|0.379743|-0.0975902|-1.34425|-1.36959|-1.10782|3.30132|-4.07107|2.19748|1.8012|0.137406|-0.490871|-2.84024|0.520073
0.851001|3.90876|-0.210335|1.73778|-4.01913|1.99192|4.48944|0.993675|-2.03773|-3.63406|-3.51226|-5.59588|2.9264|-0.669831|0.744696|-2.4915|-0.570416|1.88328|0.65559|-0.580223|-2.77234
-2.76556|0.362528|-0.105675|0.0107585|-1.44086|0.211739|-0.794565|0.394604|0.0449712|1.92342|0.858986|1.79867|-1.50356|-0.301606|-1.15917|1.77076|0.336951|-3.07009|-0.902768|-0.406605|0.182315
-1.88893|2.05045|0.798273|-3.95499|1.20485|-0.436936|0.896216|0.588886|-3.1231|3.24539|-1.69453|-1.67331|0.0146312|2.69286|-0.728386|-3.43632|-3.11772|-0.170898|3.50775|-1.85036|-0.525511
-1.83256|-1.01461|1.62688|-2.76853|-1.16671|4.89298|-1.84051|-2.72095|1.39445|-1.38992|-2.96654|-0.807669|0.868976|1.4444|-5.39118|1.38085|-2.23486|3.24843|-3.05501|1.97056|4.08105
0.368429|2.81934|-0.712791|3.81513|-1.42963|3.60428|0.211312|-1.12001|-1.49774|-3.00173|1.31189|-3.09623|2.5029|0.268577|-1.40249|-1.36241|-1.44811|-0.30676|-3.71473|-2.35882|-0.326134
NUMBER_OF_CONNECTIONS: 35
0.179638|0.997718|2.72787|-4.45682|1.72028|-0.607713|-5.73563|-1.60488|-0.50939|1.97706|-1.78727|2.17849|3.0108|1.96235|-2.20844|2.47034|-2.53984|0.022199|1.96764|-3.23677|-1.42063
-0.505007|2.21309|2.25833|-0.950278|3.10257|-6.90987|2.86322|4.69068|-3.71858|3.71162|-2.00959|-2.01824|-1.16865|0.774814|-3.29452|-1.40635|-2.23049|0.00231009|2.44433|-2.33669|-3.95431
1.32581|-2.8639|-3.32949|0.880902|-1.91366|-0.648752|0.0581126|-0.0296639|2.33147|3.68494|-0.844107|2.6867|1.67553|-1.60548|-5.6991|4.73717|-1.17402|1.27593|-0.127613|-2.54459|-4.73153
-0.302671|-1.33656|2.0745|-0.785263|-1.79649|-2.17997|-2.22551|3.18055|-1.03014|-1.1317|-2.67337|0.517556|-1.87758|-2.41538|2.79855|-1.47185|4.50325|3.97513|-0.528548|-0.223755|-1.73472
0.419465|3.43912|0.550487|-1.304|3.41057|-3.55074|-4.28645|-1.76058|-2.05154|3.45934|2.16585|-0.847653|-4.7724|0.936858|-1.8589|1.60401|-2.40124|-1.19531|1.59427|-2.61134|1.66772
0.172873|0.142259|1.90829|2.75557|1.28971|3.22134|3.34062|1.1295|0.486267|-2.00002|-4.023|-4.98074|1.1023|-3.74944|-3.09662|-3.71829|0.0222508|-0.758263|1.70694|-4.03844|0.152492
-0.552611|2.36438|0.878571|-1.35491|1.63777|0.676708|-0.688517|-2.74888|-0.07513|0.106922|-0.458654|-1.78181|-4.09115|1.54619|0.252322|-3.51145|-1.28454|0.723708|-0.579573|1.81203|1.36862
-0.627264|-0.0432797|-2.14695|-0.650355|-0.85943|0.817452|-1.51992|1.47115|1.72005|0.44712|-2.28067|-5.16301|-3.03076|-1.5183|2.78134|1.94267|1.68044|1.30352|0.751197|0.804033|-4.16538
1.29067|1.36674|0.657474|-0.989525|0.8419|-1.16927|-3.39469|-2.54818|2.17732|-3.21481|-0.244121|-0.433833|-1.06302|1.08422|2.82797|-1.67666|2.37426|-3.2659|-0.541745|-2.98388|3.26726
1.09035|0.234674|0.229069|0.0913372|-1.37634|-1.84283|1.04917|-0.611525|1.02093|-1.70952|-0.707641|0.0355978|3.15415|0.337195|-1.51784|-2.63955|1.71604|0.12224|1.87257|-5.82041|-0.234278
-0.68678|0.53105|0.433622|-4.51596|2.39112|0.733936|2.11026|0.400782|3.7671|-3.98508|-3.16176|-1.71839|1.55883|-7.11791|-0.645256|4.08754|1.13213|0.591721|-1.91713|0.623369|-0.850032
-0.964975|-1.99207|4.85685|-0.145437|-0.268639|-2.5008|3.01772|0.865094|-4.31069|-2.64435|-3.01326|2.27902|-0.36197|-1.14862|-3.46543|-0.343826|2.80221|-1.66408|1.9101|-0.352534|0.00936525
0.387491|0.898896|3.88754|-1.52407|3.5711|0.438679|-0.70957|0.699543|-4.04174|-1.26499|0.374752|-1.32578|0.996717|-2.28411|-1.18182|-1.86548|-2.32954|-2.89822|-0.883769|1.40599|-1.13867
0.0374862|-1.23606|-2.48796|-4.08847|-0.781086|-0.861398|-2.51492|-5.17156|0.00639897|0.0449166|1.13642|1.09768|-7.32082|2.2924|2.15786|2.09997|-0.891182|-3.75436|5.22819|0.630882|5.23094
-1.02103|-3.36665|1.77838|2.61407|3.38774|1.76606|1.7395|-0.628566|1.32142|-1.05692|-2.13366|0.506406|1.38332|-1.37843|-3.41632|1.50683|0.343969|-4.59825|-3.17793|-0.455979|-2.30989
-0.992308|-3.99288|-1.19756|-2.26458|0.0410154|-1.38992|2.60689|-2.07043|0.675712|-3.67696|-0.696175|0.362415|1.51789|-1.15174|-0.823319|-2.53143|-0.555545|3.25649|1.17864|2.66492|0.667243
-1.03598|-3.54913|1.92499|-0.466419|2.01867|1.35264|-2.92472|-2.73295|3.83544|-0.827781|1.50922|0.519406|1.91997|1.77079|-0.0886819|3.34843|-1.09425|-4.05735|-3.34523|-1.61137|-2.61209
1.8111|2.82434|-0.273685|-0.180764|-3.06415|-2.85925|-2.37907|-3.64714|-2.19804|2.88631|1.9288|-1.64316|0.266263|2.95465|4.07584|-2.69805|-0.00288179|-5.16235|-0.0978251|0.6813|0.611006
0.782489|0.190038|0.313284|-0.084047|2.48138|-1.25932|1.15276|1.10073|2.07333|-1.20442|-3.42259|-0.84683|-2.76105|0.753697|-0.560358|-2.05371|0.419997|-2.8542|2.3715|-0.570359|-2.28035
2.08726|-2.21856|4.61672|0.0534865|-2.93284|0.170669|-2.2565|2.53432|-4.48376|-0.825817|-1.66529|-0.027867|0.53206|0.0394741|-1.88742|-0.00132974|-2.77918|2.78333|-2.56182|-1.68383|2.26475
-0.402215|1.4921|0.0155432|3.48845|-1.38645|4.19407|1.43609|-0.577623|0.144226|-1.75907|-0.9812|-2.36537|0.29993|0.672359|-1.10307|-3.24402|0.456534|-1.59562|-1.04737|-4.1513|4.09945
-0.239138|0.293376|-0.339906|0.891393|-0.576731|-0.608735|1.64108|-4.72857|0.301906|2.99019|1.03155|-2.14792|0.384561|-1.49576|-2.55687|1.98302|0.812738|-2.95204|0.346681|-0.316889|-1.18752
-0.0310521|-1.55053|-1.58275|1.00218|1.21699|-1.11956|-1.24117|-1.1715|-4.92551|3.53892|-0.350542|-2.83593|3.16747|1.73153|-2.84433|-0.96569|3.42949|0.639133|-0.113105|-0.802652|-2.39924
-0.895328|-0.00543009|-5.44275|-5.77822|-1.58068|1.8796|-2.0508|-3.02612|0.789606|-0.012399|2.75575|1.77174|-7.40065|-0.833124|4.01733|-3.34696|-0.812921|-0.707149|4.72187|3.08826|5.29565
0.299331|-0.485293|4.5185|-2.20244|1.81449|-3.77551|-2.1588|-0.30029|0.234375|-4.47746|-1.63512|-1.0202|-1.43869|7.6535|1.14252|1.68052|-1.6325|-3.28247|0.490986|0.700532|-2.82082
0.00692432|-1.35338|-1.05704|1.20709|1.38958|1.08671|-0.314343|2.55447|-0.724772|-0.153835|-1.33812|-0.737233|-1.88689|-5.89555|2.83193|-2.06173|-0.972328|1.34511|1.70892|-0.985996|-1.28728
0.00478171|-1.36251|-0.525014|-2.89778|5.04088|-0.848039|-0.569324|1.08526|-0.629346|2.36674|-0.619121|-3.49504|0.722421|-7.01681|1.17075|3.72089|1.70694|-1.49904|-2.65202|0.238164|-0.412007
-0.840544|-1.30885|0.394801|2.72567|1.47676|0.797759|-1.67009|-0.0400398|-4.36064|4.69596|1.28749|-4.64706|-1.39265|-6.80848|-0.698258|3.31388|-1.31513|-1.58102|2.83909|2.64925|-3.05717
-0.821056|1.21612|0.773814|-1.59531|-1.8397|-3.65689|-0.511557|-1.25185|-3.36632|0.63372|0.455717|-0.385281|0.955462|0.526623|0.188508|0.524808|-2.20278|-1.26483|4.50793|-0.309777|-1.80151
1.68597|-1.65671|1.54277|-2.50982|-0.00566775|-0.494763|-1.31578|0.2101|-0.220453|-1.48854|-0.300861|1.58345|-2.16292|0.136642|1.7126|0.772959|-2.22107|1.07486|-2.87347|1.19518|0.0149529
-0.369689|2.46694|1.07526|3.1101|0.620518|-0.610889|0.754084|-2.2677|-0.536981|1.10839|0.357126|-0.842438|1.45339|-3.03661|-0.741627|-3.12148|-5.3514|-0.0467525|-2.57739|-0.025372|2.36535
-1.66617|-0.385888|3.11217|0.399623|-0.692391|-0.461627|-5.5966|-1.32109|2.00999|-3.71402|3.64433|1.46894|-1.20823|-1.51418|3.49538|-3.18731|0.505367|-2.48173|-0.00209807|4.98189|-1.83681
0.108342|2.3165|-6.5839|-3.40941|-1.67714|-2.49011|-3.71312|-1.48905|-2.83011|1.52642|5.01938|4.11108|-5.55343|2.37408|2.32293|-0.104329|-1.18261|0.408071|1.3824|0.739468|1.38328
-2.10295|-0.954367|-5.86953|2.97469|-1.90129|1.95781|2.62799|-1.99835|0.364207|0.427396|-3.31889|-3.67243|0.435164|2.09714|0.41387|2.0229|0.745784|-1.54789|2.31483|-2.93583|1.72401
0.0941504|0.348756|-0.70908|0.539485|0.685341|1.30814|-0.528596|-5.96132|0.743562|-2.37631|0.119911|-0.134954|-4.18478|-2.18222|5.56275|-5.51081|-2.1266|1.65943|4.90956|0.656948|0.539892
NUMBER_OF_CONNECTIONS: 35
0.504037|-1.3912|0.492496|0.117304|-1.40575|2.43551|-0.131616|1.11391|2.79344|0.288518|-7.80497|1.67259|0.444357|0.261639|1.36708|-2.0505|-0.365869|-3.4559|0.547804|1.29699|-1.73528
-0.576396|4.2245|-2.6842|-1.32663|-2.24282|-0.108769|-2.43648|-1.85455|-5.66443|-3.36447|2.42172|3.90542|-0.924423|0.0388466|0.24007|-1.13827|-1.31273|1.27923|2.04829|1.48423|-0.583218
0.736338|-1.88391|-0.232825|-1.65133|1.06039|5.42577|-3.26684|-2.96932|4.4799|1.3515|-4.51876|2.25547|2.44352|-4.14422|-2.24033|-0.180299|-1.0853|-0.319846|0.278755|-2.93043|0.669029
-0.136073|-3.31893|1.58614|-2.28932|1.11801|-3.82236|-0.518616|4.12462|-2.386|1.82372|-1.98437|-3.50145|0.00134775|-0.180487|-0.668715|1.26544|4.49202|-0.549627|2.33413|0.343221|-2.47876
1.78106|-0.485809|-4.34862|3.43041|-0.765959|1.77866|1.16773|-3.15554|1.86369|0.349395|-1.74528|-1.8121|-0.995842|-1.91912|-3.87497|2.63578|0.0614659|-1.86728|0.619292|0.229076|-0.402386
-1.41414|1.0193|1.0572|1.92322|5.37668|-3.79381|5.5796|2.1266|-0.0442846|-0.393375|-5.36939|-7.62364|-1.7057|-4.75885|-2.68544|-1.9737|2.78928|-1.73726|2.19076|1.95243|-1.44222
-0.302831|-0.185913|-0.938483|-0.356697|-5.03167|0.912541|-3.4903|-3.49756|3.29828|-0.904799|3.45956|1.29597|-3.5574|-1.38591|4.06511|1.22992|0.683149|0.515001|-2.43863|-3.14395|3.89665
-0.58367|0.494703|-4.62111|-3.57448|1.76203|2.63726|-2.07115|-7.50795|-3.74451|-0.195868|-0.165281|1.19844|-0.224907|-0.0884124|0.900837|2.48398|-2.74575|-0.633403|0.586851|2.49675|5.54014
0.718907|2.62842|-3.1003|-2.71134|1.08244|1.74719|-2.32216|1.06836|0.450843|-0.039302|-2.44615|-1.06444|1.02463|2.42609|-4.80308|-1.74777|5.02834|-0.0517818|-2.50017|-1.56098|0.615754
0.68856|0.50986|-1.98084|-1.83013|1.13198|0.879887|1.47492|-0.537114|-0.248744|-0.737357|-2.3679|0.258184|1.24694|-0.539655|-0.0563952|-2.01861|-0.908833|0.656165|-2.12127|1.19856|-0.552231
-0.965208|-3.35121|0.875705|3.95831|-1.01812|-0.507412|-1.23562|5.9263|-2.19061|0.222975|1.0687|-1.33621|-2.27425|-7.43649|-3.40731|3.82474|3.55896|1.49113|-0.336961|-4.74969|1.92746
-0.0402331|1.56655|0.208697|-0.585079|4.91591|-0.52666|0.959182|4.21693|-4.66293|2.85874|-2.95051|-4.90927|2.96986|-2.26201|-1.04689|0.333394|0.221645|-3.36586|0.611869|-3.47245|-2.46479
-0.336335|1.83799|1.42212|-0.636573|-4.35853|-0.822565|1.12088|1.40615|-5.77017|2.92692|3.43482|3.95906|-0.549553|3.94356|1.40015|-6.62975|-6.35139|-4.49339|-1.82781|0.586209|0.70432
0.242944|-1.05543|1.64271|-5.67424|-5.36356|-0.956406|0.7629|0.233247|-2.87561|1.73407|1.57116|-1.36395|0.9607|-2.9568|-4.86335|-3.48315|1.51559|2.99365|0.50199|3.86093|3.40174
0.0623315|-2.30246|1.83908|-2.15749|2.6899|-2.10769|0.609221|-1.67923|2.42165|-0.429704|-0.150086|-3.46005|0.0607162|-5.3107|0.985176|2.95445|1.10202|-2.72073|0.751062|4.09705|-4.62293
-0.845099|-0.245245|-0.722954|-7.10884|-2.64539|2.49915|-3.43433|2.79676|-0.240739|0.213658|0.327732|3.84326|-0.674846|1.81787|-0.331031|-3.10117|2.30353|0.0385334|1.41021|-2.92277|-1.58033
-1.29443|-1.43657|1.44294|0.0245965|-1.57195|-0.995476|0.199037|-2.20536|2.57042|-4.24873|-1.84781|-0.670006|-1.41626|-0.956345|1.27083|0.8574|1.55372|-0.47526|2.824|2.06677|-2.11096
0.615898|-2.21014|-1.81779|-1.36072|-2.75126|-1.45782|-0.610143|-0.666462|0.972732|-0.854075|3.59828|4.14121|2.82393|6.19046|-2.65715|-8.4419|3.48176|-3.61124|-1.82403|-1.13223|1.44148
0.0893745|-0.640325|2.17261|-0.0585434|0.835165|-1.6394|1.84746|-0.330235|2.36082|-2.32423|-2.50098|0.258174|1.95327|-0.97238|-2.71765|-3.20353|1.80886|-3.13713|-1.2262|0.847843|0.515459
0.200066|-1.45755|-3.49918|-2.00266|-3.92928|-0.912368|-5.87511|-1.975|-2.01354|-2.10569|3.21876|3.10061|-3.19216|5.07963|4.22908|-1.31253|-1.2473|3.73628|-5.58142|0.842539|6.42236
-0.425088|0.915868|1.81043|-1.18604|2.54481|-1.75087|-0.704022|0.747579|-4.13307|-3.24995|0.542488|-2.36517|0.0564422|-5.80249|4.53969|4.5031|-2.26615|3.2896|-1.89823|-0.111886|2.51759
-1.06896|-0.0215128|1.93133|-1.57652|-0.421578|-2.02475|-2.71996|-0.127286|1.3|-0.0987615|-1.31155|0.901745|1.31253|2.67245|1.7818|-4.54552|3.02248|2.43081|-3.72349|-0.400935|-3.54776
0.311731|-0.608356|-2.38383|-3.63089|-1.91928|1.0968|-1.29833|0.248005|-3.64907|2.42931|-1.1721|-2.79627|-3.11323|1.10439|0.381606|-3.92563|-0.299754|0.535242|4.86858|4.02345|2.39958
-0.660168|-2.07101|1.86641|-0.892827|-5.0424|4.54319|0.0603964|1.8369|-2.32263|-2.58291|3.58861|0.25899|-0.635659|4.17266|1.06264|-6.33957|-1.38351|-3.27246|0.442543|-1.01447|1.26705
0.0156881|0.525535|2.23173|2.49107|-0.117|-4.80048|1.86425|0.607965|2.99916|-8.81075|-0.419274|-1.52853|-1.44786|8.18323|-1.28786|-2.99054|-4.52857|-1.53672|-2.77405|2.93483|1.77899
0.438362|-0.388366|-5.23859|-3.01188|-2.14907|-1.23062|3.46959|-4.55907|-1.59993|0.788783|-0.387978|-0.178845|-1.87979|2.5782|0.455704|0.323073|-1.73279|0.156309|4.78432|1.90778|1.10364
0.01862|-1.0136|-0.0136321|4.94638|3.94351|2.29452|-2.72448|-1.4174|-1.11923|-4.19871|-0.771509|0.869991|-0.193566|-3.10494|-1.28728|1.12902|-2.45146|-1.59123|3.1589|-1.08772|-1.66744
-0.407918|0.797836|1.29503|-2.56093|2.78806|-3.06549|0.310375|4.4826|3.55976|1.11614|-4.79979|-6.10938|0.213865|-6.22226|-0.159747|5.95271|2.13242|-2.78688|-5.77689|3.84382|-2.21943
-0.756564|0.740438|3.32075|0.119236|-1.10157|-2.55621|0.269039|2.51165|-3.33035|0.558681|-5.83253|-0.488623|4.57969|-2.24652|-3.47995|0.0798973|-0.319189|2.34062|-1.54763|2.94071|-5.00125
0.19246|-2.45564|1.58532|-3.26767|-2.24808|-1.16948|0.487817|-0.0707524|1.90744|-0.962632|-0.864201|-0.260344|0.19559|-0.706098|0.118912|-0.317416|-4.17777|1.08817|1.13865|1.6805|2.66302
-0.0958681|1.93404|-0.379837|-0.32177|-2.29472|0.383666|2.12736|-0.852051|-2.24734|-1.69816|-0.487872|5.2527|-1.79015|-0.597388|0.89012|1.18499|-0.969229|-6.09754|0.484578|1.5902|-2.17221
0.324196|2.78766|-1.82755|0.0985055|-1.08565|-0.616645|0.672822|-3.80497|0.877788|1.39379|1.8701|-0.760101|-1.51793|1.98896|0.0393844|-3.86483|3.25439|-1.96683|0.662766|-2.16655|-0.785256
2.45638|-0.988427|0.577023|0.457934|-1.11963|-2.35171|2.0929|2.31643|-2.97018|-1.39761|-1.37888|-0.0314685|-0.641206|1.54159|-0.743942|-1.74598|-0.195625|-0.616038|2.92616|-3.47483|-2.17392
0.0455726|-1.50104|-1.6208|1.77042|1.08062|-0.218521|-0.354593|-0.360922|-0.454318|5.19155|-2.07516|-5.29028|1.20069|0.174649|-2.48862|3.71941|0.203006|0.335374|-3.83639|-5.35296|3.66557
-0.50176|-0.785449|-0.922835|-4.10785|-2.70203|-0.678031|3.12046|-0.901302|-2.04857|0.0952468|2.97287|2.43746|-8.23116|2.75072|6.3363|-2.37472|2.0952|-9.82619|-2.20126|4.30782|4.40709
NUMBER_OF_CONNECTIONS: 35
-0.104363|-2.92529|0.837394|-2.70028|-1.90931|1.08318|-2.2844|1.01897|-0.429049|-0.641068|1.05459|2.50894|-2.77234|3.58667|-1.66443|-1.27027|1.29602|-0.992216|-0.578646|1.7767|0.447251
0.0617188|0.988861|-0.264922|-6.0278|-2.22749|-1.82878|3.22774|0.967396|-2.22483|-1.7966|0.652587|2.7168|-1.40873|2.93612|0.401238|-0.981363|-4.64897|-1.31303|2.76061|0.978829|-1.56356
-0.00307398|0.520067|-0.678073|-0.0689303|4.33598|2.79186|-2.33219|-2.0155|0.52894|-3.80335|-0.246994|-2.58213|0.069671|-1.082|-1.07322|3.65108|2.98071|0.215249|-5.80929|-2.1611|-0.145457
-0.00252443|-1.65287|0.210815|-1.20935|0.819353|-3.53912|-0.0846641|1.97618|-1.39758|3.27528|0.0443334|-0.407828|-1.084|-0.664658|5.35325|0.830536|0.215213|-0.928832|-1.52639|-1.40966|-3.49424
-0.0946411|0.181015|1.12925|-3.0066|-0.351992|-3.28558|0.5475|4.6349|0.758323|-7.39785|0.684699|2.61973|0.430002|-2.32678|-3.45191|-1.82456|1.127|-1.93484|1.53867|1.78732|0.831454
0.106834|1.94803|-0.900445|-2.62701|-3.79407|-0.916179|-2.77613|1.82036|-3.10749|-1.12239|3.76566|2.96802|-7.23149|4.90371|1.57576|-4.67462|-4.54256|-1.47448|3.58264|2.00488|1.58232
0.105609|0.880883|0.00451366|-2.62617|-0.133265|5.15302|0.568232|0.0652926|-2.23196|-2.27789|-2.4916|-1.73996|-0.259147|-1.56517|1.46894|-2.87144|1.80948|-3.92522|1.53012|1.43008|1.34808
0.072891|0.132238|2.34755|1.26964|-4.55999|0.503464|1.4386|-1.78354|-4.03441|2.72324|-4.40975|2.48593|0.0403638|-2.43738|1.81426|-3.44197|-1.15659|2.76543|-6.25356|-0.462503|4.77173
0.0503431|-2.14533|-2.69747|0.738844|0.660784|1.18604|-2.2865|-2.01661|1.45496|0.798229|-0.183133|-0.087577|0.246931|2.49199|-2.41764|1.34212|0.526798|3.69109|-5.4055|-1.17411|-0.385583
0.0137398|-1.02102|3.90864|2.40768|1.43161|-1.91856|-2.61279|1.16646|-1.87102|1.24641|1.88076|3.86583|1.46314|-6.22385|-2.32706|0.535697|-4.52597|-1.27512|-4.69851|-1.04104|3.80732
0.0759313|-2.29378|-4.54189|3.06981|6.01673|-3.27855|0.176575|2.13972|2.66129|-0.0270599|-5.62605|-8.66288|0.784582|-5.0261|-1.83737|6.48167|4.91113|2.86051|4.9433|-3.25753|-5.42911
0.030228|1.06842|1.87483|-0.437538|2.07161|0.321123|-0.0483408|2.26841|-3.23913|0.329809|1.4042|0.170426|2.71286|-6.28469|1.17696|0.940853|-6.57886|-2.79191|-0.0132492|-1.17047|-1.29499
0.00430409|0.587046|0.320214|-4.7031|-5.01276|1.72432|-0.244596|-1.72469|-6.13228|3.61127|2.55796|4.5047|0.260993|5.48316|-3.08717|-4.30687|1.50301|-2.60457|-0.255387|-2.54093|1.11085
0.0729599|-4.79045|-4.55444|-1.7707|-4.92331|4.36415|-5.10439|-2.06638|-1.98873|-3.71237|5.57583|3.76218|-1.16164|4.53566|4.83331|-1.41042|-2.60103|-1.14137|-2.0279|1.36603|3.52869
0.0685649|-1.22371|-1.24489|3.92086|-0.214759|-2.90882|3.1691|-3.46003|0.223715|2.79821|-4.61279|-2.52656|2.56522|-0.947952|-3.01527|4.95867|0.816081|-1.74068|-1.81823|-1.11497|-0.700333
0.0811473|2.69016|0.638722|-3.61108|-0.494892|3.05748|-2.85277|-4.68768|-5.75657|-1.37581|-1.58567|2.3928|-2.07155|3.29591|-1.02191|-3.96917|-1.52842|-3.25139|2.92974|2.02927|6.77388
0.826265|-1.29974|0.40108|-5.58562|-0.576798|3.06002|-1.08164|1.09342|1.18087|-3.06099|-2.76689|-0.67708|-0.187137|-3.66485|-1.72668|2.88488|3.60417|-1.65357|0.938653|0.344475|1.79938
0.0473935|0.697631|1.52053|-0.716844|-3.5123|-1.03398|-1.45417|-0.920286|-1.59536|-5.10323|1.47577|-0.379884|1.08041|-3.41853|3.32001|-3.97121|2.383|3.74014|0.689731|-0.802057|1.79517
-0.040672|0.899056|1.4076|1.23354|-2.83568|3.48819|1.6561|0.591896|-0.0321356|1.46081|-2.16673|-2.08905|2.79177|-2.9208|-1.50446|-2.58146|0.583193|0.9428|-0.499471|-2.78444|-3.72652
0.0751007|-1.06949|0.798103|-4.44403|-5.1778|-6.68334|-2.01795|-0.763656|0.454153|-0.934961|5.00488|0.0576046|1.86705|3.8434|4.44405|-5.12942|-0.814616|2.99303|-2.9975|2.05301|0.244329
-0.00647737|-4.19203|-0.586956|-1.81444|1.74708|1.59678|3.89923|-1.96415|-1.90679|2.73319|-0.241378|2.15731|1.66404|-1.16079|-0.0692806|0.0600537|-5.54224|-1.88678|0.593022|1.01019|1.66446
-0.207596|-1.13962|4.51407|0.265102|2.50133|4.42375|-2.33224|-0.963137|-0.633652|-1.10581|0.300895|-4.90359|-0.975408|-2.03234|-1.04093|0.159833|1.3545|-0.43518|-0.455523|-0.836905|-2.76454
0.060789|-0.562903|-3.84019|0.691705|1.66361|2.07969|-2.26113|0.7462|-2.75166|0.295584|-0.0316695|-6.67163|0.196998|0.875041|-1.80436|-2.79623|1.43036|-0.405283|4.66407|4.96707|-3.79374
0.0368674|-0.0376969|-4.09843|2.90169|1.53128|0.987054|1.9435|-1.92857|-2.70338|-3.11306|0.0958024|1.19982|-3.55834|-1.62491|-0.611257|3.23859|-2.77918|-0.655104|0.399471|0.0785122|1.26203
0.0372691|0.606412|2.33532|5.98625|-2.64591|-6.27388|-3.21722|-3.77631|-0.252766|-2.11714|0.72962|3.45193|-1.45436|2.5209|-2.67364|-1.35913|2.21686|-1.28158|-0.695577|-0.181614|1.25789
0.00904801|-0.814013|1.22837|-4.67023|3.15038|1.16475|-1.69549|-1.089|2.01474|3.75529|-2.52599|-5.11813|-2.65208|-1.96227|-4.56258|0.770854|2.8589|0.951446|1.82584|0.677448|0.34418
0.0387765|1.4089|-2.31683|2.13645|1.4311|-3.42769|-1.06798|-0.114509|2.68281|-0.890363|-3.80826|1.1153|1.04461|-0.183332|-2.89785|6.15991|-4.59006|-0.573176|0.131999|-1.53603|-1.11951
0.0547055|1.81497|2.97221|4.62233|0.456537|4.51966|2.80987|1.86377|0.759224|-5.75335|-2.11918|-7.98583|1.29725|-3.86901|-1.95851|4.47151|-0.0289163|-2.15429|-2.5181|-2.41334|-4.46557
0.164558|0.26637|0.149194|-0.296713|-0.6657|-1.22551|2.22518|-0.0716989|-3.68546|-1.72406|1.26319|2.17195|-0.76425|-0.807512|1.72833|-7.73208|-1.32597|-2.10807|1.19536|2.30353|-0.262001
0.0950009|0.979361|3.11332|1.20557|0.745223|-0.158739|-0.803436|-2.31345|1.45501|-2.16667|-1.55868|-0.293184|-1.45953|-1.52109|1.91358|-3.26333|0.110276|-1.40812|-0.219895|-0.359404|0.475962
0.115712|1.81261|-2.41445|-1.35344|1.65028|-1.46502|2.60729|0.313841|3.5705|-3.91361|-5.42201|-0.201987|0.80646|1.1073|1.87445|2.51827|-1.37108|-3.78562|1.23951|-0.692646|-3.13428
-0.294583|2.01651|-0.52642|-0.547461|-1.87902|-3.25348|-2.82331|-5.87259|1.26234|-2.74095|-0.726126|-1.72435|-3.56665|3.9488|2.52826|1.62896|2.20024|2.73156|4.25082|-2.54508|1.51958
0.037776|3.32664|4.32965|1.68975|3.43703|-8.49953|3.92862|-0.274657|-2.0919|2.07335|-6.91559|-4.85736|4.55638|-2.00077|-6.74897|-0.455921|0.960592|1.3112|2.61952|-0.428922|-3.73005
0.0409028|-1.00624|0.155033|0.164936|2.25652|0.287135|-0.169476|-2.45926|2.68009|-2.36646|-1.07683|2.6123|-2.0012|0.512096|-3.55836|-1.20382|-2.53673|3.08402|-1.36932|1.68608|-1.86947
1.33861|1.62344|1.72368|0.967835|2.94133|-3.13101|2.3614|-0.903435|-3.4366|-3.26795|-1.35893|-0.0602463|0.598589|2.62286|0.867897|-3.83924|-1.92055|-3.30091|4.14558|-3.93857|-0.917724
NUMBER_OF_CONNECTIONS: 35
-1.33316|0.632836|0.429222|-2.10215|0.664342|4.12782|-4.32752|-0.710197|-0.36809|-3.59408|0.0299963|1.56279|0.0892523|0.857108|1.1289|-0.470443|0.297398|-0.741187|0.534879|0.862018|-2.4684
-0.170927|2.28739|6.57249|3.17919|4.56469|-0.485351|3.96253|3.72399|-2.04057|-2.40275|-3.66789|-3.26803|3.51404|-7.1956|-2.18689|-1.17108|-1.61933|-0.242752|-4.08595|-1.89766|-5.90258
2.44986|1.87777|1.04332|-0.0322372|0.420131|-0.474861|1.09984|-3.19785|-1.31734|-2.97257|-0.571582|0.0617643|-1.74834|-0.976258|-2.78321|6.34609|-1.93681|1.54385|-5.89291|-1.75417|1.84856
0.678143|-2.70814|-2.99752|-2.29051|-2.14977|-3.59544|-1.137|2.25667|-2.47192|1.10442|-0.178333|1.53074|1.60804|0.329226|3.95974|-1.34346|0.383575|-1.6853|2.26018|4.66182|-2.92084
-0.0464277|-3.90077|-1.22111|2.13216|1.23004|3.28908|3.20224|-1.0303|0.986076|2.01645|-3.17988|-3.34509|-3.78607|-1.6384|1.99032|-0.534098|2.12616|1.92401|0.0453372|-3.99752|-3.57421
-1.11497|3.27146|-1.19141|-3.46976|-3.92162|1.40278|-1.3349|0.589106|-0.899605|-1.73898|0.0476935|3.02289|0.148367|3.51518|1.88123|-3.35589|-3.77509|-0.0629961|1.49724|-2.94691|-0.496826
0.130809|1.22867|-1.69338|1.3486|0.939927|1.99996|-1.23497|-1.49558|0.740554|2.68225|-0.765508|0.321242|0.648347|-3.69594|-2.01708|-0.898769|0.18001|-1.31786|0.705042|-0.580732|-3.25421
-1.14729|-2.63785|-1.94407|-9.79916|-1.99064|0.0601107|-2.50088|-0.0810894|2.86911|0.0535889|5.08713|2.69738|-0.554884|3.01961|-0.247957|-3.95802|-4.87135|-1.61079|3.59058|-0.284621|6.07078
0.0722411|-2.31143|-0.761898|-2.83585|2.05406|1.29483|1.41044|-2.69172|-0.371741|0.697309|1.76509|-3.87571|1.73045|1.19569|-1.13448|0.649834|-0.289586|-1.68276|-0.888911|-3.13195|3.61094
-0.078077|2.45261|-2.65427|-6.33056|0.00984505|-1.29365|0.406344|-0.601109|0.100629|-3.37573|-0.526666|3.4391|3.50543|2.02643|2.03642|-0.924276|-0.764552|-1.20768|-3.12991|0.335878|0.559296
1.94124|-0.408064|6.68511|-0.525349|4.93292|-0.954947|0.790559|1.92694|1.03611|-4.4577|0.416897|-5.47312|-0.448042|-3.42483|-3.45542|1.88384|-1.84131|-0.965411|-2.43013|-0.986201|-0.207205
-0.297823|-1.95382|-0.0810787|-6.95117|-3.17027|0.254002|-2.00069|1.81851|-0.993842|5.06473|1.08464|2.85777|-0.724571|2.84797|-1.0332|-4.66818|1.20116|-0.429974|-0.33375|1.02935|-0.994439
-3.07471|1.29768|-1.05837|-5.98532|-7.47705|0.606374|2.78621|0.504681|0.00731784|0.930123|0.542912|0.549461|4.50804|2.0095|-3.66341|-3.64267|3.07651|2.02503|1.6471|0.588249|-5.01459
-0.327084|-0.89012|-0.100578|-3.62884|-0.336536|0.461686|-2.05488|-6.45525|-1.00254|2.86127|-0.0457586|0.582312|-1.63674|1.84988|3.71272|-4.05851|1.55972|0.985771|-1.2325|-0.0243038|0.854939
1.7975|-0.869867|-3.35546|4.83792|5.35051|2.94726|0.850939|-4.42422|6.6862|-5.09101|-4.03428|-1.48229|1.91277|-1.23507|-1.96154|2.54125|-0.3994|-0.247129|-8.65748|-1.0976|-1.1938
-1.03841|-1.1181|-2.10481|-1.03734|-2.46398|0.51605|1.89426|-0.0819349|-3.93123|0.169335|-2.20498|1.91412|-2.45427|2.57726|3.02587|-0.453877|-1.42097|2.08077|-5.56928|1.86182|1.26276
-0.724073|-1.89426|-2.81374|-4.3315|0.00882657|-1.22021|3.33697|-0.112222|0.318388|-0.228151|0.882208|-2.9873|-2.46931|-2.02048|3.27887|-0.513252|0.934549|0.851846|1.00264|0.124132|2.25632
-0.462152|-1.78556|-1.04352|-0.763959|3.17903|2.25451|-2.57104|0.272464|0.422589|0.743231|1.7595|-3.86299|0.675825|-3.65951|-1.68964|2.92326|0.391519|-4.22145|-0.280092|3.89991|-2.20914
0.278826|2.71016|0.813353|-2.2965|-2.8427|2.96963|0.58811|-2.34467|-1.03022|-3.79181|-0.253837|1.86127|-1.45671|-0.985068|2.05267|-5.29219|-0.355071|-1.7492|2.62735|-0.552154|2.92277
-0.101592|0.79329|-6.19115|-2.56744|-5.80282|-2.48215|-2.43627|-3.27602|1.39137|-0.102558|6.17706|-0.867073|-1.04699|-0.515908|3.82915|-1.29494|-1.22047|1.86389|-1.86439|2.33672|4.79834
-0.1721|-0.787633|-1.25763|-4.41595|-2.84739|-1.83788|-0.441367|3.83216|-0.975497|1.14625|-2.82797|1.25044|1.24755|-1.10707|-2.75544|-0.274706|3.16348|3.36324|-1.60671|1.77999|3.41881
0.54258|-4.96245|2.42101|-0.143587|2.0767|-0.259416|-3.4686|-1.5197|-0.691865|1.51553|-1.51951|-1.14531|2.05753|1.08647|1.1413|5.37697|-2.13585|3.01126|-1.38097|-4.77147|-3.68664
-0.408988|-3.0584|-1.4046|-2.37023|-1.07002|3.94453|-1.21202|-4.17505|-2.7593|-4.03791|2.1717|-0.552626|0.111521|2.69403|-2.55966|0.0736948|-0.140716|1.22076|3.18614|3.27777|-0.206843
0.261019|-5.25246|-2.95854|2.49224|1.13478|-0.610896|-3.49911|-1.554|-0.963527|0.447744|1.57836|0.0125714|0.552878|-0.599818|-1.07363|3.89675|-2.05592|-0.390233|3.58595|-1.80193|-0.733194
1.28242|0.646594|0.0392717|-0.47809|-0.0378165|-5.82109|-0.959981|-1.68375|1.23931|1.08168|-4.71479|-2.07134|0.87922|0.67094|-2.19879|0.0937566|4.60547|0.112034|1.95545|1.83975|-3.18377
0.953106|-1.66795|-0.662189|-2.23185|1.28042|5.50258|0.965614|-0.280204|-0.38565|0.482564|-0.0600897|1.76216|3.24431|-0.852374|1.38359|-4.07375|1.03215|-4.34518|-4.67241|-0.69122|-2.84869
2.55039|-0.694044|-1.66922|-1.76841|-0.39115|-7.21608|-1.7651|2.96413|0.01452|0.288608|1.61949|-3.98948|0.664428|-2.59807|-4.64784|1.41034|1.20359|3.57434|3.89061|0.322681|-0.327373
0.759837|1.01224|-0.887339|-0.827681|-1.81554|-1.64564|-2.18717|2.84675|1.06013|-3.54144|-3.15477|-1.53114|-1.47331|-5.46684|-2.69283|8.71199|4.57741|-0.61008|3.39549|-0.121604|-3.90657
-0.305597|-0.486354|0.753887|-5.13268|-5.5406|-0.58617|-2.89933|-2.96177|-2.01042|-5.80511|3.76187|6.56609|-1.92453|2.4898|5.59142|-6.09686|-2.79|-1.92142|2.69969|3.373|4.07956
1.75847|-0.452708|-0.346229|2.52108|-2.93842|1.41317|-3.73321|-0.39199|0.0147402|-1.97764|-3.01684|2.42484|0.214178|-1.49902|-0.904823|-0.699602|2.58729|-1.40101|-0.69097|2.95256|-1.28296
2.79436|-0.721799|-3.45892|1.493|0.919178|-4.38267|2.53558|3.61179|2.2004|0.509845|-2.67821|-3.98394|0.797779|-3.15633|-0.886469|-1.91154|-0.273845|0.30205|1.26176|2.83197|-3.86684
-0.40766|-0.204255|1.1851|2.44775|2.79083|-1.12139|0.000169769|-1.00228|0.93141|0.749025|3.15989|-2.16916|0.496489|-1.47878|0.507024|-5.72707|-0.686465|-1.15439|-0.781548|-0.510776|-1.41084
-0.271271|2.18823|-0.161385|-1.76041|-5.10391|2.21521|1.64529|3.18388|-3.88112|-0.209179|3.22209|1.73178|-2.73426|0.0400986|1.54206|-9.10957|-1.23604|-0.99649|0.692623|2.74064|-1.18647
4.69428|-6.61689|-4.57477|-2.80695|0.637865|-3.56325|-3.08096|-0.684108|1.61603|1.18738|0.827884|1.12789|-0.592003|1.61884|-5.25754|6.04924|1.9897|3.70391|0.448551|-1.54156|-1.33476
-2.90187|1.47245|-0.262051|-1.62715|2.78709|-0.742243|-2.65737|2.92728|-1.85823|-0.65332|-2.52305|0.726622|2.12925|1.50328|1.70413|-5.80565|2.9643|3.48933|2.30118|-3.97105|-5.95983
NUMBER_OF_CONNECTIONS: 35
1.62255|1.4127|-0.504863|-3.2124|-3.1711|1.62438|-1.02115|1.36087|-0.955947|-0.0130412|-0.0651733|-0.857291|-1.84624|2.92898|1.57102|-2.8126|-0.134317|-0.252106|2.1723|-0.731053|-1.99082
-1.46276|1.8053|0.0507817|2.63681|1.06897|-0.509335|3.42058|2.96469|-6.81707|-0.45055|1.41535|-1.1349|0.499209|0.504956|2.70255|-7.69084|0.213185|-1.42832|-3.63442|-0.170617|-2.58358
-0.768201|-1.30089|2.45988|-0.502683|3.47562|4.20141|0.384861|-3.77567|1.79025|-2.85381|-1.24426|-0.640276|0.350687|0.208933|-4.32024|5.45747|-7.9571|1.75537|1.00282|-3.18117|-1.43979
5.60664|-4.32949|-1.16759|1.55449|-3.18346|-0.108104|-1.42668|0.197114|-2.31846|3.14293|-1.97361|0.219745|0.213802|-0.305049|-1.04804|-0.25504|-1.69232|2.97885|0.807733|1.4538|-2.84596
-0.088671|3.78743|-2.3297|-1.58611|-3.47774|-0.173331|1.71477|-0.264545|-4.99192|-1.74805|2.59823|-5.73351|1.43429|-1.23536|1.25274|0.0498374|3.06702|-0.949663|2.47975|0.895688|-2.32524
-1.05811|0.839662|4.07779|2.36285|2.68321|-2.96211|3.44043|3.9323|-1.90688|-2.32828|-5.3593|-5.62381|5.01733|-1.24092|-2.72621|-1.93748|2.10106|1.31747|2.23402|-4.26109|-7.3255
1.32568|-0.62126|-1.44207|-2.62581|-0.687721|1.06512|-2.6493|-1.11073|2.38697|3.04731|1.27861|-1.35002|0.588441|-1.03554|0.0119962|-1.45263|-2.54395|-0.377551|0.253909|2.48152|-2.32183
-4.12246|-4.0671|-2.31687|1.75515|-0.0862457|4.17957|1.44866|-2.06513|-0.384016|2.92453|-3.14269|-2.34662|-1.47936|-1.11789|-0.636063|1.4272|1.25047|-1.86382|3.80574|1.93611|-3.21904
-2.44802|2.18198|-1.0904|-0.446128|1.35293|0.236703|-2.46142|1.79112|0.287104|-1.15354|0.13336|-0.798352|-0.838522|-0.68754|-1.63319|2.79239|1.49448|-3.84253|0.681922|-3.23797|2.24034
-4.41915|-0.495069|-0.296873|0.25792|0.196316|1.97939|-0.902633|2.45953|-0.151938|0.439494|-3.1618|1.97448|-0.513782|0.0272817|-1.54765|-2.10661|-1.07881|-0.19211|1.20364|0.486926|-0.0247396
-2.42387|-5.63543|-2.15295|1.06815|-4.23993|-0.597522|-0.517048|2.74589|-4.28953|-1.95542|2.38998|-1.50799|3.22031|-4.33618|3.34278|4.33506|5.38291|2.16607|3.10523|-5.02825|-1.09781
-0.499297|-4.33746|2.57171|3.21629|-2.27661|-2.7816|5.68395|-3.54302|-3.43049|2.9617|1.04833|-0.205504|-0.980201|2.46828|-0.0614803|-1.97875|-2.4572|0.972698|-2.07431|-0.162091|-1.50653
-0.311502|0.131084|2.89135|-0.0669085|-5.22643|-5.25119|1.09669|3.01926|1.27477|0.894405|-1.99156|-2.94505|0.834612|0.839823|-2.61235|-0.757558|-1.28105|0.770866|3.10821|1.37766|-4.67954
0.986496|-0.333822|-2.11451|-3.2626|-4.23968|1.19168|-0.0331585|-3.66776|-0.456411|-0.21254|1.44922|-1.23093|-1.28315|1.71482|1.88805|-0.192676|-2.49751|-1.72141|0.0696264|-1.53926|6.17585
0.143859|3.69161|-2.8484|1.77289|3.25128|-5.25975|0.596115|0.0433291|0.312485|-0.755268|-0.946021|1.61197|0.44745|3.21141|-0.898079|2.61217|-4.49025|-7.9041|-1.40722|-2.54368|2.27415
1.04395|-3.08289|2.48559|-2.69347|0.719307|1.78843|-1.65706|-4.76576|-1.32344|-4.11953|3.7982|4.07209|-2.47387|0.651663|4.69082|-0.0686507|-1.10787|-5.99327|-3.30692|0.820697|2.00674
-0.138757|1.59348|1.25287|-0.191637|-0.337712|-1.49191|-3.24415|-2.97522|0.331794|-1.98834|0.489542|0.879104|-3.64996|0.796861|2.32073|-0.394234|-1.62265|1.3971|3.01828|-1.52712|-0.675051
-3.47417|-2.98854|-1.80411|-2.74168|0.824201|0.319349|-0.376254|-7.06775|-2.71275|-3.59716|1.54707|2.44505|-0.0420234|1.10159|-2.73613|3.78003|3.6311|1.8813|1.90831|4.10565|-0.122674
-3.75048|-2.27223|-0.681306|0.142695|-3.68656|-0.494387|1.3833|-1.98935|-3.53629|3.36823|0.00751208|2.6549|-0.821435|-1.52169|1.49525|1.23043|-2.49954|0.00474461|-1.03721|0.547803|5.11112
3.11896|-1.19403|-3.08471|1.2787|-0.259557|-6.33239|-0.812431|-4.95693|1.03635|-5.22481|4.27338|0.540129|-3.07088|1.84542|-1.05998|3.30207|-3.5902|1.93929|-0.0391341|1.14796|2.93205
0.994698|-2.68331|-0.769497|1.39649|5.19241|-1.40085|0.370459|-0.65046|-0.111796|2.1503|2.99798|-0.5117|-0.239459|-0.400304|-4.55004|-0.0353173|-1.55214|-1.08322|-2.93204|0.222027|1.44186
-2.24485|-0.486187|-4.27026|1.18057|0.496394|3.90369|-3.62137|-1.81823|-0.195751|1.91401|1.84641|-2.21421|4.27846|-0.330765|-1.71007|1.01879|-0.971034|-0.469129|-1.37929|0.795114|-1.97583
-1.66042|-0.625152|-2.69833|-1.06588|1.58855|1.3777|1.9089|-2.04018|-0.862241|3.16995|1.2964|-0.247793|-0.269521|-2.07406|-4.27392|2.55391|1.04627|-0.361609|-1.37436|-1.86702|-0.809948
-1.25085|-1.33|2.16974|3.04844|0.0332795|2.29534|1.05769|-3.91675|3.0467|-1.78047|-4.10687|-4.46245|1.4216|-2.84334|-3.38986|-0.560853|3.25325|2.78282|0.430468|-0.374158|-2.76788
3.0839|-4.63404|-2.44026|3.76783|-0.431868|-2.65689|-0.625298|-8.45983|1.55973|0.344573|-4.09552|-0.0355293|-1.23835|0.524163|0.755536|1.02195|9.74844e-006|4.49606|-1.70051|2.03179|2.18247
-5.16579|-2.51686|-3.60002|-0.240949|1.57121|-2.95406|1.61456|-0.792566|4.61446|-2.42369|-3.5144|1.65692|1.90094|-3.04872|-3.40217|5.86628|1.67081|3.36369|1.17332|0.544987|-2.95285
-1.59242|-2.30148|4.17636|0.597873|3.2954|-2.55738|2.46197|-0.766804|1.72406|3.67714|-3.33511|-5.38804|-5.10901|-4.20656|-0.24789|4.77025|0.287968|-0.308231|2.05427|-2.02038|-1.74083
1.3604|1.9607|0.803953|3.18382|1.55874|0.932527|2.10414|-0.744484|-2.57254|-4.00754|-0.452925|-1.89091|-0.366694|-4.88892|-0.0260475|-1.77134|3.30507|-1.37582|0.599646|-1.82238|-3.51066
-3.15569|3.70814|0.342115|1.51573|1.50135|-3.16645|1.31496|-0.732492|1.87418|-1.15277|0.376407|-0.641681|-0.239013|-2.61893|-2.32034|-1.21411|-0.40958|-1.65208|-1.2636|0.0837508|-1.17043
-0.880138|-1.38995|0.268737|1.74075|-0.376846|-1.2842|-2.36018|-1.21725|-1.44244|0.0276799|-0.106897|1.41793|-0.164978|-3.60771|1.67117|-0.0850434|-0.485137|0.650623|1.85515|-1.2266|1.36396
-0.917983|-0.449373|4.51495|1.11614|0.815766|-1.57545|3.89833|-1.22241|2.41517|0.0420368|2.0302|2.29808|-3.10355|0.236408|-2.61308|-4.86073|-1.89522|-1.28282|-5.88687|2.05558|-1.91044
1.26748|3.32145|2.17204|-0.762347|-1.65571|0.176805|-0.644831|2.57046|2.26169|-0.838842|-1.45829|0.955003|-1.46872|-3.30767|-1.56884|-1.35603|1.29828|-0.19878|0.584605|-0.219303|-5.49751
-2.23485|1.70345|-2.52862|-5.1144|-6.08141|-0.261967|0.417824|1.47068|-1.92537|-0.744265|3.16548|6.18511|-1.77478|3.96489|4.08697|-5.54253|-5.47132|-2.23422|2.56168|0.707846|2.10963
4.92718|-2.17798|-2.7342|-0.562559|0.488322|-3.23784|4.22894|0.507886|-0.954869|1.01274|-1.27819|-0.428554|-2.10726|-2.05786|-1.25331|3.42603|4.64937|-3.19655|-4.60549|0.362868|-1.37963
6.18788|2.61817|-2.29887|-3.58451|-4.96394|-0.35196|-1.79388|-1.47035|0.855852|1.29006|5.19589|4.68534|-1.54263|-0.460061|-4.54509|-8.73242|0.674862|-1.82729|-0.8515|3.56414|0.700545
NUMBER_OF_CONNECTIONS: 35
1.02213|-3.12613|0.229635|-1.93059|-1.11026|0.138769|-1.66425|-4.53589|-0.0933452|-1.9291|-4.8198|-1.24699|1.97098|2.8534|5.86009|2.66299|-4.43468|0.409409|1.06254|2.75435|1.05913
0.830694|3.28844|-1.41101|-1.92306|-6.17483|0.62981|-0.16586|-3.92607|-4.33481|1.75754|2.88387|5.86212|-2.80383|0.278627|6.7049|-5.30094|-3.4142|-2.21436|2.92356|-2.44184|0.161299
2.32137|0.216289|-9.00311|1.82697|2.21632|-1.3439|2.3475|5.58073|2.8775|1.47779|-2.18494|-1.25545|0.516799|-0.606094|-3.69003|0.359433|-0.0971524|0.31534|-3.4318|-6.10333|0.776414
3.74392|-1.42692|-0.795748|4.42872|0.038983|-4.03757|-6.70312|-6.42509|-0.223807|4.26882|-1.89609|-3.92463|-1.28209|2.42495|0.859984|3.33421|-1.45443|2.45808|1.93396|2.42979|-2.16861
-0.744141|-1.29224|2.08619|0.842818|2.78626|3.53736|0.882259|-2.49849|-2.10927|-5.21688|-2.34547|0.331648|4.06817|-3.04344|-1.88446|-0.684705|0.175343|2.31633|1.46295|-2.55452|-3.50532
3.69098|1.7741|1.30427|1.00907|-1.63411|1.17155|0.63739|0.570735|-5.78178|2.92879|-2.69374|-2.14374|2.36462|-0.848451|-0.875089|-7.38935|0.764012|0.277065|-1.61387|0.391487|-3.00431
-2.20813|1.32201|0.0572115|-2.04858|-1.78144|-2.11177|-0.344645|-3.94174|-2.54946|-3.71183|4.68013|4.26295|0.601578|0.72474|3.12725|0.404525|-2.69633|-0.05596|0.366626|-1.41371|1.68824
2.28921|-0.571776|-5.51233|-0.683697|1.71388|1.72445|-1.32502|1.67489|-1.5131|-8.17918|4.46662|-0.217411|-3.13054|-1.95668|1.83411|-2.06013|-4.06054|0.583427|5.76258|0.135709|1.05747
0.667494|1.7179|1.31286|0.369065|-2.10618|5.83006|-3.47554|-0.471706|-3.08708|-0.117173|-1.2612|-0.527919|0.462879|-0.0804395|-2.5765|-1.17929|0.946982|-3.38186|2.95908|-2.41725|0.938225
-4.67091|0.0829751|2.25063|-2.91533|-0.341504|-1.98157|-2.76788|1.87362|1.79661|1.90646|-1.56476|0.977507|-2.12327|-0.423036|1.17777|-0.395495|-1.876|0.348284|0.580744|1.93943|0.239943
1.03696|0.82567|-0.967188|-1.71801|1.0395|-0.516835|0.161023|2.48324|-1.89022|3.44753|-2.04152|-3.82386|-2.57478|5.98395|-2.24499|-0.531598|1.75303|-1.0945|-1.34286|-2.50762|-1.4478
-1.63468|-1.0197|0.297371|2.94039|-0.169421|-3.37795|-1.6973|2.57027|0.772891|-0.512063|-4.29707|-0.681275|2.12012|2.70216|0.544051|-0.816435|0.440077|0.395492|1.27728|-2.33254|-4.93822
0.436947|0.0100966|0.729495|-0.297915|-5.23766|-4.95147|-1.55973|1.92195|3.82351|-0.796866|-5.3681|3.31916|-3.19371|0.809324|2.14228|1.05572|0.5248|0.461559|-1.44868|4.3372|-5.76958
-2.09293|0.353741|1.17222|1.16282|1.03389|-2.42052|-1.85007|-8.26695|-0.389987|-1.09193|3.82329|-2.42561|-0.431173|0.9607|-1.91599|-0.478521|-0.45309|0.768923|1.70646|-0.0794829|1.77693
4.21371|-0.120841|-3.4036|-0.932679|0.133993|-0.378062|0.889591|-4.43749|0.0516852|-1.92376|-0.206938|-1.27493|-0.969513|-3.3674|-1.53973|2.76277|-0.34192|1.82673|-4.07054|5.97363|-0.173715
-1.94175|0.503756|-1.49818|-5.87179|-0.423158|-3.09699|1.64002|-3.53464|-2.08295|6.33424|-0.346456|0.831626|-2.43805|1.29888|-1.09276|-0.551164|-0.608621|2.60523|2.2167|0.559264|-0.921422
-2.9148|0.900714|0.949385|-1.02707|-2.34493|4.76925|-4.07063|2.31405|2.33692|-1.98148|-1.36774|1.54853|-0.617518|1.44314|0.740941|-2.91733|0.217876|1.12417|-5.72761|0.96991|-0.667321
-1.55603|-0.103528|-0.385477|0.226408|4.75968|-0.514161|0.533154|-1.64852|1.59831|-1.4229|-4.86234|-0.248468|-3.54267|1.71813|-1.4454|3.46891|-0.362211|-2.01888|1.14746|-0.567009|-0.859261
-0.305263|-2.1184|-1.36508|-4.20629|-4.51545|4.37396|-1.66132|0.216836|-0.723567|-3.09355|2.67943|5.52734|-1.42523|2.68236|2.23918|-1.14243|-1.76566|-2.68822|-2.28894|0.472275|2.74426
-1.10355|-2.87528|1.36392|3.84598|-3.15753|-0.615794|-0.582568|-3.04506|1.79242|4.89836|-0.834129|-0.211131|0.115501|0.314539|-2.12349|-0.200544|-3.15773|2.81456|-1.90492|-4.31553|0.758633
2.95476|3.60874|-1.87348|2.87544|0.533451|-1.93155|-3.48045|-0.914309|-1.36451|-2.11603|-0.0268487|0.348585|2.75388|-6.91546|-0.148822|2.98318|4.99599|0.808912|-2.53356|-2.28512|-0.430702
-0.814883|-4.16263|1.69089|1.6838|-0.118775|0.179693|-2.27689|0.0562441|1.59109|1.88419|-1.18974|1.39792|-3.76656|-0.294494|2.47214|1.34798|2.73846|0.872749|-0.42561|-5.58594|-3.61697
0.881164|-1.38876|3.84542|-2.16479|-4.12702|0.309821|-1.84099|-1.17614|-2.30771|1.78901|-4.52756|-2.58536|1.82111|0.670385|-3.45995|3.03357|4.7337|-4.03931|-0.542993|1.6567|1.943
-1.2429|-0.725911|-3.98084|3.17941|1.0443|-3.69186|-0.695578|2.83369|3.52008|-6.88584|-0.91084|-0.612996|1.82328|-5.45723|0.292425|-0.0593208|3.9857|1.14379|1.47499|-0.269349|-2.18877
-2.26151|-2.38724|0.104517|-0.858994|-1.33692|-3.11707|4.01307|0.0699196|0.204572|3.58531|-1.94211|0.531674|3.60461|2.70792|-1.20436|-3.46136|-0.131756|-1.00938|-0.60536|-1.94038|-1.26022
1.21515|-2.06637|-1.26336|-0.612254|0.341205|4.17644|0.72011|5.06539|1.45032|-4.49854|-2.49855|1.3463|-0.294631|-6.52574|0.11065|-4.87975|1.08428|-0.557259|2.31333|0.648062|-1.67217
0.870756|1.44218|-0.912367|1.63395|-2.74479|0.197565|-5.49844|1.16233|1.61382|-3.8144|0.115082|-3.33713|-1.45027|-3.73072|-3.57945|1.60085|3.65662|1.0925|3.15728|3.31913|-1.01603
-0.790891|-0.43773|-0.318972|2.48506|2.58437|1.80432|3.60976|-4.59616|0.367965|-2.77931|-1.64324|-4.85403|-0.44627|-1.99267|4.08144|-0.409442|1.98515|-4.24548|-0.496463|1.24701|-2.62057
-4.58221|1.01039|-3.21602|1.32972|0.959087|-4.88116|1.34182|3.42603|-0.271459|-0.0802087|-0.000673677|1.15682|2.23672|0.874601|1.65533|-3.17914|0.828299|-1.32699|-0.181536|-4.14476|-2.05979
1.08033|-2.17794|-0.515366|0.493139|-1.38136|1.0523|-0.492943|-0.684031|0.0055793|3.63495|-0.689728|-3.13681|1.05881|-1.40035|0.994236|0.913118|1.32838|-0.250341|-0.0598175|-0.136937|-5.09974
-0.527448|0.202805|1.99206|-2.91|-0.833003|1.31823|-0.986777|-3.39546|3.16009|-2.12148|0.565364|1.48752|1.20667|-3.32599|-1.90178|1.432|-3.27868|1.13642|-2.41864|2.33489|0.543592
-3.81926|2.9949|0.44954|-1.54842|-3.36748|3.62161|2.52673|1.81296|1.58108|0.319678|-0.478268|-0.994732|-3.90761|-1.0569|-3.73788|0.377|-1.07488|-0.323606|-0.343199|0.624327|1.85202
-4.84555|3.13783|2.17309|1.2971|0.298386|-0.788773|3.40842|3.03142|-1.22936|-3.37414|-2.23358|-0.675381|2.93139|-0.538462|-0.61625|-2.7851|0.824219|-0.00422325|-0.628588|-2.51944|-4.4217
0.14869|-0.465297|1.92415|-1.70607|3.1966|-0.714641|-0.1225|1.71973|-5.61479|-3.86034|-1.76835|-0.837534|1.74205|-3.19846|1.88526|5.51445|-0.122769|-3.49191|0.823775|-3.36359|2.0454
1.28594|-0.415968|2.06856|-5.29762|-4.06204|0.243165|-1.20073|0.526741|-2.00576|-0.285944|2.87984|2.5015|1.15903|-0.335958|0.0253893|-6.71961|-2.72383|-1.81777|1.83565|1.65898|4.01904
NUMBER_OF_CONNECTIONS: 35
0.681241|-1.44998|1.93815|-4.08339|-0.317748|3.84925|-1.2322|-1.7821|-0.257574|-4.46513|0.780705|0.820165|-0.359016|-3.17753|-1.21261|3.19919|-1.9661|0.0480583|2.85587|1.82394|-0.496362
-4.45145|1.35628|1.19098|0.925443|1.6878|-2.69638|1.21608|1.87233|-1.06466|-2.28617|1.15105|0.0511626|2.65482|3.73217|-0.340923|-3.95571|-3.18642|-3.89478|2.24502|-2.28299|-2.4534
1.44081|-2.20784|1.96016|2.77066|3.64151|4.54497|-2.73479|-1.44779|-0.231758|4.7663|-4.99302|0.563151|-3.25106|2.56092|3.31461|-5.49017|-1.1298|-2.33182|-3.87392|-4.62847|-0.0202067
0.158674|-3.09476|-3.386|-0.564658|1.30313|-1.04585|-1.78676|-0.391738|6.40245|-2.31943|-2.79102|0.277634|-0.0941087|5.12325|-4.76679|6.21972|-0.284518|0.68578|-1.87427|-1.46001|-0.80681
1.70275|0.0323998|-0.102224|0.10982|-0.744013|-1.74362|-1.01|-2.88596|1.10022|1.22307|-2.1528|1.09782|-1.23195|0.0887683|-2.14717|0.198857|1.63308|-1.68852|1.72486|-2.67083|0.248297
1.34367|3.13874|-1.77367|-2.19832|-9.25496|2.32212|-3.75775|-3.54185|-3.90896|2.1243|4.90634|4.47915|1.093|4.03202|1.44296|-3.77687|-2.77644|-7.56752|1.17293|-0.081994|3.56194
0.545874|1.91092|-0.108431|0.122697|-2.50657|3.2826|-0.918083|0.379463|0.571566|0.0782488|-4.03582|0.93099|1.02322|-3.55477|-3.02065|-0.847948|3.02491|1.1821|1.26229|-0.936262|-4.06793
0.629847|-1.17385|-0.454785|2.0564|-1.65594|-0.770669|0.410236|0.72873|2.47074|-2.04621|-1.48226|-3.68447|-2.83784|0.29602|-3.29612|3.11454|2.50983|-0.985279|0.733898|-1.8663|-0.74251
-2.62384|1.82139|1.34038|-1.24067|-2.25289|3.77537|-2.01511|-0.148514|-0.208711|-0.0624474|1.86508|1.0346|-4.86352|0.967932|-0.249089|0.256719|-0.0457308|-0.70999|-5.87438|3.97346|-0.385812
-1.51532|-0.439126|2.77603|1.24863|-3.2093|1.49442|1.22384|0.92436|1.2931|-1.93592|2.40887|0.608918|-0.952878|-0.599905|-3.17466|-0.744173|0.155678|0.413837|-4.39094|-3.91352|2.64013
3.03126|-3.66186|-4.45981|0.22144|-3.507|0.210698|3.37668|-1.97207|-5.45423|-0.640753|2.96731|-5.77824|0.902425|1.38275|2.71153|4.20356|-2.78436|-0.478388|1.93506|-1.36543|3.13441
-1.4501|-3.53336|2.63023|1.78038|-4.00063|2.22015|-1.29354|-0.50184|0.546789|1.82644|-2.39021|2.73706|-5.38149|1.25418|-0.386074|-0.900841|0.714986|0.470917|1.92812|0.715041|-4.62819
-2.12814|0.30383|-1.73689|-2.62545|0.959162|-3.3494|-1.14495|1.8414|3.03904|-0.497097|1.32325|4.11639|-8.76937|0.54754|1.97377|3.42802|-1.98214|1.17943|-3.74755|-1.19507|-0.39155
-1.98298|-1.17102|-3.14758|0.9998|-0.806579|-0.21235|-0.67033|-1.24877|-1.37643|2.62235|0.126354|0.139533|-3.88441|4.09607|-0.788288|2.81079|1.02853|-2.65607|-2.02357|-1.12819|-0.0026653
1.61182|-0.0937076|-1.54695|-3.5912|-0.884419|-6.11745|-0.00594516|1.43936|-0.91786|3.33894|-1.37288|0.698261|-2.31546|2.15822|-1.4224|3.87639|-1.59081|0.504078|1.30795|-3.72126|1.31155
0.12636|-2.53234|-3.20442|1.21919|0.225406|0.144759|-0.449173|-3.71483|0.306789|1.14954|2.64559|-4.50589|-1.97569|4.29924|-1.06324|0.763201|-1.41647|-1.57583|1.42293|-3.24771|2.97397
2.7534|2.77277|1.18701|-4.25231|1.54755|-0.461133|-1.96363|1.12859|-4.12844|-2.33409|-1.36929|4.17949|0.78541|-2.34841|3.36834|-6.22958|-0.964392|3.14052|-4.14113|-0.120757|0.962804
2.82167|-3.34471|-0.665145|-0.358046|-2.29848|0.212098|-1.19257|-2.16383|-0.590647|3.2441|-0.153842|-6.11533|-1.23581|4.62537|-0.582364|-0.0960969|0.686832|-1.02064|1.98782|-1.57802|1.79747
0.591415|0.65233|-3.7263|-1.69085|-0.331245|2.83255|-0.391759|-0.00569504|-5.81011|-0.507717|2.9834|0.619306|-0.905524|-0.412555|0.838325|2.0246|-2.45812|1.63631|-1.13572|1.1192|-2.14457
-2.14058|-4.95424|2.34344|1.56229|2.08953|0.687672|-3.86571|-2.09055|2.41678|0.842292|-5.40325|1.20714|2.45366|-3.70021|-0.685557|-0.0883048|2.20553|0.968463|-3.09251|0.627998|0.230988
-0.338028|1.2453|-1.89375|1.9816|-0.715762|1.13995|2.26158|-2.91948|0.215086|2.18802|-0.225734|4.06425|-3.77807|-1.53272|0.247099|-1.1984|0.119373|0.850064|-1.23883|-4.12124|1.68194
1.13708|-1.55326|-0.77583|-0.901444|-2.91694|-1.72642|-4.91862|0.911614|-1.24535|2.82161|-1.1467|1.51353|2.7568|0.334789|-0.111257|-1.51864|1.70115|-1.00145|-0.0481999|1.95636|-1.61499
-0.639466|-0.370105|-1.92363|-0.102151|1.94725|-1.12671|-4.879|-1.27213|1.76154|0.61821|1.0574|-0.176299|-3.0779|-0.744959|-2.48175|4.96308|2.15662|1.58647|-5.53001|0.290132|0.60854
3.33043|-0.115067|-1.09398|2.59569|-1.43232|-0.230821|3.59898|2.62207|0.87185|-4.03948|-1.05241|-3.28281|-1.28088|-3.97384|-3.49648|1.49853|-1.39701|1.88155|2.28412|-2.42422|-2.32561
-0.744024|2.53431|0.179505|-3.70243|1.36016|-5.57179|0.812823|-1.04076|-3.19408|-3.6048|0.736271|1.91033|0.731814|-0.309813|-0.227689|4.26005|-2.20744|0.665162|-0.899614|1.49367|0.0365695
3.80106|0.506123|2.18095|-5.0694|-0.948417|4.46764|0.505489|2.97059|-4.63352|-0.213831|0.353014|-0.751044|1.89954|-3.88771|2.14966|-2.81912|4.09164|-1.96028|-1.15262|-2.91759|-4.68463
-1.28031|-2.8845|0.447675|1.23616|-3.00982|2.36167|0.141282|-0.322599|-0.596683|3.26758|1.11814|3.1194|-2.48018|-1.34576|-4.28647|-0.335257|1.71604|2.00212|-0.465831|-4.45556|-0.411892
-1.72385|3.28209|-0.0692547|-3.00929|2.03767|-6.23396|3.94606|-2.48373|0.829869|-3.60816|-0.458968|-4.60927|-0.39063|0.0836022|-1.05079|3.28569|0.76792|-2.13761|4.05435|-0.0811667|-0.173442
0.626058|-1.61205|-3.55387|-3.20503|-4.82704|-0.287898|-0.107103|1.33741|-0.493972|0.00088151|1.40516|0.0109678|-1.81921|-1.34917|2.93338|-0.26219|-0.836504|0.737832|2.73452|0.629141|-1.0846
0.189712|-1.45191|-2.06292|-3.43557|-0.16919|-0.532052|0.54819|0.0617025|-0.278853|1.27561|0.0917824|0.359178|-0.07118|-1.32547|-0.942021|1.33854|-0.196088|1.39836|-2.7504|1.02542|1.68594
1.01626|-1.8686|-2.53439|4.83436|2.36962|-2.3797|2.0095|-2.68068|-0.261118|-2.97227|1.63251|-2.76967|-2.90721|-1.33176|-0.685237|-0.504735|-0.634941|-0.985923|0.718736|1.32079|2.22419
-2.46835|1.32807|0.176783|1.56309|-0.358056|1.05198|-3.83925|2.26041|1.91029|0.201316|-3.17529|-3.01903|-2.44367|-0.135652|0.31565|0.910644|1.019|0.653921|-1.6983|2.18218|-0.968799
2.23848|1.80085|-0.862727|3.27217|0.166571|-3.74609|1.26792|2.48758|-1.90158|1.32473|-4.2069|-2.01833|4.47099|-6.79949|0.013418|-3.83082|0.830689|-0.701395|1.87683|-0.0609476|-3.15611
-1.87897|-2.96274|-3.68419|-2.55045|0.513626|-2.20217|1.3067|0.874969|-1.26942|-2.70854|2.38926|-0.711526|0.0225465|-1.04491|0.414613|2.79147|-2.63278|5.21114|0.0382299|2.51639|-0.755533
-2.64684|1.08856|1.29643|-0.785923|-1.32648|2.7513|1.94789|4.93796|-1.7011|3.78213|-0.484008|-6.44198|1.30964|-1.15942|-4.08844|0.763954|0.997475|-1.16387|-0.1734|-4.70872|-0.974046
NUMBER_OF_CONNECTIONS: 35
0.643799|-1.27132|-0.165216|-3.99354|-0.781209|-3.2245|2.48453|0.372675|0.500608|-2.47017|0.331735|1.49972|0.0469676|1.44169|-2.21538|0.415517|-1.87815|2.63339|-1.32036|0.662335|1.31251
-2.61791|1.94448|2.20921|1.03315|-0.813081|-0.223465|3.07788|1.54183|-1.2265|0.164079|-1.14888|-1.42552|3.97084|1.61567|-0.473137|-7.57929|0.178571|-1.22841|-1.14811|-0.682144|-6.04221
0.669468|0.464151|2.95389|-1.22364|0.197598|-0.152347|-1.29308|2.07496|-2.31383|0.36261|2.54765|-3.39245|-3.16455|-2.25742|3.09805|1.78831|-1.68396|-1.99776|-1.10337|-0.112228|-2.23841
-0.678912|-2.45996|1.98272|-2.32768|-1.55533|1.17468|0.527786|-8.74597|-2.44632|-0.267345|0.52448|0.232245|-1.02615|3.03326|-1.60272|2.89914|-1.4149|2.20027|-1.08721|5.717|0.71286
-3.13721|-0.0949066|1.16693|-3.90574|3.01188|-2.17002|3.06322|-2.02255|-4.06913|1.9943|-1.2521|-0.586818|2.05402|-0.0982797|-1.85526|2.99319|-3.54954|2.94133|-0.510345|-3.20465|1.57162
-3.10085|2.13744|1.94267|0.746815|-2.12268|-0.498859|2.15065|0.259911|1.13954|-0.337432|1.71002|-0.541429|-2.36228|3.66745|1.1207|-4.06586|-4.28097|-4.40141|-1.82783|-0.440802|0.42498
-0.138114|-0.115743|-4.92598|1.39221|-0.00815307|2.88635|-6.41646|1.48423|1.31274|1.14222|-2.69394|0.0665166|1.43799|4.95141|-0.222353|-0.121487|-0.468241|1.21277|-0.737489|-5.85302|0.137337
-0.492982|-3.92696|-2.84172|-1.44529|0.582072|-0.435299|0.313601|-3.95274|-1.34661|1.59336|-0.506877|-1.71023|0.714884|1.20925|-0.236674|3.74541|-0.0763813|0.817169|-0.261592|-0.0131426|-0.181431
2.93557|2.91901|-0.775296|-4.83195|-5.37009|0.578395|-0.790656|2.0174|-2.1825|1.00638|-0.654882|2.46382|2.12844|0.948751|1.07463|-3.42174|-0.991772|0.167937|-2.39892|0.858852|-1.24597
2.6708|-0.375071|-0.257479|1.21614|1.40402|-0.547064|0.0547715|-2.48846|-1.56217|-5.06012|2.87107|2.1795|0.0275406|-0.114977|-0.974456|-0.216406|1.93211|0.384543|-1.52043|-4.03795|-1.48698
-1.14446|3.35133|-2.58441|2.10296|-1.28446|-0.428859|3.76719|0.460837|2.93892|-3.42243|-1.80909|-1.12457|-0.520859|-0.313926|-1.0067|-1.06724|1.77251|-0.161694|-3.24057|-2.21309|0.00540095
1.33145|0.610932|2.87106|-0.959557|-1.07139|-1.53123|-0.563665|-0.770533|0.694193|-2.85372|3.75183|2.40989|0.431975|0.720523|2.03103|-3.2514|-5.70606|0.540334|-2.8044|1.90094|-4.99786
-1.10203|-2.0722|-0.994918|-1.71317|-0.317931|1.53643|0.866929|1.26976|-1.69102|-0.256794|-1.79685|0.942836|-1.23264|-3.06182|-1.31488|3.69558|-1.44938|2.2445|2.71174|-5.8228|0.647387
-0.0504438|-2.07798|3.07376|-2.42436|2.25757|1.37548|-2.84249|-0.43029|3.40974|-0.676276|-2.07594|-0.0649078|2.00879|-0.594327|-7.58261|-3.2199|0.459307|0.340252|-1.83865|-0.0622323|1.7419
-1.63514|2.56667|-0.721776|-1.22248|-3.17072|2.79286|4.19053|1.00196|-1.6556|-0.0626951|0.948162|-0.776158|-0.251203|-0.686651|-1.69024|-3.29474|-3.24728|2.79648|-0.852957|0.818788|-3.00159
0.484344|-0.599483|-0.482523|2.8846|-0.146528|1.71484|-0.217962|-1.90682|-3.04871|-4.4691|1.15079|-1.7844|-1.44508|1.84057|-0.682386|2.70101|1.38812|-2.35471|2.47061|-0.151922|-5.78649
1.12089|3.1845|2.19505|-2.56918|-1.63979|0.0216126|0.240703|-0.196327|-3.18829|-0.825908|0.794588|-2.07563|-0.399066|2.99614|0.488667|-3.83836|-1.05197|-2.69936|0.960899|-0.617128|0.621228
0.778731|1.28072|-2.98263|0.267756|1.15768|1.57292|4.07435|-3.07581|-0.131145|-1.13948|-3.48887|-1.00683|-1.1139|-3.92541|-2.23551|2.71118|-0.53015|0.842448|-1.39085|2.60966|-0.488549
0.0928292|1.19396|-0.7567|2.24378|1.914|-0.321544|-2.84373|-0.839981|-2.83118|-1.89232|3.38745|-2.23359|-2.06245|-1.07201|2.08864|-2.10257|-2.8848|-0.0746867|1.51055|0.710186|0.681919
-0.405824|-3.23051|-1.19444|2.46723|2.8019|-1.62098|-0.175185|-4.6408|1.86624|0.927133|0.630785|-1.53853|0.465202|-3.25533|-3.92249|3.04146|1.09965|2.27525|-4.08569|2.91563|-2.67487
1.40998|0.322518|-1.5506|-4.26598|-1.08735|4.77777|-0.765863|-0.557936|-1.55744|1.77151|-0.0628046|5.21981|-1.35242|-0.622896|2.27439|-1.45384|1.59537|-0.24952|-3.0937|-2.28015|-0.785671
2.5405|-3.83649|0.0594864|0.429137|-0.836179|0.813854|-0.946869|-0.842573|0.928106|-2.43458|-2.99125|-3.59903|-0.316126|2.77582|3.54487|1.2732|-0.909311|-3.08598|1.21645|0.708557|-1.01865
-0.160174|-0.327455|2.57821|-3.68453|-2.42228|-1.04591|2.50891|2.34036|2.61577|1.13025|-2.80006|-0.337978|1.76938|-1.81468|-3.54111|1.98403|0.0239289|1.6539|-5.17616|0.202003|-2.87643
-0.224885|-2.40814|3.42852|2.90545|-1.68851|1.51931|-3.22747|3.99206|2.71628|-5.67129|1.00029|-0.720571|-0.0516916|-0.844361|-3.16192|-5.59505|2.61863|-0.337474|-1.82649|1.65777|-1.49705
1.99588|1.08485|0.341112|-0.53512|-1.32743|0.0836123|1.84037|-2.66882|0.889397|-2.88909|-4.52373|-4.57979|1.54641|-3.14621|-0.042079|0.892963|1.67135|-1.79445|2.07894|3.57047|-1.08231
-1.56148|-1.88716|1.85065|0.358017|-2.0328|0.127225|0.711146|-0.818427|-0.560981|-0.292008|-3.09997|1.44505|2.62565|-2.1455|-0.677097|-5.29821|2.85967|1.74792|0.412569|1.9781|-2.11539
-2.10035|-3.32894|4.19283|2.51495|-4.55402|3.27192|-4.22542|1.17113|-0.951653|-0.247272|1.10674|0.493369|1.15281|-2.07725|-1.76782|2.99987|-0.405244|-5.58784|1.05245|-3.84819|4.73993
-1.59125|-1.43888|-4.7737|4.63867|-1.07111|-0.84078|3.04767|0.55068|-0.197162|-0.287837|-2.27018|-1.1104|-4.69382|0.174816|-2.02319|3.03632|1.76733|0.89516|2.25325|-1.88878|-1.86669
-2.81173|-1.39818|-3.57784|-1.97125|1.36891|-1.7545|-7.21596|0.88268|0.357975|-1.39021|0.376121|3.38658|0.838745|2.93824|-3.26607|-1.08868|-3.4422|-1.31179|4.28932|4.98647|0.692849
0.040944|-1.95463|0.60195|2.37927|-0.630902|-0.974818|0.0218231|0.366215|-0.549553|-1.01407|0.440518|-0.040489|-3.42918|-4.0269|1.4883|0.151291|0.575392|0.926904|-1.28057|0.72962|0.859845
-0.951191|-1.68056|-0.911691|-0.541193|4.87145|-2.0832|1.06533|0.983148|1.29477|2.61611|-1.09679|-1.03555|0.835786|-0.220126|-5.05917|-3.42241|-5.5319|0.227301|2.31631|2.19998|0.0867231
2.31267|1.90262|-4.52637|-2.12191|-0.615862|-2.4398|-1.33027|0.815723|-0.255217|0.276533|0.771564|-1.05661|-0.608908|4.8433|4.41887|-1.7279|-3.3925|-1.32727|4.00579|-3.82263|-0.806402
0.209446|-1.51162|-1.67912|-0.665992|-3.67326|-0.977422|0.24801|-0.691314|-1.91899|0.600207|3.20761|3.20894|-2.84975|-0.30517|2.88957|-4.24325|-0.964139|-1.2327|2.37818|0.915192|-0.572425
1.74274|0.460808|4.16402|-6.86661|2.5876|0.547379|-1.09286|1.05328|-1.06245|-0.503607|-3.13656|2.78746|-4.96366|-1.91255|-0.652652|0.882749|-0.109186|3.61324|-2.01428|-1.03012|-1.04321
-3.39588|0.507982|-0.861429|0.507245|-0.424844|-7.09439|-0.414432|3.03056|0.232892|4.61402|-3.06911|1.32868|1.10491|0.913584|0.531644|-5.11469|0.970707|1.873|-1.19073|1.74723|-2.71593
NUMBER_OF_CONNECTIONS: 35
-1.5854|-2.87651|1.24966|0.323836|0.13013|3.42574|0.0057911|-1.81353|-0.281811|1.29101|-1.04956|-2.11623|-0.345178|2.40277|1.31284|-0.205231|-1.67156|2.88425|-5.11266|-0.696175|-0.096049
-2.0207|0.0868038|-0.936927|0.904549|-3.80541|-3.33339|1.23755|-0.362438|-0.0796569|1.9406|0.675162|5.14341|-2.21517|-0.155201|0.549787|-5.17085|0.458126|-0.466|-2.25848|2.82571|-1.52837
-1.10395|0.37454|-3.05957|2.07012|-4.88859|-2.70768|-1.14428|2.58841|2.22009|-1.08878|-2.67781|0.145247|-2.40473|0.130908|-1.69221|0.404605|4.01595|1.02993|-1.98874|1.29805|1.96786
-1.90741|-4.78509|-1.95808|-1.96973|-4.8156|-1.77861|-1.21656|-1.18585|-0.549902|0.570428|-0.405719|2.20252|3.73837|4.58747|2.52518|-0.0621888|-0.631703|1.00931|-1.00706|4.20676|-1.11448
2.98121|2.08087|0.71087|-4.48449|1.47263|-0.7734|-0.645605|1.05306|-2.9537|-1.33473|2.89449|1.30365|-1.7529|1.21251|2.04543|-4.65347|-4.40261|0.227931|0.336528|0.944281|-3.78038
1.98117|2.21265|2.12743|0.482859|1.2853|-0.823735|1.4753|4.5853|1.63391|3.49003|-3.99768|-8.69061|2.08157|-2.03042|1.74824|-5.37173|0.10944|0.358128|0.354039|-4.3211|-7.5582
1.08014|-1.19878|2.25953|-4.03368|-1.29665|2.22968|-0.365741|1.37081|-0.843141|-0.255586|3.70493|-0.360336|-3.71945|-0.913532|2.25444|-1.48511|-2.31441|1.96975|-2.82238|0.8942|-2.13964
1.08399|0.161818|-3.49013|1.87605|-1.4329|-2.81924|0.229559|1.77521|-0.812715|-0.313965|-1.2383|-3.65436|-1.76864|1.11684|-2.94899|-1.38042|4.375|-0.320447|2.25197|-0.532677|-0.436465
0.983754|1.83162|-1.87548|-4.32713|-4.05094|0.928438|0.794087|1.18089|1.86782|3.401|-3.3966|-0.880449|1.56301|0.0950205|2.24723|-3.97189|-0.309951|-5.41498|1.67142|0.224578|1.84775
-0.372939|0.533386|1.28326|-0.530959|-0.306582|2.78559|-1.0854|0.375013|-3.85647|0.149975|0.0836823|-0.215531|-1.54568|2.5767|-3.39492|-0.472896|-0.299426|-0.138772|-0.661879|1.89753|-2.40123
-1.22194|-1.72467|-1.43457|6.73767|3.3449|-0.356434|3.55645|0.19326|-4.34148|-3.75918|-1.80483|-5.94711|3.12352|-0.867383|1.78472|-0.554207|-1.1619|3.24748|0.42828|-7.15394|1.96555
-3.05413|-0.169659|1.87278|3.81766|-2.8868|2.74805|2.10162|-0.398561|-6.56102|0.21774|0.843015|1.29884|-3.81294|2.2196|1.03938|-0.143173|-2.02856|0.0150186|-0.107873|-3.83498|-0.80003
2.84202|-0.902408|-1.81143|2.10443|1.89569|0.551501|-3.29623|-1.41475|-3.18947|-0.318118|-1.42335|-2.26534|1.82115|-4.85442|0.125751|-0.937607|-1.87401|0.936118|3.23292|0.0885025|-0.0729362
0.45534|-3.79823|-1.17918|1.76395|2.11388|1.89913|1.63408|-2.23568|1.87729|-3.24604|-0.506222|-1.46598|-0.145826|-2.17309|-9.3107|-1.12868|1.49373|0.118558|2.08961|3.05252|-0.690652
-4.20296|3.39643|3.98127|-0.451728|-2.19258|-3.49821|0.605078|-2.40644|-1.25701|0.83099|1.56433|-0.376714|2.7624|-2.28884|-4.28768|-3.74648|1.74986|-0.981511|3.85741|1.39762|-1.56454
0.597054|-2.032|1.10219|0.223194|1.44717|0.782432|-1.50148|2.15939|-0.340742|1.68135|-0.887368|-2.53718|1.17895|-1.59168|-2.02211|-2.29002|-4.04531|0.771174|-1.41701|-2.40532|2.6668
-1.23692|2.2167|-2.55352|-1.80619|-2.36608|0.607369|-2.31072|3.94813|-0.586011|-1.75737|-2.38384|-0.340573|2.57705|3.33547|0.106903|-1.05915|-1.85902|-1.28569|1.16013|-2.90715|2.03146
1.55498|-1.42761|3.39622|2.46494|-1.81234|0.525912|-3.44419|2.07421|-3.27958|1.72937|1.79446|1.40554|-2.58416|-6.18328|-3.46924|2.30993|-1.02848|0.98288|-2.70391|1.99907|-0.505421
3.26329|-1.03617|0.233955|-1.04675|-5.0974|-1.859|2.88636|0.750257|2.71742|2.22965|-1.64998|-0.172192|1.01018|-4.80927|-2.66998|2.64857|-1.55804|0.00656696|1.81616|-2.216|-1.57827
1.35504|-0.497691|-1.03957|1.0167|3.38912|-2.43882|-1.16712|-0.382729|1.13971|-6.34992|-1.28762|-1.08782|-1.85003|-3.23341|0.843944|3.81418|2.09882|2.20846|-3.08424|-0.0181843|-1.7679
-0.847367|1.46609|0.462144|0.35143|-0.475403|2.42249|-1.85917|1.33721|0.0280245|0.864833|-0.596511|1.68443|-5.07732|-2.1871|1.63396|2.13469|-0.202336|-0.30454|0.93111|-0.9425|-2.92636
-2.37102|2.28859|-0.000558832|1.10146|-1.39978|-0.414384|1.27426|-2.37849|-4.90685|-1.42596|0.251195|-12.3588|1.73535|0.200205|-0.170974|2.77053|-0.588882|2.1895|5.38556|0.340175|2.2512
-1.47617|-1.14233|-0.498804|-3.06124|0.326227|-2.41091|-1.68473|-3.51869|3.01211|0.362281|0.241278|2.28104|2.69505|1.43537|-0.522524|0.215492|0.70371|-4.80596|2.57562|2.25995|-4.1902
0.437611|-2.25445|-0.320705|-1.71015|0.396827|-5.66678|2.94975|1.20265|-0.71747|0.293764|-4.68122|-1.43049|1.76096|0.690117|2.21533|-2.20508|1.64887|2.72224|-0.638231|-0.658648|-1.64025
-0.447374|-1.97741|-1.2588|-3.1597|2.05755|0.650143|0.497549|0.979258|3.21298|-0.334362|-3.91622|-1.62328|3.86241|3.72212|-2.62807|-3.34769|-4.52266|-1.74378|0.784284|4.24712|-1.5892
-1.20168|-4.82484|3.11425|-1.08828|-2.54523|0.225737|-1.23507|-1.93075|-1.66002|2.13251|-2.50122|2.64518|0.182282|-4.24904|1.83631|-3.09186|-1.62919|2.22135|4.24356|1.8459|1.33415
5.32625|-3.77916|-1.09009|1.6999|0.0899047|-2.51678|0.183038|-1.85631|1.84633|-2.50824|-2.23376|-2.60356|-1.09075|2.14783|2.28003|1.32904|1.08943|-2.08538|-0.646844|-3.00955|1.08014
0.196106|1.97284|-0.749482|3.1647|-0.404047|0.946199|-0.82921|3.30604|1.40514|1.4464|-3.23067|0.616321|-1.71447|-0.516439|-3.41349|1.35918|-0.432478|-0.474403|-0.968771|-6.34094|-2.80841
-0.218983|-2.09024|-1.14093|0.656445|1.86872|3.75129|1.5403|-0.457772|-2.97321|-2.19656|-0.962357|-0.304979|2.32615|-1.82968|-4.93468|-0.441415|0.151295|0.882453|-3.31796|-0.0876851|0.581636
-1.11279|-1.21751|-1.10915|-1.38907|1.14405|-3.1786|2.10871|-1.41858|-0.0656131|-0.7699|0.370267|-2.62615|-0.225127|2.39676|2.57108|-2.43698|-1.00137|1.75478|0.670743|2.60372|-2.34149
2.49199|-0.631018|-3.0582|3.38851|3.38223|-4.68315|0.195456|0.418606|-3.10672|0.141492|-1.12568|1.31077|-1.89034|0.605421|-0.660194|0.284023|2.24278|-0.572299|-4.13367|-0.84196|-0.0901331
1.85236|-1.20299|0.161066|-1.88559|-2.17763|2.9815|-0.71161|-0.771211|-2.56214|-2.16939|2.03016|-2.62812|-0.84341|-0.203842|0.318639|-4.82951|-0.71526|-1.788|5.42553|3.39611|2.08289
-2.62275|0.0499747|-0.0153859|1.05514|-1.56454|-0.469951|-4.63489|-1.5523|0.562915|0.255406|2.56178|1.35293|-0.684941|2.55766|-0.792238|-1.74447|-4.23801|-2.58652|5.51701|-0.0160401|-0.423404
2.47133|-2.31968|0.897711|-0.953947|2.8082|4.66638|-1.97105|2.42411|-1.85983|2.73691|2.0944|-1.37309|-0.462531|1.01925|-1.82227|1.94481|-4.93483|-1.83967|-3.11492|-2.98555|-3.77317
2.51918|1.34257|0.759288|-3.20514|-2.89387|-3.47576|-2.17634|-2.26272|-1.84599|3.33459|1.02786|-0.278147|-2.30423|2.97594|2.23871|1.66689|-1.90928|-0.276689|-0.900697|1.45021|-2.60386
NUMBER_OF_CONNECTIONS: 35
-5.88357
-9.69147
-7.84763
-5.63101
-8.3757
-9.84362
-6.81101
-9.1804
-6.58272
-6.78211
-7.01805
-8.43419
-9.93352
-10.2137
-8.18281
-9.553
-7.43975
-7.17771
-7.15617
-9.34543
-3.14909
-7.3277
-8.28735
-8.32529
-7.73646
-7.46903
-7.47732
-8.58365
-10.1986
-6.34471
-7.17403
-5.39992
-8.49239
-7.27776
-7.72472
LAYER: 1
NEURON_COUNT: 36
NUMBER_OF_CONNECTIONS: 3
0.770272
-16.3781
14.9004
NUMBER_OF_CONNECTIONS: 3
-20.6734
22.9322
-19.4868
NUMBER_OF_CONNECTIONS: 3
21.4778
-16.7855
-22.1674
NUMBER_OF_CONNECTIONS: 3
19.2177
-10.7438
-16.5804
NUMBER_OF_CONNECTIONS: 3
16.0313
-22.2193
-3.3217
NUMBER_OF_CONNECTIONS: 3
-21.3116
26.3286
-14.2935
NUMBER_OF_CONNECTIONS: 3
6.8138
5.46893
-22.4006
NUMBER_OF_CONNECTIONS: 3
-23.2058
-4.23107
24.3221
NUMBER_OF_CONNECTIONS: 3
4.44271
8.48697
-23.4094
NUMBER_OF_CONNECTIONS: 3
12.4865
-10.2776
-22.4413
NUMBER_OF_CONNECTIONS: 3
16.9438
-14.2962
-12.729
NUMBER_OF_CONNECTIONS: 3
-23.7533
24.716
-5.02518
NUMBER_OF_CONNECTIONS: 3
-26.0698
26.7045
-0.550759
NUMBER_OF_CONNECTIONS: 3
-24.653
-10.588
26.1075
NUMBER_OF_CONNECTIONS: 3
18.389
-9.05519
-19.9568
NUMBER_OF_CONNECTIONS: 3
-14.1233
-13.7826
23.8945
NUMBER_OF_CONNECTIONS: 3
-22.5718
18.9306
12.6746
NUMBER_OF_CONNECTIONS: 3
-21.3967
12.5693
14.9026
NUMBER_OF_CONNECTIONS: 3
5.25788
-19.3089
10.7308
NUMBER_OF_CONNECTIONS: 3
-12.5988
-22.1233
18.5806
NUMBER_OF_CONNECTIONS: 3
2.5948
-11.8169
8.45837
NUMBER_OF_CONNECTIONS: 3
24.0578
-22.728
-19.0022
NUMBER_OF_CONNECTIONS: 3
-24.7087
4.45822
23.4146
NUMBER_OF_CONNECTIONS: 3
-7.32966
-19.8106
18.6727
NUMBER_OF_CONNECTIONS: 3
18.2908
-9.06221
-18.4982
NUMBER_OF_CONNECTIONS: 3
22.1183
-26.9075
-5.12839
NUMBER_OF_CONNECTIONS: 3
21.2417
-13.0635
-18.7333
NUMBER_OF_CONNECTIONS: 3
24.9824
-29.1297
-12.4246
NUMBER_OF_CONNECTIONS: 3
-17.941
27.0642
-22.3387
NUMBER_OF_CONNECTIONS: 3
-29.3086
11.2401
11.3962
NUMBER_OF_CONNECTIONS: 3
15.3138
-6.64728
-21.7665
NUMBER_OF_CONNECTIONS: 3
5.25485
-16.5626
8.6492
NUMBER_OF_CONNECTIONS: 3
-17.8895
21.9362
-18.2674
NUMBER_OF_CONNECTIONS: 3
19.1069
-14.3146
-21.0254
NUMBER_OF_CONNECTIONS: 3
-20.443
21.0373
4.15644
NUMBER_OF_CONNECTIONS: 3
-7.28723
4.82649
-2.49203
LAYER: 2
NEURON_COUNT: 4
NUMBER_OF_CONNECTIONS: 0
NUMBER_OF_CONNECTIONS: 0
NUMBER_OF_CONNECTIONS: 0
NUMBER_OF_CONNECTIONS: 0
